{"act_func":["reLU","reLU","softmax"],"layers":[{"inputNeuronCount":784,"outputNeuronCount":128,"weights":[[0.005054280469549279,-0.013702263363096028,0.00962256010136047,0.006998131459402443,-0.00016029560036147827,0.00940701384248722,-0.010892733571717895,-0.006198282889762802,-0.004742906803453282,-0.006199481604073534,0.007676924593707097,0.0014376697635875657,-0.0012725087484098065,0.004030392433619233,-0.006627099311357901,-0.003290331842001845,0.009948201232747015,0.0042475603072563844,-0.001215934795743537,0.012840610700299722,-0.003046641674803917,-0.0032636742419628164,-0.008462172236776738,-0.018987933879032144,0.014036149139754692,-0.01253422850341866,0.018906322717250967,-0.018610307225910228,-0.002703777360197509,0.009527881503600007,-0.0031651620503219432,-0.008303470550349815,0.01240531338946081,-0.010395214452881772,-0.014075122562045694,0.007864814010678199,-0.0010065707178402046,0.00434352243135647,0.009855958287558456,0.008065623032938368,-0.009185957269746772,0.00649774298111957,0.0044425348949629784,-0.009157053955928095,0.004438010835278643,0.023433721896777882,-0.0059276282312271614,-0.005655764222101709,-0.0020542099641221497,-0.009719725410488078,-0.005316626572638411,0.00018652561313095616,-0.006424516113587789,-0.007650399056235515,0.006228406809216813,-0.026017814814960447,0.0056374763155561175,-0.011850705957708714,-0.0028534544846284585,0.009271898054934008,0.015665715570001685,0.0033931842132977,-0.0059988402675658255,-0.006243946831716279,-0.0014714230094494023,-0.007932290637991099,0.00003563842944411457,-0.016731628371155636,-0.01361408899176254,-0.0043108157868336945,0.004130880036754809,-0.005914440897295908,-0.00891320648379488,0.01887867957654392,0.004046386695691434,-0.006000615641924192,-0.006299555995108386,0.007483811132726681,-0.01773881490716709,0.004557943753373683,-0.006271451577669607,-0.002367675750220088,-0.0035245133780963827,0.00523281762223632,0.010983021330115462,0.02192068449352243,-0.003585774096544198,-0.007303314476987424,0.005629729749483432,0.007715156920511397,0.012009901784192645,0.0030696058451084762,0.000029217824180061226,0.00017446881988103285,-0.012954990151546233,-0.0005921986987351961,0.012627103010047427,0.0013505912141947832,-0.02254035014654695,-0.027423642308376607,-0.032237777037916075,-0.010342959440267497,-0.018606348416116747,-0.027199672275000815,-0.0011570621643823642,-0.001798112120829448,-0.006119276632491971,-0.004774192743125874,-0.02396383448829864,-0.01125463965506498,-0.007771749871082551,0.00725919995831205,-0.004850127983075673,0.0068154255970611375,-0.0014079952533378945,0.013906190697144945,0.0026836106506380355,0.0017988733054579633,0.007168041331414762,0.0024704665470364857,0.024206156832720847,0.004237747418807257,0.017843459460193507,0.011261139491738428,0.02080304270871561,0.0034758578016347275,-0.02387991577761922,-0.015051495172830847,-0.04208541746987496,-0.058428136327505195,-0.04753152374608547,-0.03745502612025746,-0.02647981750785075,-0.015785072585353565,0.002281628977977581,0.015483844035187563,-0.006587471943291508,-0.02466209175603267,-0.008943555859491132,-0.01757599557390316,0.0005577124657323188,-0.01750310012489415,0.0017392854939755806,-0.009121477513806013,0.003913323155119802,0.024088875479209196,0.018553222467757396,0.011628131571969416,0.02329626150160484,0.014277955933102885,0.038324312347484034,0.04016617429437214,0.01455953661243638,0.007108398148291688,-0.028911142210885553,-0.034938663577373116,-0.04755542632481613,-0.05895393902715614,-0.06603469544075914,-0.04988451837848002,-0.03793881474249674,-0.028265896861064167,-0.015216594616755341,-0.013342917879097641,-0.00658875314372231,-0.009062190316427536,0.012543862179848004,0.007478533267988281,-0.0041904227323240045,0.003216569705726696,0.0033229351716618665,-0.006085892244990324,0.010872146658486298,0.009276798509130121,0.015358028049962051,0.011512856215184194,0.02546571166313122,0.013712163743257387,0.032191841494586995,0.011607615067440864,0.0029512877076432664,0.006285717931733065,-0.0027622496323156773,0.0008067055075344961,-0.011351796860497837,-0.03290565626719198,-0.054194056875866876,-0.08587890815202265,-0.05691276667715276,-0.0403353977480574,-0.050422246043721135,-0.022673322728281098,0.0013145448331674874,0.009227225801941706,0.0005687204742285311,-0.009136797504835405,-0.012554429452807294,-0.004699136414513364,0.0070666791143070605,0.004714772483005953,-0.007620251422436446,0.00512106273712168,0.01015810862980676,0.00097150774765947,0.0036783803601012546,0.028035553909881446,-0.007584006739807808,0.019570496649420985,0.014951053395751106,0.06836279748370545,0.04070082005663754,0.06881322019002589,0.04701831794629827,-0.01864790222657695,-0.052142672827541224,-0.08542878386842198,-0.0461186003308807,-0.041867929711583755,-0.016616794410157374,-0.03446568019735929,-0.029899328286037214,0.008463821518602144,0.005818204720869502,0.025507848381675666,-0.0034126910960141617,-0.00827286875216591,0.0012923668548404355,0.015430132285108245,0.0024124535297857515,-0.0009553892804201373,0.010338379531281456,-0.00452805660230295,0.03945220799531281,-0.0007130016366962855,0.049675393715434356,0.014015487351245403,0.04631023103266387,0.04342389397431897,0.06413499889038071,0.07296215088923645,0.046893118053168946,-0.005079768794296788,-0.05073536999828513,-0.07830338972340965,-0.09115827843389039,-0.032532359261570484,-0.034583718696508614,-0.04373034714709208,0.005573378231243829,-0.009866825026999065,-0.009168600184324026,-0.00816263196522092,0.006734166267160529,0.003526442786307018,0.007967468962808139,0.005351858483612709,0.0012018843548859122,-0.002757595272668368,0.00528640058571682,-0.001721520067925312,0.017210474386333406,0.018687196012499362,0.01674416724349935,0.036818332870419426,0.034405267312378536,0.04092866496445066,0.07351486911967847,0.06798651114725135,0.03986425510460764,0.00532136450501691,-0.03850256749809469,-0.04682857088545481,-0.06391434685613143,-0.051526261264646905,-0.03986931075600957,-0.03321824550870774,-0.02388034574448938,0.009935450701550129,0.008303751207513208,0.008213689967167948,-0.0038094333595327995,0.0017010875179292756,0.0014212167219586154,-0.0030000001081985,0.012230289776424288,0.005299522184078198,-0.004973048956628417,-0.014368821682301441,0.006621213855226494,0.01676082905850407,0.0002148708122036825,0.005493334181016172,0.019138571372347493,0.03571624049028099,0.06404323103636055,0.05825797215208452,0.04821720722509006,-0.0012852203869095314,-0.03380777914913157,-0.05162899436249226,-0.029830408561505824,-0.03466871192399911,-0.027166677563316706,-0.03263092118408351,-0.0213090166550412,-0.012560560155743512,-0.016005617517805996,-0.010522712494743037,-0.0014974257679970958,-0.004297568924106557,0.0009582037197129386,-0.008211296184207857,-0.020149198011545855,0.0018693554830991794,-0.017389494859059027,0.006739571318344613,0.015449995270227796,-0.003661003119408944,-0.0002204855146895642,-0.0025131384518712356,0.02130845346028372,0.022870677291453173,0.05961462522666579,0.05261402311219462,0.04071013754286415,0.04252956034085731,-0.005580704708846234,-0.023563320952327247,-0.014012448372838923,-0.02573007064080818,-0.02875605929601868,-0.025108794583045973,-0.01042127055823033,0.019784364393122277,0.013930691437863149,-0.0009571234517655393,0.006696113426431085,0.003742847488334919,-0.01037633538856693,-0.006450806878839553,-0.000947388994748132,-0.021377620861065226,-0.016344848707861497,-0.012960834089477838,-0.002515740128342288,-0.020742694773391013,-0.0211829745455137,-0.02403064002462292,-0.013162393698689932,0.026159713491881703,0.07869464799661977,0.06025945572786731,0.04539611027409636,0.049474900610794875,0.016954664841822852,-0.03639064106496913,-0.038529882597801025,-0.035586059884072006,-0.0040902610717644585,0.010867996041510484,0.01861473153027923,0.00741502786034321,0.0026395313384943112,-0.00008664915651298476,0.0039737717973696044,-0.014504975846484316,-0.0006542471671502725,0.0034334113923813097,0.017722046344678635,-0.015619072372741093,-0.020778323932878248,-0.006168009043947136,-0.008298122890132641,-0.013502153616477088,-0.010162954650922724,-0.005984598890750992,0.0073343425651404654,0.03978067845508349,0.05761205087418754,0.04617950977206532,0.021783367930792795,0.024937084165382054,-0.015340363627562855,-0.01252973515173226,-0.025993210799724498,-0.006983058942079359,-0.008469080623361406,0.005916933740017946,-0.006710089449334185,0.015003872068344215,0.012540211242610304,-0.004639564298220076,-0.01006034624547028,-0.0006415311990219297,0.008551931296900694,0.004005850342148443,-0.007208469605533778,-0.00611990647417018,-0.018851743046486555,-0.027136308481449378,-0.04069793990436458,0.0018367723900129546,-0.0032661345642605814,0.003176071801222726,0.007305449518309231,0.021753214927602137,0.016545531980911143,0.017645478820235438,0.024177163850113172,0.010430181149722082,0.0041269394935792725,-0.020364387346132523,-0.025540074509197774,0.0007964590469181313,-0.003287880627776313,-0.007173029260925082,-0.004789300766768875,0.008240592101308014,0.01308944809281701,0.005800810808973667,-0.024202687315704928,0.005082060020728195,-0.011987851616904022,-0.004007802999561551,-0.004095909463094977,-0.02118667895846426,-0.03125410383388475,-0.03274414463947455,-0.01801752156899675,-0.008360009981941736,0.011956481652731978,0.015836508238334632,0.02053225976109989,0.02611529928609888,0.02693826480821844,0.03938731246804248,0.02626599683974226,0.037037805052612165,-0.008569195915303095,-0.003776649654996475,0.0005292016733042922,0.020639456920116053,0.013443911729912347,0.015134114781013928,0.012779967781985403,0.018544661088432494,0.01813324628738825,0.008654427923989329,-0.015731859293000854,-0.003788070517121364,-0.015331866779958294,-0.009502470869690992,-0.012713204695601004,-0.036846030051056446,-0.016643715679562476,-0.006487515014309936,0.0023428592962851037,0.022672867818472733,0.027750611875307245,0.028371182914331036,0.02205510014717669,0.00328535274801656,0.010626939981620205,0.025176273605771064,0.027317363628680296,0.01064227107966189,-0.013430285247897604,-0.008728226835835323,0.007250889184451916,0.026490089942848297,0.0239529331151294,0.0063399660752720575,0.004991827760698391,-0.002282134384874109,0.0066686707809742755,0.005450126660597447,-0.0005528682060218653,0.01566245574921812,0.002894208632019425,0.013696659216361705,-0.0006742750577457708,-0.0028614348048865475,-0.009192152885647025,-0.02772608710662896,-0.004101027158453105,0.008704324677364945,0.002458691404888557,0.0030345335255148567,-0.01270834006908163,0.012377561198065844,0.016377804908250894,0.017679441357605546,-0.001617905764347267,0.00807457854976298,-0.007840287092743497,-0.018718302485876574,0.009270947917707252,0.01231656026744974,0.005564297090364366,0.014584990178601069,-0.0007018948915411097,0.0018538337070066755,0.008017914871161722,0.0022412082831251073,0.0036523119913766866,0.005480372912547273,0.004898134395306108,-0.005234524838752511,0.02118496131615267,-0.003814312972980018,-0.02297648566743221,-0.012132355754551141,-0.005948443521711352,-0.014889514396263777,-0.02328925479482559,-0.03132360140796486,-0.05891861774921963,-0.03211206777993488,0.0065124103521183325,-0.004655314422014617,-0.03731218937453654,-0.01573194446255016,-0.03079931549575958,-0.00013952407635326545,0.008725132534147645,-0.005594752998804789,-0.0010960567163949345,-0.00846445183687813,-0.005192108009852935,0.0009427667076132469,0.002578216251217461,-0.0011977952179236205,0.01801732908674813,-0.007469717610042164,-0.0020381644006523345,0.0008280566978368741,-0.022363621564904592,-0.020970162211338385,-0.011994075901629849,-0.022543572458219353,-0.028934544759208147,-0.018983254332149115,-0.03691335688277756,-0.05233866822772206,-0.05549496460331887,-0.004850905473799062,-0.002330171743176259,-0.008026744021286145,0.0021252276360014043,-0.03024359358397496,-0.018618262083333795,0.012008085895560775,0.0002392073830053035,0.006196975790690202,0.003956236207460708,-0.004448181543623971,-0.0032529068224111104,0.01326612782732474,0.0016915613505330968,0.007227385311616821,-0.000823919150861751,-0.01758008482310542,0.009086460988588148,-0.00036378891996783827,0.0048525952875474706,-0.03294638775734362,-0.03754204633197937,-0.013277803563640025,-0.026046454174074685,0.004582298094137617,-0.03412752116511721,-0.04459969310123643,-0.01655733744527153,-0.0132450412525157,0.01504833996516223,0.00013039232260284004,-0.007106293263682402,-0.01878900472437089,-0.04326371486371979,-0.0018994474577483536,-0.002163971113252462,0.0030903819451087366,-0.014267357211230574,-0.017059437863170174,-0.008575314792284036,-0.015031244437617565,-0.008366588827517375,-0.005544386725282085,-0.02333953818888641,0.02490296467513398,0.015837826046292424,-0.004440654712688567,0.007910968554941805,-0.0098742497126051,-0.03144314335322737,-0.031962300986336824,-0.01798654370349078,-0.023159466231869055,-0.024696345143681558,-0.00700182118292214,-0.015034851676426358,-0.006859902155704055,-0.00016234724327509226,-0.0029982651947524715,-0.011620980601893066,-0.029669194125272025,-0.028967872553356203,-0.006690149338422157,0.028476641838827175,-0.008241502308539334,-0.016261899503893985,-0.002471832726738845,-0.001840182482199636,-0.003984950642516627,-0.005117200248754135,0.012760001734454001,0.0034504549024420576,-0.0038119724042906806,0.005189368764177728,0.004627193593067312,0.01422283123125561,-0.02713233203090858,-0.03141032133887378,-0.04114876130871752,-0.042092626737044114,-0.04046720430934355,-0.016427305738715516,-0.01283942895029833,0.00972209418433738,-0.003757880456523766,0.014265940363957131,-0.010165290513190473,-0.021502827441413602,-0.03325843074662211,-0.006065124745755544,-0.027880387331981414,-0.01913252395167924,-0.00905428098167979,-0.0071905072832226585,-0.013903104940441245,-0.003212897575434289,0.0015487663919916018,0.010451283001650737,0.0009943113223997717,0.0023320238777063706,0.02064976189482691,-0.000596306934661218,-0.008270528083684302,0.0037181677180182357,-0.005527344226814732,-0.009211501525584679,-0.03249528681420191,-0.02226230888257217,-0.05074945022523975,-0.03346924584827115,0.013643675403414475,-0.008872798807878593,0.017558345312450915,0.0017295615501869371,-0.01146800281776625,-0.01035191040841564,-0.016864849823759884,-0.02363250447303696,-0.01430394062372664,-0.014723589962160862,-0.014952344328242011,0.005118171295044892,0.004115985305944484,-0.006186532811298947,-0.007850272317020719,0.0005845039129142933,0.008498085893205873,-0.001347339506421105,0.0012502120282954618,-0.003931612352158122,-0.030436711477049423,0.03179547676215953,0.029339759757719547,-0.007330169913293904,0.000120354688730587,-0.013372737179862872,-0.026385515763105574,-0.011460284087467389,-0.011178527965363947,-0.00945668983242546,-0.005750139945834156,-0.01576504542323365,0.003673863868966393,-0.00876785347683001,0.006507149524291863,-0.02908998860451071,-0.015667322622000025,-0.016736799899722616,0.0015861090714719191,-0.0044785603305683985,0.0005973320379635182,-0.01706046528057339,0.02436455021709389,-0.018726439186521875,-0.017998142606686446,0.006998763375589133,-0.009428150129535733,0.0097235545677373,0.014467510917455068,0.021456638796134773,0.012226401418919699,0.002819697876752602,0.011361106782066437,-0.0024492657062838634,0.014938747617388027,0.0007775842016609945,0.01831313550998954,0.019316554097339504,0.016329253459859278,0.006573604430703693,-0.0023301247541248848,0.003628622186628214,0.01888357899335146,0.0005102451226521924,0.013018873184559434,0.018187740263050426,0.001182412127906731,-0.0067720251210510295,0.00850661838531119,-0.015327059075843294,-0.00897477631457068,0.007431414110503933,0.012158280871198732,-0.010892427368532902,0.014857632109515817,-0.0011448984932985282,-0.005103199709796383,-0.004171575487574782,-0.007892277009874672,0.0058423059537599615,0.009237551929880702,-0.0012561785864078716,0.005098893352653102,0.020196997369843178,0.0011335763652789684,0.012731685983944198,0.007444135034736632,0.019476361544790596,0.0153875558288432,0.03052634321633638,0.004880591553003944,0.022725364687467064,-0.00015706982808747877,-0.0016419871920140994,0.0058468969613712715,0.004171877941279952,-0.008382243428109407,-0.0007820508293476505,-0.0001962735970419896,0.01731686449092815,-0.017231118203387574,-0.0023914485897860685,0.0024764666203159697,-0.002158268862817879,-0.008004930331148286,0.016363763835587592,0.0059877924232012835,-0.010353300435695373,-0.004994263112806933,0.01137105899525505,-0.0028399773257383634,0.01887981411784133,0.0033176134844401547,-0.008830708544430608,-0.0013918689749774747,-0.005965547939911115,-0.007233765074955388,-0.006134593311777098,-0.008651433094727838,-0.013206439032453488,-0.007463136141977754,-0.004056302577607143,-0.010786519107032195,0.0009897122086732512,-0.001031992130208432,-0.0016536569007617617,-0.01263625524611114,-0.0035427255210405168,0.008369388781961931],[-0.008005440380714884,-0.016439286002385596,-0.00115622125521758,-0.00022182798728952288,-0.002042377789634861,0.005623327917246242,-0.0031156166365462206,0.012111766675404444,0.011076068612730802,-0.006175139791083983,-0.006617632761923719,-0.014029091449016264,-0.002827634954181411,0.0005612792014174824,-0.011758987930985468,0.0009356518655867001,-0.008145034462536161,0.010573556448038068,-0.01740196598628021,0.006413083005013435,-0.022218611697425623,-0.0027574518660808734,-0.020207581141073263,-0.006181361066874418,-0.017751680781617565,-0.006432537773874622,-0.006719744069529017,-0.0015009292525215846,-0.003925778975613799,0.002283507625168001,-0.007484552360566563,0.006128782187612603,-0.007293099849787526,-0.01672869099007014,-0.0018425565662941522,0.016047778907747497,-0.007924955613941135,0.00918813814713439,-0.0038759288470024784,0.0002608863899797969,0.010169845198538818,0.002911509935333441,0.004028773731606774,-0.011796453164681985,0.013017942527180875,0.005419340625521438,0.018948279205815044,0.011102206997641884,0.011367486420639755,-0.0019000331925201667,0.002810460703334499,-0.013291402658610127,0.004475222884935764,-0.01722897535349474,0.010074201001928504,0.008767487656647284,-0.022120456791045396,0.0016250287575569592,-0.012375990370118137,0.001643433542320978,-0.010751776544365632,-0.003789831778775197,0.007424188361850849,-0.001632297234024064,0.003176976243634269,0.006725443347568273,0.004748759027324372,0.007649964750131955,-0.013119734551158916,0.020221237796397284,0.006403461917685787,0.02448944948372903,0.002283815683900731,0.011680622705759676,-0.007302140262172305,-0.005365582378836485,0.012623500031860468,0.0030934410475912744,-0.0040111698760441905,0.00928758890471031,0.013176186778626605,0.025239838997813475,0.011634315595579614,-0.013593815526531073,0.0004759001422046249,-0.010052843237133999,0.020234394704313763,0.005626200163598989,-0.011614391746353495,0.002180636632631632,-0.0051596424667829325,0.007411850862831558,-0.0006311519272145351,0.003502687984259608,0.024469502602389406,0.024803224282474466,0.014824153773813615,0.008263237108247749,0.027511631655577257,0.005320875707748916,-0.006361058643636317,0.01799860424176813,0.0038760647637713468,0.03137404109680432,0.02361321740483016,0.00747909841374124,-0.006732257590629405,-0.005113532149594647,0.008344375314731745,0.01381882106885343,-0.014642004369804649,-0.00870721950892774,-0.024949651217525043,0.017920197207632577,0.00015563860219731764,0.007263768973700344,-0.01290504107448096,0.01464330011822144,-0.0036043005156989527,0.013767401483556313,0.008882700703206558,0.0008161122977052046,0.00033918581679096504,-0.00959117371511564,-0.012920601434949185,-0.02499596902954848,0.00980767439299175,-0.0006225269061300359,-0.02747635518652415,-0.008142346289105137,-0.0037413206464620387,-0.0042584969650230455,-0.007370533746274087,-0.0031128446709435867,-0.006569481426537177,-0.006016039913310773,-0.011576206916649099,-0.000672487075001147,-0.018539480494980186,-0.0022379246489271725,0.006120501356783504,0.007135561787472331,0.0007163273558111679,0.003010546303669247,-0.013775534380124608,-0.00808136043890583,0.0021056148284522035,-0.01535000540609463,-0.012283341502674907,-0.004232075376047778,0.005745671699127872,-0.02486857505294941,-0.028468452056983486,-0.04347943475930348,-0.012421797600249973,-0.027355890709720464,-0.0208494720619907,-0.0062066355280504405,-0.02022962359784769,-0.023571295612906013,-0.013967311365845822,-0.00009435035657377691,-0.014634581897574661,-0.0027325154881294804,-0.011196903522557453,-0.021985396720671433,-0.00656823194090206,0.0003042301729844949,-0.01717294415827502,0.00928733668143453,0.014674853389677205,-0.009312557472940576,-0.004542930078628854,0.0023507265345283157,-0.012489721924102727,0.007026672038160314,0.013422369140006453,-0.005731924462526974,0.007665651342754012,-0.000962608450822717,-0.019958914758533015,-0.008701477741950845,-0.007525655170103528,0.011148072414620715,0.015677432923541373,0.020126434984957916,0.0048738490173676,-0.004526341368908695,-0.004216824252684851,-0.0019084681860357822,-0.009448333071634426,-0.017984910118822046,-0.009676923478310635,-0.040715894071745855,0.00706283779312058,0.015740408752362108,-0.011523853703377053,0.00006847352607856754,-0.00427941456013917,0.009840264641023668,0.0005745231418638351,0.013073280853693085,0.003484055697193993,0.032289931531905715,0.01484480615153742,0.040798983866175684,0.02683168986292177,0.030806772081006076,0.02869473630585402,0.0332103563665073,0.054676162074281144,0.039298247100253585,0.026040451840314473,0.004396510472854107,0.00901466911826551,0.024423323836170904,0.009822378194402348,-0.005144454076748013,-0.030071143263437895,-0.003153281130785455,0.0037756656787286324,-0.010464458017615232,0.002888954224718418,0.0068291223992977676,-0.009062477136367219,0.00296137710679996,0.01806445644169867,0.002969879196603871,-0.0015343795136297902,0.023353783833932346,-0.02499580296645464,0.034933260053448094,0.035819366706165576,0.0520310729199801,0.03889455907566318,0.05001271943355634,0.05818560927014793,0.03504498145296963,0.05146293653459605,0.021945154930817497,0.011167946485716335,-0.00024871976203239395,0.015953564798393757,0.014074904040314484,0.00815472309613298,-0.009458519209601465,0.009482619436337193,-0.015624490524357182,-0.00885968778438464,0.0040032756812721365,-0.006013679365727567,0.014345813506132076,-0.0017368994815445337,-0.009629249145065076,-0.002046252298198152,0.009653619027870694,-0.0041627981430374696,0.021626043214129205,0.00097434084037853,0.016574841092863283,0.03388659117127162,0.031341349561011596,0.035920944352803956,0.05819882787813297,0.06297679698152149,0.03055833123171136,-0.010629444459579156,-0.028141668010101387,-0.035822597002164495,-0.005337038931947184,-0.028730815721498815,-0.006746927859149214,-0.0006509391392790367,-0.006701862053293722,-0.0015330957972791168,-0.0064704476339414166,-0.013673274234869626,-0.008375352121501976,-0.00803186706286905,0.0006831752919916944,-0.0017750692845436846,0.008063503677525985,0.001932403592928487,-0.01630057997001276,0.011021855779427554,-0.001033387072683508,0.006864009913368593,0.00928906325876682,0.03618021360170076,0.023227870118824233,0.008244667873469353,-0.02417989265818916,-0.011012792125183156,-0.03459444089484615,-0.046324026538269586,-0.05451147387229877,-0.03229382042043394,-0.03641958687099135,-0.029215834505510904,-0.02339402436774288,-0.014663120944103752,0.00044758825910490833,0.01174184595080152,-0.025565284209584364,-0.01604143914170904,-0.003035101877771874,-0.0011132159612455984,0.007985879594910652,0.009502830003757188,-0.01293913086089407,0.00657343157041176,-0.025731606488415545,-0.006329783871983502,-0.008613442027315902,-0.020507380276388383,-0.003273134724686394,-0.0008989339079266174,-0.02036470874763005,-0.038200934526134114,-0.019619595417517417,-0.06326187122062836,-0.07000875150454576,-0.06021933170000445,-0.035220707033475684,-0.006689540041989179,-0.024619583930867682,-0.017351579851844812,-0.03191355193427065,-0.0197169924291899,-0.009719679579135311,-0.0008510768546880779,-0.005722007457345821,-0.027233856738644077,-0.01454318535645742,-0.021065059447580525,0.00232944667995868,-0.00877405628160485,-0.013931111537045598,-0.002547158778263545,-0.005242922241245986,-0.021351822224214695,-0.010298753084225938,-0.01219744187736006,-0.024218785197570668,-0.03973027204944886,-0.05657363710440576,-0.06690005099773597,-0.0634795212742385,-0.0799584497057244,-0.05681232907572137,-0.024154162597116672,0.013912370403414745,0.03947977949132922,0.0325157064114761,0.0193289373026245,-0.0011421230131048602,0.0021754107029700585,0.009359385985525217,-0.0008404140956299073,0.0019126447543586491,0.003077716300460939,-0.010690918127381377,0.007950776418062255,0.02066340782475009,-0.009758877766590124,-0.008572839781324641,0.0005705982340857962,0.0007046984916559431,0.004221405059421182,-0.024557905741259246,-0.0023290534034091405,-0.022435705657551,-0.04251763266898627,-0.04956269247610003,-0.04826829371715781,-0.06141590595005198,-0.05560998577996501,-0.0007450647784077574,0.05706332101039984,0.05584087237852478,0.05332996809148373,0.03820522881596277,0.02397734671635715,0.025970045422263537,0.017543742473898765,0.00910206083976362,-0.017300683932245774,0.014123856061857246,-0.014820067422601,0.012904444661346593,-0.013230149691355164,-0.010336619794881888,-0.0019728319408980244,0.022146628992525647,-0.003573031783894317,0.007864908868322997,-0.0074913794556273165,-0.009864767372088063,-0.029235323513776668,-0.008288668157039174,-0.03645626332312385,-0.0501292659502056,-0.04122898228714627,-0.0313423562825024,0.000009330281206039324,0.05618246524055598,0.06190743184795411,0.06588148925732126,0.05805445799914583,0.049691608644752416,0.052766721043256866,0.042108265376301246,0.028249265557740322,0.019086474331495244,0.011573362051492717,0.011074347383892964,0.027990318675369538,-0.0010111468959224964,0.0035773858448386697,0.01663409099267336,-0.006284820567236154,0.003681341199235208,0.01079662423535338,-0.011332518167535144,-0.010820595804058348,0.0021786510297562736,0.026282726402535855,0.025106108732756,-0.004563476820852395,-0.0038130949120943353,0.006610135939222155,0.01430084962176093,0.022439234184144733,0.019377523828839754,0.02064776751403714,0.03523320160604643,0.005183802701795663,0.02593830054135644,0.03388857663693869,0.045115499416134575,0.043271511975863194,0.029595449288413168,0.00499103807482169,0.002326772444996929,0.0032092890563378447,-0.0074061155052811255,0.004405168021472796,0.0122695422593453,0.002676723963351609,-0.005400178119566724,0.0006432927720985125,-0.009113437994142918,-0.012915792419636175,0.02522704544556735,0.04352130404118307,0.044562904809851075,0.02641820018505597,0.047840678200442695,0.02877684860019436,0.02335465678113919,0.043744367065102915,0.015343102374712177,-0.015096046290301455,-0.006123950892406659,-0.012431705012779865,-0.00440282583753204,0.019077681866930988,0.03822701022626854,0.030817360440681292,-0.007677961640445673,-0.002501783311136005,-0.006264908202321071,-0.002339500585680552,0.012218412208621623,0.00005933495165704957,-0.01162571556280089,-0.008570758166535988,-0.00648697909262605,-0.017777157275076175,0.001535831340259395,0.007834466777078263,0.01244857129858129,0.02953702074862415,0.040006227621034715,0.028578504673402266,0.01236557562719697,0.04486228320228066,0.024365752549759118,0.019665380140568983,0.02506862654196516,-0.0008442872240550181,-0.015081973900784664,-0.03284935018121186,0.0026795492202316418,0.015363314416472519,0.0492419857243027,0.013262591330123464,-0.0167963509828329,-0.012909262713882189,0.016092134854886395,-0.00015727433976321192,0.0033058507936619876,-0.014900248050652404,0.007171188962769494,-0.008370641727897228,0.010445556468706745,0.022527272466709783,0.012828700017366069,0.0038130260505933166,0.005171523623636686,0.009517995924661515,0.02895882042398406,0.03707413803242121,0.013056083595435503,0.018518466742512084,0.03486807541044825,-0.004166933958435265,0.000736191480244645,0.01269170744808538,-0.019816145535008444,0.008150428632860956,-0.0008017553705602673,0.017310639777191623,0.015009279926916233,0.017091591252975814,0.013987762402911726,-0.0036815552494699165,-0.007869857013285464,-0.005827471323991448,-0.009190766229040827,0.01790488970792974,-0.0005982668622454423,-0.0006561339856421237,0.010089887333776486,0.006333429556491335,-0.00007762689487773988,0.019714399880748888,0.01523304511100748,-0.00766948449385343,0.022959687310864278,0.002617624129849444,0.02089244263984217,-0.005798769581224525,0.02025543101232267,0.019147573422494346,-0.009972618248803829,0.0055119050899264405,-0.006714720418590773,0.018693575433671974,-0.00044483069081133425,-0.017540387810601264,0.013126244595858786,0.03315010775674288,-0.002777478750229755,-0.01469833647000531,0.00034565495509390726,0.014568122782073164,-0.006883052477888477,-0.0011387687020404092,0.0054879476804801175,0.010915420211409819,-0.0025719995361732605,-0.00675568815915818,0.006811597494201651,-0.004065407797261245,0.010741060481730414,-0.004375264092173691,-0.028649629595355115,-0.019678041037297887,-0.010692657641743304,-0.003954573599857364,-0.022194166719701945,-0.02485056055149635,-0.0025898277826728214,-0.0017153903028550121,0.011043351573910745,-0.0016958622347172732,-0.008525547093890697,0.011033068875507094,0.005049780809648378,0.007528516035911088,-0.018173048718206734,-0.04157564549370368,-0.023005350447055834,-0.001325753793885777,0.004699676915762369,-0.006076608034638722,0.004373979544180939,0.0007752566634484543,-0.007177135617086374,-0.006975703429792594,0.001160771330193283,0.0008220054897948109,-0.023313914010122484,-0.017117941821209296,-0.016657744659730894,-0.021510423843688956,-0.03241928299837807,-0.03634840718437828,-0.03102859009207566,0.003271125985212603,-0.003832835220624381,-0.003486229665799122,0.018817485792417446,0.00298217876424936,0.002524091228359123,-0.010573030499420788,0.007352494111661928,-0.019345208979178477,-0.012736643675398233,-0.008046337452430124,-0.013919771632320761,-0.004794102790917538,-0.0027552436124419345,0.0010254330818568194,-0.020160656819493,0.00827944439491821,0.006169248727291326,0.006126229886499269,-0.010485805199603078,0.0019644837199884525,-0.01978646711493038,-0.030579250538468196,-0.01849500369532074,-0.03590093485746642,-0.04372578294172857,-0.033539392835145405,-0.04300450297152452,-0.021975771208838694,-0.036852262698382474,-0.023338509582631912,-0.0021509937580576604,0.022797308814656206,0.00484124835315604,-0.0038590645857357235,-0.020009210502252385,-0.009036953289479024,-0.0011219110599163637,-0.015369842550188943,-0.0036312788637024966,-0.011293747191022725,-0.01768041635935348,0.00043775864306375725,0.001435895996852508,-0.0014727335482210128,-0.0071391235128643775,0.008713811103652165,-0.007607227408309528,-0.0074636661876373075,0.009283820547731953,0.016885060319550428,-0.025650294976295694,-0.012744687312006623,-0.05289413119096619,-0.018798127482557582,-0.04285578187434934,-0.03999864302921795,-0.03422343317456034,-0.008386551079689714,-0.022362141535525404,-0.008424409273423862,-0.01656655200017447,-0.011024217040165546,0.007955679895731121,-0.04500415745600485,0.0004487167646257677,-0.0015800408087740195,-0.01115475635001975,-0.01491686177017044,0.0004190463879983941,0.000981671479859614,0.005065349068356055,0.0036421150154863848,-0.010194422308210317,0.008255348597372423,-0.006728412572873707,-0.004223891724986558,0.009535734915972694,0.016807961816905193,0.03267127238188676,-0.011089327254999243,-0.011400847833602396,-0.015402740545721622,0.0015170442515040079,-0.01986286432958978,-0.023972028541913416,-0.007627000321999986,0.0003991572689184403,0.0023951283444103716,-0.00013141169010284464,0.0008348943292427339,-0.01845998193384004,0.003959143202350062,-0.004682443735374978,0.004500169366615475,0.021149062016422755,-0.006819459194584772,-0.008895647773458136,0.011802103884100348,-0.015070575619567173,-0.006298660701529525,-0.014887506859542203,0.0050627342215076405,-0.0052837901809554225,0.0022134599327361883,0.021751462891923354,0.005433622232143638,0.0050223979952234024,0.029785447729994585,0.021198985200010807,-0.005678336941171191,-0.007849535841668203,0.016940613192337674,0.007041879394766556,-0.007067935990694806,0.001259875726954838,0.024545157469095837,-0.0017533948092410157,0.006555604664614762,0.031303055163635705,0.010040857939422675,0.0017977252498167402,0.01061537985074455,-0.010176603175158913,-0.013314769212146558,0.007464823338417213,0.006151889861781508,-0.008184458332511592,-0.0014744456884676891,-0.003694241582867555,-0.0120687659466185,-0.008679044106156962,-0.010202564006835287,-0.009028787635828551,0.01081613158253731,-0.001385787887800455,0.00024681284792926544,-0.015742688451446916,-0.021667201425287944,-0.0004483240677410273,0.0014892405791174937,0.0036776663228076933,0.014555911955395249,0.003965681984660184,0.01836090324319182,0.0012352840838445644,0.01707773732139736,0.016264082056476864,0.01733444877794082,-0.01051820341686786,-0.02046742554383986,0.0051475437977391335,-0.005681184079596825,0.00033983766930700354,0.01048410334522445,0.016739035911462044,0.011177609762498432,-0.006200948073131449,0.009958211814908718,0.0004460700790509809,0.021722279657246147,0.005882931635430125,0.0058984371565415075,0.009256152834747497,-0.007735704796161994,0.006028003469930794,-0.009587149918749992,0.00676975524863126,0.0009027550298232965,-0.006256437358272675,0.008993419626644206,-0.004335368832115599,-0.008484999335641912,0.013758880129417035,-0.0023423009569522794,0.000017911373043430058,0.006972052013158836,-0.0015936070229989377,0.005411947070990151,-0.005643378990354372,-0.008212221733133332,0.002850358408174719,0.008062668162625778,-0.0042275090494749284],[0.006350365634787525,-0.0041616023040544955,0.010071143108293249,-0.0019897447212255883,-0.016660014779998896,-0.02843742330190605,-0.004981114665725148,-0.009967361275812282,0.014593288884936224,-0.006936639136451944,-0.010640631350418149,0.00022011108710593162,0.001997257702476024,0.007573969735875643,-0.015538682916173795,-0.012249214447973404,0.0019290407141616648,-0.021412088575710177,0.010347297712611218,0.005660771966941201,-0.0022242408837075196,0.013583841981526098,-0.011614299979677006,0.00352615133778181,-0.007177970364243352,0.005492383468810167,0.0009851258250199691,-0.004580451274395026,-0.011759888423216819,0.007028164176214304,-0.0034889133039667205,0.010550028938728251,-0.006819468805378027,0.011050862666181228,-0.0011828573852956737,0.012213829510523879,-0.019224915174960396,0.016125225795902098,0.012635625298473157,-0.018157344062264356,0.0007704815838549887,-0.019448365175806018,0.0022039263341878806,-0.008514790583537886,-0.017647832711689012,0.004708174255762938,-0.012830497877008917,-0.008440348820223289,-0.007946209422720346,-0.01730995579290572,-0.003997550772883115,0.0027951264829271126,0.002080698909054607,0.011100076237174874,0.02708008106676004,-0.002810262750584682,-0.007746649135508504,-0.01194701290267118,0.0015754253988468964,-0.0061159369916654995,0.008025390848669628,0.0006714937558162716,0.0006271247757945133,0.0022728378446071175,0.004367726068917695,0.0034021385109256922,0.014304876379579756,0.012691066177524826,0.0024810549328929577,0.010435202807914077,0.00849478557686305,0.00540878556834439,0.005025717141455659,0.007726513390748904,0.006816113408723607,0.016222325521409595,-0.016265954782197924,0.008440318630461012,-0.01140170778431172,0.00738203797175489,-0.0062983022242872385,-0.013145587816405893,-0.001882975883270099,-0.016025754929315537,-0.00906105705552004,0.006365624984632527,-0.009095074706331141,0.00341036009151538,-0.004529285211120034,0.0029304755641451365,-0.009316737460430453,-0.009385628852425222,0.0016528916410366037,-0.010756116054938373,-0.018285762923695093,-0.012598893294806889,-0.0031605191471198607,-0.01132815777036356,-0.019131897524391216,-0.0021573590054095224,-0.002148423756001911,0.0033745614892556302,0.015754455043254515,0.012270165131708673,0.01081337311242955,0.016291299422890256,0.004807317590713849,0.006452062384834562,0.010394885307316618,-0.008157659643745855,-0.009509159397494091,0.002726727804172746,0.0028265046922594556,0.004976384461854364,0.008370688579885403,0.009012742224769173,-0.006569413062629939,0.005361064754612655,-0.011624681483632514,0.00503451306094099,-0.028253909383688092,-0.030011729489712327,-0.03217463889716074,-0.015018969226988275,-0.02156855055722478,-0.01519897232450939,-0.01691547585907448,0.011256588502442481,-0.01403875958636992,0.03544782439640506,0.025321120067483455,0.0087137389674215,0.016555962435508487,0.019569135990757776,0.03229296757433033,0.018758716329783702,-0.003551199643984697,0.002070194407920333,-0.015525106566061432,0.002038656801576616,0.011813593005423896,-0.0015257856725596438,-0.005678864992388481,-0.0006758695194079716,0.0003214945371747952,-0.01014806388080371,-0.012188408955159736,-0.02738408109739466,-0.008892660707684831,-0.01653554267260518,-0.017142352355596403,-0.011432775248395826,-0.004376809319263054,0.006109914684114257,-0.0004918331214518264,-0.017006158773900007,-0.00023609255321993465,0.018373040404989223,0.022884484570651797,0.013884239894365656,-0.017588832372640792,0.0026593284054144506,0.013215694238058583,0.019749549067380294,0.02700315330402382,0.00807771457451947,0.01258574742106862,0.0036852428912483525,0.0039030612222144996,-0.0006411992906593781,0.0025868481193711953,-0.01150831408234487,-0.012692226935025823,-0.021824892892683037,-0.012167455379301816,-0.02510830370570601,-0.017743539346704716,-0.0278677004134748,-0.024243475643734757,0.013185874129243639,0.015031202213664904,0.0053372572186845295,0.01610629656775194,0.012844895471126211,0.026238145365585174,-0.0013017708712866312,-0.009768846912582013,0.007363371248810185,0.008700297216426489,-0.006002824243200185,0.00601349243270744,-0.006999378988195474,0.009602771731643027,-0.015427087951917008,0.015252444324847642,-0.0012431160226281871,-0.010021814655453888,-0.01074286402209032,0.01742456790586828,-0.00040894202513343264,-0.007176350407189468,-0.01625721529671644,-0.03310034721559141,-0.04395480517089096,-0.027615266687378178,0.0006020679046689821,0.007875593429290064,0.02368263658897566,0.03962067724738229,0.0047241027520230315,0.017393098276601338,0.025050366025558917,0.000199182552354194,0.02078608700719438,-0.0013298995603328808,-0.015324255389394041,-0.00031540828258950126,-0.006932399716972598,-0.022204073880556927,-0.01599916801483871,0.009185256663892683,0.014555124151745698,-0.010684436026268729,-0.03296550062892537,0.0037335856602857325,0.011539955342052126,0.005324605527376851,-0.00013485389998167384,-0.006652557087847405,-0.023837309299946218,-0.0151937653005234,-0.0256412335282628,0.00324476848582405,0.02516066787931688,0.01330452240759874,0.02116943489172296,-0.0036666583541657997,-0.023656709056159707,-0.01613289008585992,-0.00959088002114405,-0.008446054774633359,-0.01900901771253404,-0.0014254969073756619,-0.013634438856033817,-0.01859120995748294,0.005107673161750153,-0.008541693590809757,0.014581609487581328,0.01551539203419836,0.027783924730261603,0.008712547131302656,0.000698422349766538,0.006773443246004418,-0.006544325257440389,0.010301918969115939,-0.003716557486895046,-0.02243236697186378,-0.032069554477565335,-0.03087697126318397,-0.038508720000720115,0.0017509322248034358,0.013069611321822367,0.009656869442309708,-0.01357346155210537,-0.01563341080198819,-0.03616049091994916,-0.03403501722997231,-0.03355570287620812,-0.05091871280013928,-0.03800769047094991,-0.012792116737771187,-0.0360545444686301,-0.028001499513730082,-0.004284704280173248,-0.022004814324611526,0.0009310941087757437,0.010608098190122789,0.007461562859895688,0.0038343972514416577,0.014499571956634467,0.0201110522269135,0.0003750928830090785,-0.008168274830587463,-0.00738040805380506,-0.02480233625450065,-0.022081743718906085,-0.03230067054873582,-0.020465569256771544,0.016350646302219995,0.029157468127902313,0.005426314653477656,0.0013379935690190166,-0.00756434252254326,-0.024599215991474938,0.0009238943408281886,-0.005377078687952326,-0.013253756872418422,-0.01670961565413808,-0.047221781658574366,-0.038543171326523844,-0.01878218632085659,-0.008481170615685865,-0.002871082152711702,-0.01879555691349252,0.0029937087930346547,0.006244377245106508,-0.010870225647333205,-0.012788652869847357,0.00022318276798815768,-0.01659076555788128,-0.0021860972242147042,0.012216511013846102,-0.009521027618612522,-0.014905541890760477,-0.03314106976499244,0.0009265195273895936,0.021708524506471046,0.01522359748017662,0.03986705138353225,0.018479314650319736,0.023894393512121026,0.0040318063924283856,0.00836260705750807,0.023259422760596137,0.030580445580633275,0.011982930251946312,0.019916583683152213,-0.005360683103480209,0.007269466437404699,-0.0007043502406667085,-0.011043332886393876,-0.01236030000381691,0.0008441889477304151,0.011125957422903426,-0.0009583257780980721,0.015510183303327936,-0.0016339419366059136,0.014437205496025186,-0.031139722991937745,0.0008222907209570403,-0.007658196235734852,-0.02149312099542147,-0.010568594935463067,0.015382162395734127,0.02743807625171313,0.03359693621632538,0.006394149514898098,0.034403921065249005,0.02775817272860688,0.00023286106985844128,0.02667201189896495,0.042571664013830196,0.019956384255595573,0.005491212502257703,-0.0017943973672612734,0.0019008538954578315,0.009470717832761108,-0.0011153038093820262,-0.00985326198173956,0.002235738225850771,-0.015766557524467362,0.005699518046260857,-0.005534611733644888,-0.000987317745871898,-0.00649938443187073,-0.003191716946116079,-0.009136040495799141,-0.007363822689247808,0.00597169497550245,0.016535668984793108,0.00023438158374135558,-0.003910405294697971,0.0040858909723677445,0.03838225950623279,0.023553976814315602,0.016816356739156914,0.0077578488102725395,-0.007171705623634255,0.03197693816362102,0.04157060433749237,0.0230395411579782,0.008366772971671346,0.00499695540496835,0.002445874515701975,0.014967591019337803,0.011070017600145992,-0.008149386601003797,-0.003872415430494967,-0.005802185296846484,-0.025989219688439074,-0.0027946915915775116,0.010856737901783632,0.007380757479404861,0.0017755043424163115,-0.005140161724104053,0.0019814709016867244,0.006084167506635428,0.0021471995381300985,-0.011136134349316583,-0.019462823363208717,-0.017810189973820723,0.006924305873564277,0.020455669243633866,0.015897369318846492,0.005700585267495914,0.00477633260181217,0.012865730789830877,0.02801724156287551,0.026708633564858617,0.019635023885665803,0.009011330870879642,-0.0024187969684271483,0.006822397329278281,-0.006836752210580739,-0.015245691592618536,-0.02359455804929818,-0.017025715575039214,-0.011318025923487521,0.005268119788614351,0.016250992312669844,-0.011934948479980417,0.0018625942342522664,0.011203560908894784,-0.0015215857640705481,-0.009719412103791264,-0.011356618711208981,-0.008021583696971741,-0.01073207217404544,0.005134429175549189,-0.00246036614141842,0.0015732270855854382,0.0024097501971354403,-0.0044126810994722585,-0.006665902077326929,0.024763514076339574,0.001336032255042526,0.014003822170356676,0.019449627305513365,0.007535458618189203,0.0030093182201975386,-0.0024727176966682788,0.012111800329581797,-0.008064760974396288,-0.0023080540583524435,-0.018302751195707838,0.0007394687784608191,-0.014797458040042444,-0.011297334370532456,0.0006491175564488376,0.0016560914177274962,-0.01573478960339232,0.002711203979482415,-0.013798127947273947,-0.021649348493965947,-0.00953424275379432,0.002245185431220274,0.009733401853685424,0.00938576701995474,-0.004858247994413107,0.013568118203171354,0.0030479702235729736,-0.011718187862681582,-0.009992653902582577,-0.0021596207514219734,-0.0039233944082650634,-0.007633711361558626,0.01595724691872251,-0.005311822132620305,0.0007831319046595963,-0.02006259441067369,-0.01799967512268695,-0.03580397056058432,-0.02205931997786739,0.009246070895150678,0.001444066040667045,-0.004442497821692885,0.0028627289602569674,0.0003914396228759838,0.0018026877704134501,-0.00022612103342957524,0.005339636772935314,-0.015929700000451307,0.012329623990923863,-0.009748386972529412,-0.013331830665735681,0.0013093414448064097,-0.01620636009246141,-0.024770195524341787,-0.023641468875431598,0.0068555442266765585,0.0018194105938750254,0.01570192035258535,-0.008258971902353682,0.013942068531730899,0.02251901593899495,0.0039000111820366563,0.0024082083847883195,-0.021242806209055932,-0.01938194829261928,-0.004536975858462091,-0.01102837072977537,-0.017941321649933135,-0.003906010834744821,-0.001628345981487279,0.008951535655507027,0.0036518817184152588,-0.0023197270093545963,-0.013796277402363118,-0.01677649577956879,-0.004514688338879629,-0.011533577151208955,-0.0023083261771756226,-0.009325553702283019,-0.0036964454068712477,-0.015345905519452802,-0.02599853078811525,0.002817844928944772,0.016725656144120915,0.024059236571807554,-0.013155307253424689,-0.016368672400850864,0.02132836824425213,0.014026223227880203,-0.0075446097892064926,-0.018423001614478143,-0.03069947613007701,-0.03496747414216027,-0.028715025997161414,-0.02465044158686592,-0.014374114064568054,0.004744561051256534,0.0050894376651054105,-0.01973615573672209,-0.018810013466761245,-0.013359858906418418,-0.02790732893116208,-0.0023789635239311498,-0.03404977553837064,-0.001456475018686729,-0.016868985493549794,0.013154052634728802,0.0037324571269700068,0.00023127674974166384,-0.01154630686234446,0.009263237550242168,0.001913208339985681,0.0020044166007528374,-0.011349548322780116,0.009393749218389121,0.015120567203225682,0.026508359627569134,0.012073038705338308,0.002320542215992803,-0.021200456851270987,-0.03246576429378623,-0.03182827952149142,-0.0049723608923463196,-0.011217404813167343,0.0028578481665407184,0.003081305005646685,-0.022606525026048287,-0.00011846189091619851,0.007197879338994714,0.004950965834653216,-0.007334269633381627,-0.003172674982077575,0.012291165872027521,-0.010861889638873799,0.004269587197805224,0.004034252047616091,0.02037667127822967,-0.021250342779361383,-0.00937339855758687,0.004806427141383135,0.009794337171871104,0.011679352990539273,0.009312916514645905,0.002824086965922177,0.002583811646914212,-0.01354320674896168,-0.018285275065844646,0.000973564793348521,-0.016355516271213053,-0.024145993809839283,-0.0064795198498851184,-0.004559305836634713,-0.005989839525283809,0.005186882753293441,-0.014783110574558852,-0.008373464581262329,0.003389199206744372,-0.008409000179665678,0.003445250829889538,-0.014233359996141151,-0.007184383726677624,0.010943583382362758,0.003874795675304137,-0.00114481368253942,0.006862123777713088,0.005914682814740658,0.005194771829213861,-0.0035471661773901126,0.006621850881162548,-0.0010711832036477164,0.022635787233810118,-0.00036304646247750183,-0.012639945652345585,-0.004423910612971596,-0.012368791073137273,-0.007926615384489013,-0.02567569985410612,0.013393674871042613,-0.011376455969988094,-0.009981027990686193,-0.0029290177092464805,-0.01620583236871942,-0.0013147715060252902,0.0018950055950987545,0.0005295188697848714,-0.021648285541720772,-0.0005687680516180422,0.0004702548681951656,-0.009574530016550694,-0.01479748442149007,-0.03136297339407148,-0.013873738548867896,-0.007879333795200932,-0.011848054999531375,-0.005992233302198621,-0.018720690417708914,0.038690386439528095,-0.01221109772859497,0.0078018825437899675,0.015394520829737888,-0.002188088568598779,-0.01373551267848417,0.0007233413229853915,-0.017471792849861025,-0.010956983053669368,-0.0176362193584769,-0.0008420925807371502,-0.007348827438606768,-0.004123913467205321,0.010598059142896228,0.013811552886615753,0.0034515166050627035,0.008922077131665353,0.008314218985046787,0.011887842754372355,0.009006940681346946,-0.009128472739025199,-0.011351514376723387,-0.03334733369090713,-0.021217381757735108,-0.029672571861842977,-0.03811572110266201,0.01339266684418389,-0.01855188652415299,0.013066518064449858,0.012939979790978544,0.004012027718062629,0.004566951003012132,-0.005234713638721157,0.00394725240327442,0.0015993249900747382,-0.005890437359900326,-0.007161458674253331,0.0003425001535693192,0.009104541782940836,-0.002011223621814603,0.005860891407574766,0.01265516655979874,-0.009814644344254728,0.007224172367599458,0.0020252506044196096,-0.00295424190103309,0.006832391751963228,-0.0027382665979883785,-0.0022837477969023558,-0.01058637337516296,0.0058139687755539024,0.005911623127444444,-0.01042356487536055,-0.0033710902794914783,0.00007322633345102823,-0.002482914132381004,-0.015861097454308703,0.004350000243319531,0.008158069384557237,-0.005597498236946067,-0.00018851212594299854,-0.004366263393132399,0.0032024528135539392,-0.004010111424259656,0.016020892305853768,-0.01406134427004908,-0.008207991409968581,-0.004228739371555719,-0.011424077646308855,-0.005950763940546689,0.011191893339883175,-0.007460916759581935,0.005833506455775006,-0.0050642575777167355,0.007757743630090145,-0.0104097256691949,-0.0036586362810262624,0.0019297268058298155,-0.012712743744301353,-0.0009630294812354096,-0.016749262216839405,0.013367944545448374,-0.01950952342521603,0.0021458689125345124,0.015682634936984845,0.01587609423326897,0.009053565400726854,0.003480236321351068,0.0009611086210872151,-0.00392963691808295,0.022600845313877523,-0.007832224353193846,0.010530407738083395,-0.012116391613114877,0.0011477085605147571,-0.0006798831083494862,0.0057453627914736466,0.0023061853739273948,-0.002170647265257315,-0.006695154146193138,-0.019581897015675684,0.004538094066655706,-0.00037561339344385406,0.02399507402568201,0.009105045192098609,-0.0011573043530267565,-0.009131013897079203,0.015753534038226075,0.0008974110337065071,-0.008788594729784313,-0.006566854168742997,-0.0029912324891377,0.017451504912964794,-0.014492121541035059,-0.017426037393973033,0.008813382807560301,0.006409782554557008,0.007041260313815818,-0.012780556375354628,0.01120545344005511,-0.004178858201537704,-0.011832504977788916,0.006677553424229177,-0.0038923882601019557,-0.008028757428554432,-0.01718528832001175,-0.0027019458456823253,-0.001457449940837579,-0.006943377522608523,0.005350362989016886,0.005591785662390724,-0.0020754240413723606,0.0011591235074443166,-0.0011058660451644037,0.01349998715445329,0.013782463494442902,-0.014668555719969318,-0.002783726056006972,0.005769361084302805,-0.021707380978727184,-0.003740748468089006,-0.02423398132525548,0.0003030319444855186,0.01587576614857548,-0.0070543486287253645,-0.0027295616892676895,0.0008814627329499435,-0.012359070765717201,0.013516881130518344,0.0016536386241611254,0.0005832787716470341,-0.00007423215999220509,-0.004092259891953148,0.004538585853299799],[0.009253962054084158,-0.014565935840324376,-0.004173104894982631,0.00046904357353231175,0.00568274745240787,0.016669923200168645,-0.0032363222739542957,0.015972697608420138,0.0030771623921590796,0.005632748752800607,-0.0020950550453327837,-0.0014118612081304414,-0.01706735741123661,0.0025191101289192704,-0.0009464108214311966,0.021745914895479376,0.004525469530076085,0.004906061465486692,-0.003095027412804886,-0.000824952005732907,-0.0009886264974124457,-0.007363496640077567,0.0020138461179058636,0.002368404502149276,0.0033972380053864416,0.012336194116021144,-0.0035477554680630585,-0.008071629958192689,-0.0015290264268448953,0.005343329434207551,-0.008575568649427328,-0.004842707151650478,0.024578082886502282,0.01092855672820458,0.004018900875714349,0.014963279598582369,0.006042445769084503,0.004845570884306084,-0.009463162457523898,0.009255726880280203,-0.0029648190437504916,0.005352834172485833,0.010836493551067191,-0.008037126956385816,-0.004762459574033445,-0.017011472984253522,0.011942356088849936,0.019951821787447165,-0.006033686382884071,-0.009873787745668904,-0.013209837038256358,0.0022702706421619885,0.010240139901139518,0.008449701568139255,0.006775152756723698,-0.005770275070121213,0.002376817022358874,0.0009698095656923668,-0.008649080054513524,0.0030711815626470874,-0.013482030445323399,-0.008917576609219097,0.006463544776076202,0.002679138178558178,-0.00792559211490324,-0.003316203821818623,-0.0005688261813940607,0.00717227928460911,-0.009146304232487076,-0.009644970243307224,0.00974029882057221,0.02368765535131015,0.010818421068025764,0.0014133859274535223,0.009692293229421571,-0.009060987832975001,0.004210391668555265,-0.0053134804759501445,0.010789465570909722,0.002470912034473094,0.003869346255852846,-0.006061432811674123,0.0063947925266524056,0.003625273340548195,0.013570220206312957,-0.0044065392922588535,0.0010828769963023256,0.025644531846079788,0.00502860527671936,0.00789405842933088,0.006030807386972333,0.014259827948299483,-0.015937245033449954,-0.0009245818728149351,0.009552693043866077,-0.014015644531563206,-0.00393580641035319,0.03213740907101987,0.015120255368340897,0.007852974798010547,0.002934955238488968,-0.01648211511293519,-0.024274616376157254,-0.0073263933501675526,-0.010153170676752952,0.0014485295775151393,0.0021829305517150036,0.0014921479923681433,-0.004579023000714887,0.017915095937142154,-0.02565241969020564,-0.007312284762417057,-0.006326919244624998,-0.004125132675967487,-0.007563318489626678,0.012663151602221683,-0.006857973709354445,0.0026897111314962644,0.018851436828981015,-0.0019078186181150682,-0.00289573877222481,-0.0017369898627762515,0.002904318426356114,0.010205533514892024,0.006627620750375921,0.006430193960374477,0.0020082924624949872,-0.0034380844420635725,0.0031323548588117777,0.0025719678758159533,-0.0041380351048179425,0.006457592083348265,0.007068924807343708,-0.014290586661760378,-0.0035952248191670577,0.00008197490240544034,0.0051585842397371615,-0.0007183127208072245,-0.009635357294455953,-0.0017059671509820327,-0.014610441434438752,0.004201126132830062,-0.003828957580070957,-0.0032696671412995406,-0.0005959308843982097,0.006017693899492462,0.003429746551909759,-0.001031734194759216,0.001766336060108828,0.0007542643800774987,-0.01972430858427509,-0.02701265573963363,-0.01477910629038368,0.002593229644193554,0.004190054734034962,0.009604571000280162,0.011787154798725072,-0.010834086509839577,-0.012509827232268749,-0.01076583199782026,-0.01782230082624474,-0.011679909055590508,0.0014733369479940843,0.00842083845937593,-0.009301105446628466,-0.01522633139684592,-0.008444660733637964,0.006762007418192089,-0.0017495799673395882,-0.0167258057725403,0.011998254969222697,0.003809983101407639,0.023085349037906922,0.023446333290274627,0.004928198863676274,0.016105956397440967,-0.03253445987036399,-0.01814084412842186,-0.03985555149708365,-0.03453754824983494,-0.0255176664962781,-0.013882906621256493,-0.020424488264775244,-0.01856334978075,0.002632168969433105,0.007270814022365887,-0.008973910620258548,-0.01852708558540942,-0.004145182852600968,-0.0010629227817827418,0.0032322211901844593,-0.010138557550021387,-0.008631966384929142,-0.01740725540389962,-0.014053973665670435,0.004383588259223735,0.00010396570154234053,0.008923892845999565,-0.005672644023725452,0.012852131550185048,0.002696126328783816,0.0041137837772041155,-0.0070686152737622025,-0.013993737500043351,-0.038774138138757894,-0.044223727477600075,-0.04621465508628337,-0.007977142304463725,-0.010790471377334776,0.0178992839538888,0.006565564986235886,0.008429086227022887,0.013251317470679334,0.011830142037162577,-0.0019432054019141796,-0.004574920369816069,0.004551261923666818,-0.0012289482420774426,0.00209181746064494,-0.0024635474425655102,-0.024974122497333665,-0.017953548503279144,0.013063648307489238,-0.01897919750652243,0.0022482215461700735,0.0007163850252157324,0.023745515807375054,-0.02739130642185151,0.019504167954775678,-0.021516320590746,-0.036411693689558544,-0.041661422099758434,-0.03726143419381062,-0.04114177516067362,-0.008655132585809161,-0.014860622512601635,-0.01358075137961786,0.0064773484076406955,0.00878988489875858,0.0011914720548688832,-0.004766225222255577,0.010567063439216947,0.0016801288700827703,-0.006167875977020532,0.010838550126978548,0.0015005174988843497,-0.030507905703157635,-0.031990239888796665,-0.03905288259617257,-0.014827154662023567,0.012872257475448205,0.015360503366063323,0.005589453828619195,0.01445637434539075,0.007913702433102398,-0.002892269592919025,0.014439758888532082,-0.034530524128476764,-0.032533481683948644,-0.03783120104818069,-0.048577557251566594,-0.012475514839522193,-0.002960856924461482,-0.02645989732456576,-0.014770678194118094,0.00538319664783933,0.006388371358241744,0.026594005904842243,-0.003475190017628665,-0.00014674785655677014,-0.0026679567686586003,-0.009882406382589227,-0.00849013398431147,-0.0062353444594316215,-0.019652709029837755,-0.044874027067656246,-0.02117965640174087,-0.02947161815778244,-0.01537160202375139,-0.005697180184683355,-0.011670400861779411,0.008796850714829687,0.007594226696882475,-0.007263545169987488,-0.025436968071819218,-0.043556384465074295,-0.047605364366575455,-0.019523664044681328,-0.005802547334272617,-0.019479068756812008,-0.011198035335625505,0.004253410238138625,-0.0017163830060268942,-0.008866025686106095,0.00363155775080718,-0.0019085308806386255,-0.005101295663537115,-0.028433822561114187,0.0071061944124554835,-0.007276118280005579,-0.010661805469554643,-0.009313521519930219,-0.040130245090448886,-0.03374887590455092,-0.010758803799424977,-0.02225558349461953,-0.01731584991212295,-0.00047548992820447823,-0.022934617552968693,0.0036977404740731194,-0.009662431068400071,-0.022871377968858544,-0.029832252708276125,-0.03774297114579368,-0.03520752381559996,-0.024612312553317927,-0.024795944970486376,-0.010468144947761453,-0.03254338529604261,-0.02578124693227218,0.013303110747398058,0.011189322481129816,0.005329599131537145,-0.004828134864188762,0.0019864730946407548,-0.036195860820518726,-0.01960457415425917,0.019985104879480443,-0.010673938028765,-0.036041331905744545,-0.04065062459899489,-0.03256767170427094,-0.035163001439510386,-0.024996466652081016,0.0033534182684649984,0.0038284261431924126,0.012828898528945453,-0.00006561602966289552,-0.002253536136256931,0.008787996583966944,-0.02501555726863777,-0.024744532241023826,-0.02789842232236978,0.007150803708495774,0.005364703199233184,0.007097066555254308,0.023190320573682074,0.014769594572382522,0.03871960948940105,0.03005729920654101,0.030941251768211737,0.00574699322085034,0.005527870610893961,-0.02813600701982879,-0.0137243202385547,-0.007409871613144812,-0.01719245857924445,-0.02008691912857254,-0.037326573074861716,-0.01997280909800007,-0.0050224453694731825,0.010923629325724361,0.0017210753231159464,-0.005110802867223365,0.010464110718726284,0.0007179577318904294,-0.005301294993567267,-0.006308029450200696,-0.008329251433385473,-0.010007504099372287,0.012103676421798024,0.020906211271962884,0.02056788304739326,0.040905938553599315,0.03512867332068752,0.025611767909841796,0.06628064065155886,0.03926502953342809,0.03373878874178246,0.016482886545019854,0.004535679203102442,-0.011688597704858474,-0.028863309563614853,-0.0383341694252598,-0.012896142265116347,-0.017577581891444337,-0.008763105480704688,-0.03397584755875282,0.011712803797121798,0.022566026477383015,0.005099585655153021,-0.004957892480979876,0.010192116922944982,0.005764479214977001,-0.007455577814100774,-0.005003431562587095,0.006843609027221991,0.014847596883425332,0.023493403604403978,0.04740405001183474,0.03690592532025992,0.060836475905007334,0.03188930309906617,0.0495183910058359,0.050054867710079935,0.03590706795146521,0.05651324299163442,0.02484838723506408,0.031790180945322065,-0.00031618074812163875,-0.020228130193639563,-0.001550893869932768,-0.0014452282937999553,-0.00780155599376879,0.0024502755373803837,0.005322054483197641,0.009440101150255842,0.011264292618903942,0.016853487219857254,-0.011871491439318697,-0.004043064301622373,0.008539580490538564,-0.006323452402580312,0.027102603965356357,0.02404859885214707,0.03180165978686507,0.03591366487528254,0.056253706930694716,0.04762518467947611,0.06520007136341543,0.037331959632571014,0.043313090021582346,0.03515599362270032,0.03920893118419851,0.04419749750758102,0.05025155950756139,0.03575539751251945,-0.01544281551152791,-0.005223854901490555,-0.025870091317831072,-0.031088150507601744,0.00898155436713201,0.02350891520504574,0.008478544487366044,-0.0012414890512786572,0.000907434410795517,0.030166179668237585,0.014811817929488819,-0.0112328237265255,-0.006597176704567498,0.0077667961720108885,0.025503440839847777,0.012724901212860228,0.03524661348032473,0.04533123543791778,0.038534299748970456,0.03714496431488979,0.03272410318293492,0.020881216829135178,0.03260385944440967,0.008366736238183212,0.03095026803689235,0.03875681872307424,0.01309568543385141,0.024204904429321092,0.005712296241456188,-0.005075702303374119,-0.011848201666138985,-0.004441623708537105,0.02437013740530406,0.009661940194166514,0.023820991469327736,0.014321313970660611,0.022136757621770115,-0.008972005329555817,0.006689996602084596,-0.0003274919880274876,-0.008647586523686917,0.01118690108669403,0.003312261671246274,0.008442237380496096,0.00682553057363541,0.020456541744963815,0.020777860387312042,0.021391613085312556,0.020681558720873332,0.01300460523511696,0.01324936661583196,0.01635600161814965,0.007530557834633189,0.0404124874619587,0.0412922183117667,0.008192136939988251,-0.0004401498391935856,-0.01623955565138213,-0.006311395256932131,0.0006250373027244811,0.008645674155599472,0.006530314920726021,0.010457461889112528,0.013809221323987163,-0.001766575702827311,-0.006915591533489227,0.005306029895673602,0.004362803066615882,0.005106504920203008,0.0021668281544742424,0.013340352173142523,-0.0004988065470633822,-0.0033929513166515526,0.006064329517121843,0.003850540714680014,0.010828895868579243,0.005659267168316251,-0.01682105097910796,-0.01968235740292083,-0.009099855903694297,-0.004307073120024151,0.008817745040379271,0.01748114875946679,-0.0006540846912915421,-0.005673504497959563,0.01589145563083425,0.014920683291420512,0.014478334512625497,0.02586546016081294,0.011532731874633346,-0.0018176533247401356,0.023772629522562767,0.010414564073915805,-0.006257567529481091,0.006509362388559316,-0.01667043532124507,-0.014545490829236734,-0.016915756522013912,0.01141693045582239,-0.007932722408213813,-0.010411175670242922,-0.0014140124715068306,0.0010086702851434893,-0.008609040887729949,0.017686412478790707,-0.0217199983605763,-0.0301609271380629,-0.04711422681517607,-0.021941172490419963,-0.008890249929659925,-0.009319618135009916,0.013452292955667513,0.021884635472325626,0.027929199619119452,0.017658159044330053,0.01536751226562857,0.013163696975708666,0.0017428995364053355,0.0004614384539385074,-0.004382830570718841,-0.005451105846394133,-0.008929459267313178,0.004568060837766377,0.015536409435656462,-0.008980776379552193,0.01760983508520171,0.005461520579814304,-0.004667984477327837,-0.00822439743991553,-0.01718217025514678,-0.01740091649715966,-0.021465086144604698,0.00892281880058481,-0.020787726919892485,-0.01959600946017474,-0.0382508507297549,-0.054631558365147714,-0.024811225896084525,-0.007463360935240252,0.016361810055073884,0.03002994619138564,0.04380077334464183,0.04071364956567062,0.02919643771643072,0.00868254622065606,0.01400301712565358,-0.018927957919313343,-0.011157882273845208,0.017027574113203582,0.01932515519087272,-0.006273759940246771,0.002009419224640643,-0.003202578992407659,0.010548676581789582,0.009931167945348906,0.02321046317550549,0.00279750757851464,-0.008497449970757694,-0.038018154133768065,-0.02992994923835837,-0.00727345786262461,-0.010488812746750564,-0.010000795279644082,-0.010977278808580132,-0.02808601738898934,-0.02145722472299055,-0.005273034687647259,0.0028204688532399297,0.015689451956535237,0.026562256399179227,0.0278762120082995,0.01696600539093784,0.01967552908597294,0.005281849838536057,0.01030703224144505,-0.0034150695870481186,0.006764600683442057,0.0030331175847391214,0.0011876718944966026,0.00236580369412285,-0.0054528930442255845,-0.002401337971046315,0.027998448242098038,0.01988728866622388,-0.007300252415850318,-0.011816464458852951,-0.007114791218633896,-0.02764807387369163,-0.030224043117482263,0.010954780849955695,-0.02148120807699001,-0.015024632884394176,-0.006380953298923203,-0.01177870047457324,-0.00021091380950013011,0.005176124989153594,0.03023612811256065,0.0252738474487439,0.00321893333988261,0.024034525946955303,0.02042592774403269,-0.022404490646208405,0.0027093834358607994,0.004153689815005512,-0.02157348670533354,0.011490692634945175,-0.002399042889408476,0.0033633370172045708,0.015157969071643785,0.003912017182952567,-0.008281970908094016,0.0011458354307542025,0.0206147780973369,0.0033257503162204658,-0.02560550246540293,-0.002283220903888211,-0.0179690684625572,-0.005056975402959799,-0.012168596166197853,-0.0018241284503172977,-0.017895911367257763,-0.018357312651820713,-0.03036386698059587,-0.025960613775218126,-0.01081222637008129,0.012509719015097646,-0.003653114565448823,0.012237428121229285,0.003678059426729111,-0.015779430703444425,0.010975226388005637,-0.010686175473364885,0.005063146590803104,-0.025812076520434594,0.03068984306923256,0.001132013572181016,-0.019937869884692098,0.0002154020701793855,-0.003189237975848929,-0.00899932209073148,-0.013412493671181604,0.004254761748950781,0.004209598855069226,-0.018879073843486527,-0.020437160002187225,-0.008486587200505501,-0.0070273514147481736,-0.0179157222969895,-0.010265517768750865,-0.03473201267125131,-0.019465479275397064,-0.006879696935078527,-0.022080740361146718,-0.016950590540005563,-0.01261367800316424,-0.012055093542164766,-0.0005426400924938718,0.020563624264837398,0.002937169969632666,-0.008439574859350802,0.008982058516424385,-0.0021067001059197556,-0.0010834607025107749,-0.028881511939604986,-0.008994345203377992,0.00809741848565768,0.001882513394292854,0.013631817990983397,0.0051089750955604935,-0.009217142215954386,-0.0011361289209096746,0.0017629646196610953,-0.031583196615379616,-0.010579445429874781,-0.012700704930102103,-0.017906260528168377,-0.0036255269246753545,-0.009273522684552876,-0.012671596415532213,-0.022395516027991395,-0.03394587504584518,-0.021377198104544224,-0.0013788626916468713,-0.011079162894049461,-0.009708531145719911,-0.008234900969159598,-0.01862867848243526,0.00050503963508236,0.0036995586885817584,0.0064092567953192145,-0.012717452505586946,0.0028478486480705578,0.011883708829370345,-0.008521255962491776,0.010128241066286132,0.016824473935079295,-0.00022800470643812417,0.0023087117697019083,0.0013596067050236865,-0.007028089225886883,-0.005167025949172208,-0.008582556312378715,0.010905501910686795,0.011386197087966265,-0.009581304723760111,-0.006200067657506604,-0.015300553813032696,0.0019193896310948832,-0.004853319820853959,-0.011747160542503807,-0.011159758842908683,0.014156866562894225,0.002597902678833442,0.0050900972423717035,-0.005830971109418645,0.009740978221030242,0.0005596067018905426,0.009789557433108336,0.0056049999648119095,-0.00319375342368423,0.005999554485380417,0.0061237737148070945,-0.012423570221910958,-0.0005574793193069424,0.011032494116634503,-0.007350198427761089,-0.016480622406994702,-0.0034989978010364297,-0.007687469492431254,-0.0029349002813134095,0.0004364046300973617,-0.01259095832875275,-0.0011248971192491537,0.008830135865065503,-0.006708547958548592,-0.027598718116773554,-0.00823488974975231,-0.007396683388157046,0.0078117375424951434,-0.006124212638692862,0.016214685272693034,-0.019671100258654765,0.011037623746678979,0.013867046625476756,0.0014961994169751165,0.004055788336617472,0.02731418170858806],[-0.00047439848566224805,-0.018988262524513928,-0.007997821840710377,0.00871306553216138,-0.004266691728208795,-0.015938605471930302,0.015296605659933089,-0.004194005136494685,0.006039102130257915,-0.000059028001774929777,-0.002629389254330862,0.00630879301967124,-0.0032544573483029014,-0.006843506445028047,-0.013691170006689525,-0.008352385262400707,0.006265706767864694,0.007079170884347987,-0.004703552619899233,-0.0002201304831836619,0.007225009396344201,-0.00339262045126862,-0.026490343398861704,-0.003057899759035847,0.0019671248159030385,0.002641234679159474,-0.010595171179192243,-0.011658127102706736,-0.004629432079842731,-0.008177244646925288,0.02010734323604,0.01794800513711097,-0.004263877314937463,-0.0046291758217579596,0.002533989509858349,-0.014652383675672233,-0.0149186374825943,0.004762407403200712,-0.01743983877827734,-0.002295788885791604,-0.011237388177308948,0.0073752993989929716,-0.0061809865577491544,0.0013074422465956712,-0.00838835729830699,-0.008904949298963937,-0.005818881426310674,0.011456158232047934,0.005251698525605514,-0.000944519422560446,0.013231005081957002,-0.02244764047065176,-0.0004918198673701154,0.008667556285276016,0.0013824929695315426,-0.007853244211932557,0.009023937574954908,-0.01661437920227083,-0.008981915223313397,0.011214207586801332,-0.009299871840416129,0.004599433435298573,0.005634444866814361,0.00012167821984541657,-0.009119339592273942,-0.01284129815685447,0.007121426277259307,-0.0002590525626319241,0.014312005855547606,0.02230393407057332,0.021857635211734616,0.00774498329804274,0.008230251026922729,-0.004481026772394979,-0.0015104741481401106,0.008177208511601522,-0.010227533943661918,0.006638732099145805,0.022121920055203442,-0.0024483530586912948,-0.004897615377678468,-0.012532610571295512,-0.018556304845443624,-0.010347738488695525,0.011042365465893197,0.012367946187685226,-0.005196180731496768,-0.005924358203914227,-0.0014870505432543668,-0.013098661287644494,-0.013935456159232562,0.012713327622419952,-0.002398519355681288,0.008550937221959288,0.008481523078330767,0.002597679961484625,0.0039996982394983754,0.01809474219981013,-0.009231692892254097,0.021927384468201475,0.03132787252239167,0.01878695841209683,0.008803786573319705,0.001264533656684134,0.0021463287469230914,0.00411247784150851,0.002737125799234233,0.003246080716885799,-0.00036156460508625544,-0.016496825127860944,0.0072501958770623326,-0.00034438265328408,-0.005547023598495024,-0.0058005155882592556,0.016667730774388247,-0.0020311811447962175,0.0016668037589583809,0.013916226477805115,-0.0030187111310560435,0.0009375294380457331,0.0057357888853739,0.013734291714129064,0.0037871679751366777,-0.025143560040541284,-0.010903777639723986,0.001013221129468723,-0.006145495270473949,-0.007511956081064351,-0.007209741671620879,-0.01954397391031536,-0.012829717977563581,-0.00991751962449075,-0.030830554689641698,0.008523050690758672,0.002206627690665197,-0.030754552490804672,-0.016322745291786976,-0.012516272334668547,-0.010233798147374398,0.004220596355050337,0.00800081333716628,0.005252079011917393,-0.0006980159102089969,-0.0053071850019271605,0.009144611855333398,-0.013856253085540235,0.004954044444944973,0.01524837066472509,0.03369992042939298,0.0033706353961647246,-0.005101738973360008,-0.011189426298766906,-0.011064824577509083,-0.005149203716549818,-0.010096062301895557,-0.009469673451208027,-0.0000751038589411044,-0.03406795990150601,-0.020668251426347376,-0.013002071441719923,-0.026426883863954774,-0.035368239240168284,-0.016641467200628018,-0.015053749098095995,-0.002639409102364201,-0.010680590688124004,-0.022944902104715108,-0.0028193149246286517,-0.0039229575190560485,0.013239709114107974,-0.005110543444823375,0.022560425640292776,0.010804363027673474,-0.01210985662152971,0.0011184289687360405,0.011640452434219907,-0.007467542189502851,-0.021236181497695152,-0.002619847031617804,-0.025587694644197773,-0.01783935856293433,0.012872564785841083,0.010031060725324305,0.009958851259580183,-0.005571127834240875,-0.009764502142388573,-0.05001575192393588,-0.04405123282488183,-0.020359277530246824,-0.040079320375371125,-0.023266465672555775,0.007571138498332362,-0.0069792687127773895,-0.012200976560394714,-0.018491677708091406,0.006283936503082,-0.013257006912567005,-0.017050442929328138,-0.0061696735373284045,0.001531513156301019,0.010773231231306624,-0.020519404133148515,0.0003879850773819308,0.030569309705190364,-0.00803536104789909,-0.016424167668908005,-0.013796447005909419,-0.025845196702994643,-0.014110474211498872,-0.005422948192808134,0.03154564385999636,0.029694249438818418,-0.011216519234496543,-0.02349336798410398,-0.047144972466218966,-0.04438154480025509,-0.03748630178642162,-0.019160616699141153,-0.0029193261427969603,-0.011667795343995285,-0.020209617819315462,-0.012535476674682224,-0.00748471739444289,0.01777692172493357,0.00673009754687641,-0.0065389401154475855,-0.005992882488532762,-0.0020000763291978946,0.0005885756113181776,-0.005350840422327513,-0.01694739557228677,-0.002786211844330919,-0.01836064448692574,-0.021428002272520192,-0.02810005916483787,-0.008490592415444198,-0.003911382126537302,0.047045533121441045,0.051711415502694986,0.03883852355804123,0.007124085919001262,-0.034284991540306634,-0.05898563193804873,-0.049143507907140935,-0.006064066364409087,-0.02929212302143239,-0.024650715676716117,-0.03366201203736023,-0.019156465404612424,-0.025313433751744614,-0.02201372165639159,0.0018731150854621819,-0.012125371305551252,0.008165996045564871,-0.007774628615319131,-0.005717642765125813,-0.00042853986686063495,0.015058973088622293,0.0018154287979096453,-0.0017043589705988105,-0.01704099405495773,-0.0167476284046248,-0.02658895114211251,-0.0029862651143215363,0.025454598068561516,0.054220424848752634,0.056329936621565616,0.03489659768161396,-0.013785816932370434,-0.04575513602943959,-0.04922119606568073,-0.03297458495272138,-0.0320051264060724,-0.022812760407018608,-0.025598402708108554,-0.03678076224244953,-0.045234512503775116,-0.024343604765717036,-0.012529457190523941,0.016550845503269487,0.009743203151146875,-0.01841773975519663,0.0003943367762821784,0.0037656949198262334,0.0020581352531292515,0.0045025033063527935,0.0067073594977867515,0.002154242716564835,-0.01641642308004217,-0.014053596771142962,-0.0066255826323287775,0.03455879372591532,0.03432008364776355,0.02320895131604696,0.053873758577820084,-0.006916209396609942,-0.030214639145228348,-0.03297870107506119,-0.04685511627581923,-0.030999640911792446,-0.01293065695389723,-0.011413768912300976,-0.02384514140120176,-0.04337391258390311,-0.02620667085331246,-0.019298187534795258,-0.02328076316923388,0.0070923164896693645,0.0008360057735051579,-0.016309105451886,0.002700006528168076,-0.012426098709795032,-0.008997645179554268,-0.0033606239305865007,0.005300330967999716,0.008839181801605913,-0.023087307168485862,0.008885164799163583,0.019175864103257608,0.030775259317483452,0.04232594846093294,0.01329775370588996,0.008917948514406446,0.003933500199570635,-0.015401583234512338,-0.03990089103045248,-0.0428853104915927,-0.01735543408869334,0.004098567511480345,0.01239941366785768,-0.02345452870464758,-0.02971455540072302,-0.009797603467486244,-0.007974657117377503,-0.011655975884749696,-0.003356021111755202,-0.002814238911839088,-0.002176041735071988,0.0029464364473590046,-0.0006134399170261527,-0.024279172604611737,0.025854282801455908,0.015349711640532856,0.0006617517128742328,0.0029255635085169195,0.0371744813154608,0.019457177874820913,0.03358746995703286,-0.007275430579779539,-0.0020126117807321062,0.01507830920605578,0.010025009385062216,-0.0015777158945524195,-0.0009409136883071159,-0.006480744088356998,0.018542540709989497,0.02428160434917915,0.027324692449257875,-0.002071454785311535,-0.0024744460703154357,0.008459928851643546,0.012856573362834777,0.004109170024847057,-0.0005278326705493464,-0.008689139569703372,0.008986959052120587,0.008265844028060658,-0.014841729871902304,-0.003641448645746788,0.004488348136676886,0.014175473517739163,0.000992538123436434,0.023529241005117166,0.008520495344204723,-0.002424833882780264,-0.018392730605000115,-0.04065980568240383,-0.037696676236300054,0.010771999795089958,0.03714034183169668,0.04137442359815231,0.03672565174395208,0.01886634367992693,0.0488453308424252,0.005831071639902392,0.022652722346633795,0.01156987570295332,0.010036499017165463,0.006327278214511721,-0.009733773570971499,-0.009092772002724531,-0.0010568619704750544,0.006963979773323733,0.00537841721809442,-0.00613535451083448,0.0018931574069597035,-0.0016715395377724473,0.016000980428975797,0.01617446728082717,-0.016386911415058443,0.010773364701146685,0.0036611497059958645,-0.02215413381192155,-0.027067839956954262,-0.03558575352990515,-0.003840130284219975,0.030776054612489143,0.06548882711504322,0.04806654347623244,0.008254049195776242,0.0030628635760427394,0.006181053438016523,0.012214596799233932,0.011210734745767306,0.0306907411218987,0.024714538593295532,0.007608871739850956,-0.009817059750578115,0.015395682062366,-0.008734532127770858,0.0025656699682609766,-0.005833417359257177,0.002115261429898034,-0.003892641257786409,0.01128107430869529,-0.02806595051772534,0.0000550514719406253,-0.014160260442221783,-0.0038928928982783035,-0.030967650360029908,-0.020931045385408166,-0.0293962613535749,-0.019765110800060454,0.02559556930514102,0.07166777812706566,0.03559923659287013,0.025352464053835427,-0.0019219762395571802,-0.018600359003282038,-0.005586227581770131,0.0011272733957742992,0.010419967520611886,0.006608875424700026,0.015961885274001504,0.014398806569547605,-0.017804378699898732,0.002774792383053773,0.01332529971705685,0.0006555055451377193,-0.0025726006927126407,-0.008926120941569856,-0.01312644708533578,0.0026860608758939057,-0.007186271985637063,0.0027706723197749653,-0.02227431824569378,-0.043446323318216865,-0.016218255423808923,-0.004504883355238949,0.006746947632879716,0.015588900525233903,0.055673316614710505,0.0797524221200958,0.038914652509740216,0.0021531477394594297,-0.03347788994878694,-0.0006858095834472046,-0.01093753037488498,0.008263913201538619,-0.008855863049532875,-0.019898535122731723,-0.008970966064725966,-0.004144471996632293,-0.007407067592562753,0.01428035300842551,-0.010240430571207963,-0.011778786484872865,0.012254417092015229,-0.002830382789478138,-0.008488697338590603,-0.003358357854576371,-0.02972841001806565,-0.029756260287261457,-0.04071183395096362,-0.028872541710294686,-0.03488928090325987,-0.01093310633719996,0.008538549455749353,0.029056746088810717,0.06589662753842822,0.05716634499364276,0.02422299201006451,-0.013782809426693222,-0.008671045118154357,-0.02407723623858899,0.02423411845205646,0.00015541877635185208,-0.015031315012454393,-0.004422682050023219,0.0037413156793259573,0.009042401060955045,-0.004776283999144778,0.003175145832566626,0.0009384190674125364,-0.0010798538540193908,0.002776779103286527,-0.0014498708344471204,0.0014520241302064462,-0.017031314186912054,0.0012196989797359286,-0.05412694003175312,-0.043353766577372777,-0.04327432997964013,-0.029583673927737485,0.0008528066493488246,0.016563092468391008,0.04858509432501256,0.05215327337961365,0.05184044624537085,0.014945857759283513,0.004001057214169756,-0.00008566057588514545,0.0002755343618749884,0.02695969313252501,0.008242326868739765,0.0025355103605625906,0.0013375108532762217,-0.018948391804338917,-0.0268054671467831,-0.023765083762745262,-0.0026321353529937643,-0.010818115940521657,-0.017742670870091477,-0.009686860815878325,-0.0034843681716602974,-0.0018684766181130343,-0.012362819147924689,-0.026699908265201095,-0.05396229075522942,-0.03951438631990366,-0.05572049969238872,0.004169661931323746,0.02360553517692541,0.046953744396807655,0.03996372113234374,0.03917702640985462,0.021298361499791106,0.012159681606655186,0.016239687799281602,0.010109479324998227,0.015459786364146159,0.02162919909564013,0.0037041623647297694,0.007341657689234028,-0.017602345184528682,0.005662702156512741,-0.024915648262786857,0.003939072744737123,0.017553549418729216,0.00032394779085776414,0.008434206328433195,0.00845377455741143,-0.010586807319247831,-0.006923043413453548,-0.01629795857522734,-0.021210762779380884,-0.03759413839872533,-0.027767487017399613,-0.04421324159213584,-0.018530215041650675,0.013800648501018399,0.022492682203833006,0.03189376180376631,0.011830377170359101,0.02504341774371907,0.01733448129125209,0.018712980969253227,0.006728366365806733,0.024721754055007712,0.0022979230392829635,-0.009033754190864636,-0.017665336940119257,-0.006412030704104786,-0.03254311441898016,-0.0052223110058128045,-0.0141173089771953,0.00622392151837809,-0.0025233507111419285,-0.005442454692629648,0.0077965472041359955,-0.005143579126893811,0.004020076785582362,-0.014436211597226427,-0.032478703712664446,-0.02262195959842259,-0.017459214478482248,-0.013544488852371112,-0.007807767809925105,-0.0045310855328439545,0.005150603744141575,-0.008162083827610586,-0.007312854604943264,0.026716692611381942,0.017157778497826282,0.005202984109395737,0.011404441490078788,0.023388797467875103,-0.005951991503155131,-0.015564669689775124,-0.027854330384890883,-0.032048908637784805,-0.017371034817833045,0.0010887308489430274,-0.010378560887135126,0.027110662331696213,0.007017450726037146,0.00863851732619869,-0.0030384370892834424,0.01835135598449401,0.0010095369548658063,-0.005260065439459529,-0.003791169964308377,-0.00722631456794291,-0.022181496230765915,-0.023672806484927887,-0.030668076126438452,-0.026320109289607367,-0.01068643548459235,-0.014246650924285776,0.020400487123019888,0.007777428482067083,0.028837099404365615,0.003078713114090623,-0.001326420564583816,0.0057097669100237575,0.013527407154399158,-0.019432579889106173,0.0033390152424213485,0.011327970373754506,-0.016557883438310238,0.007677515648078866,0.0032468172363981497,0.006069939347905898,0.014803326077876239,-0.0036259112141602645,-0.0076256588692509755,-0.005035384404211414,-0.009530432215851769,-0.006516108890072497,-0.007340303286047281,0.00531475836322202,-0.0014491444139177016,-0.017173652202911525,-0.02842207347657538,-0.025086799447698,-0.01900542998958023,-0.005116890695074981,0.00903173339302403,-0.005068908125400351,0.014152444433421462,0.011778098637201907,0.023323028260430142,0.01793422764434353,0.03392435728254969,0.01896631747182952,-0.0029301819384523905,-0.003866485158731874,0.010077432805861939,-0.02272463103844669,-0.006210821524022774,-0.015724023688046897,0.00931384453492237,-0.0009294863260974605,0.010180331452361744,-0.016324041065841424,-0.017495118316209732,-0.013055746258211043,-0.006501684788318263,0.006129405608748886,0.0023335406936013238,-0.011985493345447651,0.006099058954943198,-0.010366369603160293,-0.005837481460416029,-0.0034764250020931572,-0.008122297128338198,0.009875509097215445,0.00015588575660533535,-0.006477812953144752,-0.020245266394688197,0.004801217172726032,0.00046571039597175423,-0.014675752838276417,-0.004418979202407129,0.004166619660699015,0.0032789223584203044,-0.011102632009367275,-0.007046845038228206,0.005165899562583451,0.02273224580556096,0.0021603191579171515,-0.0013619707533996273,0.01785015489112422,-0.009542629377278898,-0.016860686562341604,-0.0032710208163953705,-0.0013910148252133253,-0.0017672120842457365,0.00556233890396077,0.007035068410596078,-0.008347293166031652,-0.007078609651293131,-0.01843886811666322,-0.017082804404947555,-0.0031348307717630067,-0.018328819686682346,-0.00918875513617575,0.003193578373270932,-0.003970208532834701,-0.016282736979717508,0.0008181206920497796,-0.0066313481823870885,0.0025704785841972094,-0.011918601135163739,0.0011512517602425326,-0.01917550530934553,-0.001956549267984269,0.03226231830809774,0.010423931437878748,0.01230206483501819,0.015771012213767043,0.005382317508563458,-0.0012989864700380272,0.01894435633676926,0.012959383564677702,0.00863131491402111,-0.03203720334538332,-0.013790017427451255,-0.014850731856767203,-0.01740895019483096,0.0025841742585186378,-0.02379751221750899,-0.012402309528495078,-0.006390139402213847,-0.021963878580228434,-0.008679581828197818,-0.01703243930039946,-0.0017544603391473096,0.007202288216555215,0.0004960496655534585,-0.013696762576661605,-0.011273646746110227,-0.014017533927298756,0.015836143519908825,-0.011719880723582416,0.0020912781415511833,-0.008472770902103171,0.002831427118439906,0.008809365921898132,-0.0030598474100875096,-0.0047576382029973895,0.002482450312400545,-0.004540360587607447,0.011236442303740046,0.0028000439759417036,-0.012345675289364363,-0.00030007924076035704,0.007727108190002993,-0.005784825458976776,-0.0024259675179307484,-0.01983326031961467,0.01998062710673749,-0.0028434134410286562,0.002177463740585373,0.0067018819482015215,-0.00276815844523706,0.0069054394623394855,0.005847283336236292,-0.0032523165780496003,-0.003776292553025159,-0.011383144780808305,-0.002410920871748065,0.00921419867038377,0.0019123680460573311],[-0.02226431760621171,0.005917084243970178,0.019004881964352145,-0.009217192822539242,0.004528064339345069,0.0016323168144494853,-0.005003867193947519,0.008601935459186512,0.025168771724026758,0.00561467548530885,-0.0008955529882954323,-0.012025996936352383,0.0050729055873515285,0.002247667115669505,-0.016214522077787796,0.0004297411540306008,0.008069256639952383,0.024102955745472898,0.004559102531659623,0.005922195470523548,-0.012793412991310746,-0.00222368438149184,-0.0031350756233794524,0.009928563079334604,0.01909053604853372,-0.020831574618524758,0.0017486960174507042,0.0048801112778996646,-0.0017224481880391534,0.00707424786668027,-0.013607944936084145,-0.00953604673555232,-0.01542922972170864,0.00899125992538319,0.02804633982900713,0.010812600223791552,0.004091967505321507,-0.01237760034001879,-0.0024637119239559434,0.010525208250971621,-0.009206326092186875,0.0012240478328695032,-0.01596615011646106,0.010235873666624613,0.0067823527455892355,0.007662693243333899,-0.004881717426955988,0.0047247445553715225,-0.012555255654592482,0.004609483186192475,0.0013052092748913006,-0.012824826201018937,0.0014696093490188468,0.011193147084208386,-0.00008357478096343172,-0.004305264480751733,-0.0015013491806357745,-0.005358425746743913,0.007374115914620342,-0.011507516838347897,0.0022201005773304916,-0.004312208065101124,0.008107399682231274,0.014354150123033538,0.01774425482518366,0.015214487508061033,0.006002598671793889,0.0022285236515666206,0.023839561149362132,0.008979830731936493,0.013841354406387205,0.024412298359490606,0.007119731069834691,0.010928513073575253,0.0029830406717631505,0.0024678489356908207,0.020421586115583035,0.023113530480570816,-0.01300634507153244,-0.0047852817827530895,-0.017291805504052,-0.007806366948498734,-0.008981088537561384,0.02055574070806581,0.02170681277570401,-0.011218933548026094,-0.003080939493061451,-0.003908289994909344,0.01659945275033458,0.0007585461632328908,-0.0026888657990101015,0.01805984388149434,0.02791890065874695,0.050093028866811766,0.02378670803800142,0.031066134003604598,0.01497491588039911,0.06211692498902355,0.0336843547155455,0.017486730761584548,0.030829862157951565,0.009695446827360355,0.020264814918099224,0.01646214469324882,0.018018148860800352,0.006130371807544366,-0.0081946316191898,-0.000844193272689703,0.001755788893050324,-0.007602499884770287,-0.008693521343942497,-0.0012211542893587495,0.007257942969057344,-0.008821812625683842,-0.004704988680874501,-0.0026867687037110317,0.008409339115496404,0.004638422237970955,-0.01213711302911432,-0.00015479487044435872,0.01737838778239441,0.019238742759205268,0.03471423957124587,0.02002728469393819,0.007573216266194508,-0.0003107441964765706,0.0011477734621291949,-0.02182292941996632,-0.03343706757321098,-0.009594847554836413,-0.004388658774964215,-0.01242182968463766,-0.00645621384590392,0.010144262955048026,0.016221968789090224,-0.006926565817224204,-0.009695317879101646,0.004735535067023108,0.015475591603055536,-0.001091796507897976,0.0042060420589790344,-0.00507770134185936,-0.0194228012286933,-0.009402575419208355,0.002585723617068206,-0.011574342394015986,-0.012881289726194161,0.0048735138328425825,-0.006054408122943491,0.0024762419956632885,-0.001663009623695024,-0.037478517978772226,-0.013973951718976821,-0.045822734534940804,-0.012404359775607731,-0.02006834542944177,-0.010818378159570013,0.005639929317344859,-0.026101967985232753,-0.02165086019928092,0.01179815161610328,-0.016067876017386882,-0.01218263754408492,0.009068994851419016,-0.002134478539652053,-0.01511951739569195,-0.003078148231959503,-0.0033212724733853757,0.000889961097244807,-0.0042909128799839035,0.0066180656018514274,-0.007269316450244932,-0.004398623384670401,-0.007845263036339523,0.0033990306693895953,-0.03192419637325916,-0.041934096464866295,-0.03009032063685032,-0.08089799943665248,-0.058680679349711204,-0.0651354144672567,-0.06381280871622916,-0.05762385398436158,-0.04706601510179848,-0.019833643955741553,-0.043983149919460486,-0.06997511872702869,-0.056975986085456384,-0.06822995101171328,-0.039289657543711776,-0.012309726401491373,-0.010002254841536792,-0.017262077146886934,-0.005416447093568014,0.014097027931799264,-0.0022305714456990946,-0.00036997528838474613,-0.006073583999186331,0.02802325556886413,0.003034110093523802,-0.007616210664712761,-0.00943155785789597,-0.037280937379693575,-0.03093044454292979,-0.03463307704191202,-0.045830702845210715,-0.05677854160045007,-0.04616021443426018,-0.07405645918042952,-0.06944400100211887,-0.06268346484222592,-0.047662207505069144,-0.08346740264731647,-0.07446939674685833,-0.08637191648326527,-0.0991874378184134,-0.08789024866052202,-0.05479182846777633,-0.04516774894217518,-0.026416876080937197,-0.01804918723671009,-0.006495742666031654,-0.009864555794322452,-0.0066144082361345785,0.012964838225569533,-0.0009226127079820962,-0.00035972327018226675,-0.010327925965580383,-0.014329603557566364,-0.010829681835275306,-0.016663147135827762,-0.046031694784805,-0.02021852956971371,-0.05867717856376285,-0.030667307163476543,-0.06366955768171499,-0.07179218406453101,-0.07048131288165133,-0.07294155695103838,-0.05580511153067646,-0.06842459494104917,-0.02463644124207447,-0.08601217067522336,-0.05120676385120857,-0.03068806679561612,-0.04130946581111906,-0.02623964161881455,-0.016169474179509268,-0.03127329727562067,-0.03151204637475563,-0.01131007092275755,-0.007826206889315368,0.003294757247694421,0.013153006074987815,-0.009454659304492763,0.009761215685038765,-0.007366354323849459,-0.029198671595060396,-0.04603241638508858,-0.03507347337386476,-0.022857070897453813,-0.034690705154438374,-0.0508240579539068,-0.038562605990015174,-0.05320591415234472,-0.045618458751907676,-0.025675043829802544,-0.0009558564683065401,-0.012655253023384862,-0.03847813869542379,-0.04190314004489668,-0.02469739892607153,-0.007774613567023824,-0.012899566957817802,-0.019142510394593776,-0.03215756594662448,-0.025284421602472917,-0.007680751291905044,0.002208389888575604,-0.0059944826846037155,0.0009370517914322723,0.0047188985858190435,0.00004855086672145429,-0.012306091947294746,-0.008336809108466951,-0.005957963022098637,-0.027398871392961485,-0.021700697220376538,-0.0295558704594702,-0.05691653810801205,-0.057456819161238105,-0.02582204416035188,-0.011053497953232728,0.011772217970801658,0.03694554660897296,0.04407810667264119,0.029412754572219414,0.034983071138807276,-0.0033727640244005405,0.005007648041860167,0.008598400040946634,0.022524791448794716,0.007549250312928104,-0.010451207838891106,-0.01306850522965901,-0.011934796183551795,0.0018060330958312638,0.00804895562466558,0.005472523467765198,-0.004615762068124926,0.0024958352333442485,-0.007544049043226788,-0.024662899685265492,-0.018563069204000582,-0.03783282791845549,-0.0014069131842550208,-0.02813698622904399,-0.04855303340608808,-0.048051703381544235,-0.03203944037516694,0.0013248340798912215,0.046766895831724664,0.03331239417002037,0.021648532670944125,0.030258969445447096,0.009110540655457355,-0.021954265699454144,0.02643826620435641,0.0160040203828861,0.02662621396821392,0.009689332178121958,-0.007508690718493027,-0.016078456293835558,-0.0057160750595348355,-0.022408719916833564,0.0009563043615523645,0.006423321921153886,0.0022540646494060676,-0.018238659861150655,-0.004384649062906896,-0.04331040156312992,-0.017508715338569996,-0.031081444753691723,-0.02204090801742586,-0.007773916101183281,-0.021552329374696172,-0.0009815542951968003,0.06058636196905837,0.07644080538750182,0.08951187356105474,0.0517322740303057,0.018741507394913922,0.030456856942000628,-0.003554541507427598,0.009603482506977687,0.026720998982060647,0.005955243471442269,0.0468547707720554,0.023532081577401092,0.024227962475026524,0.03438707872763035,-0.011542837989548875,-0.006670638044105833,-0.009385179202318053,0.00027505878003822933,0.007257349894017966,0.00008186487860096187,-0.03449868568786349,-0.028512988227071358,-0.019460165120430167,0.013297115497103645,-0.0023452754950811024,0.03584846283030704,0.026904140349843467,0.0909538607770875,0.10126010626234823,0.11880776487976084,0.093065211907382,0.04037193328724053,0.014004698962418826,0.030672022158974674,0.00044941443332686476,-0.032835632036685124,-0.01192469647128194,-0.013595828794084273,0.008114282995765333,0.025647360485501185,0.05806688867220414,0.06444804952124414,0.001254387173738821,0.007995955410442549,0.007367638528712637,0.009971700261451591,-0.008618838613685217,-0.006184286572720629,-0.0026748399979962443,0.00935082629229678,-0.0005888331661232333,0.01728995575502188,0.050206869618888046,0.028641935528981376,0.0691125702649348,0.09399670241102454,0.10599543144358542,0.11160652343831273,0.059634398482504666,0.009488491022661756,0.009868664104653254,0.031760314889321545,0.03076434572300171,0.038306613784335225,0.005595579421515645,0.04390391613599763,0.04532215160843361,0.04110666836464,0.056760756420374966,0.04259161661885506,0.014236894157214646,-0.019234444794330702,0.013126317700546,-0.013420163342178774,-0.008177758420462426,0.020893868407559274,0.005116724031932816,-0.0037893594959541024,0.037630495644666855,0.0469201379299691,0.05587308991785215,0.023256934002422888,0.0584715443046421,0.07522895566942013,0.0876441947190263,0.061074544373736814,0.03976694002647076,0.010157754282254417,0.02451713733326359,0.03547715197260747,0.05068916528355559,0.0415679325241746,0.04483495428052229,0.02207363950055773,0.04741042199605092,0.0393047381303327,0.037712880554393736,0.03968402906684797,0.03296231798406855,-0.009969854173727585,-0.001641826185717774,0.008886626888989883,0.01570492076202222,0.00587295658024685,0.003754434118134089,0.004165307485290104,0.05646741760531541,0.059983077685325195,0.045256961753419325,0.03691402353338835,0.044456147855291006,0.032449235288094715,0.06068012655713572,0.0027847917190185617,-0.00031803326548699644,0.0031220228635169154,0.041423695057569085,0.07083637861662208,0.09209634572728839,0.07671168465970442,0.0691784940988216,0.059810296207500106,0.06421649929193696,0.04467078018000452,0.03062177412556791,0.012955847039102296,0.025417220541806992,-0.0028197706426441385,0.0067482286001218856,0.007505187281989036,0.004055060972009931,0.015492400606605996,0.015612476315719494,0.012643845500803363,0.03681776431246479,0.04481915033897497,0.046066469979927624,0.03801541566307459,0.0326846577738336,0.034934468381464794,0.046650753029008236,-0.014093360206302405,0.011834804656195295,0.028547080101108114,0.07567509016322396,0.09465336431979293,0.0958417196159669,0.10952465553166296,0.0445461159334703,0.03658417216702558,0.04345185900744483,0.028804020551541236,0.026101506674994644,0.023164566420008824,0.025274857791393397,-0.005712122404763681,0.004047852804556381,-0.005108435847039152,0.011853372118158057,0.003921131244261274,0.011428075765056358,0.018153070908799505,0.02071356135991282,0.04172337061278487,0.030704048741792292,0.03189461758441976,0.020583577880131643,0.03249044911860837,0.006017470787922009,0.03333483063205963,0.060025604443128815,0.0688397366324451,0.09882133121365573,0.12205165456994861,0.11863654648339444,0.08055279872611466,0.04740524353666977,0.008007299128523269,0.011572802124204655,0.0016327803738578012,0.034053397364908825,0.01191934760120178,0.01912008997356355,-0.007133159892495588,-0.008760058291321069,0.017156641408186343,0.008988486369021286,0.008899504602801346,-0.009384956328223263,0.03018890086387787,0.022998495211638898,0.024798960224237332,0.01034697191527056,0.021716260349428716,0.024689138069746132,0.022647956894405116,0.0534332313514774,0.02553444642761379,0.030640221799467283,0.08193614719771823,0.1140906948653196,0.09971488079412327,0.061173294691798386,0.041568956565837624,0.006456846324408369,-0.023865473182917745,0.0028266597510318613,0.015052857794308922,0.03483442732461069,0.010528371187457038,0.02808103112254467,0.005944377081134115,0.005439385262513746,0.006344424293296173,-0.023466362756545615,0.00021357560280011262,0.014344002984954434,0.025594635926005815,0.0033751127772853012,0.0021447267403330843,0.009615076759979522,0.0031147272500607957,0.020510184846228324,0.009204413303232413,0.012897833657938234,0.017404214146561427,0.008711201508475023,0.016613653424416026,0.02403686318604412,0.003952875613488016,-0.004416208591886795,0.006081606630871647,-0.029745606579077974,-0.037536395263435295,-0.006186727488205861,-0.00720903327071693,0.0030910333400151614,0.019901268181531054,-0.0060659804334003775,0.0032405801464948487,0.0064489886034121225,0.008382532913163838,0.0016943378311441528,-0.007393515465416439,0.025671578770803182,0.008830962731696002,0.012661709854039327,-0.02740424782083786,-0.010653034050425194,-0.015943894152419612,0.0031952123111349687,-0.01329289376636451,-0.015442113669594014,-0.004597358585377641,-0.016586411147126622,-0.04899365714245232,-0.05941640918721887,-0.047876981112028885,-0.02640999103286767,-0.022005889594992917,-0.0440871391850502,-0.031120031682420828,-0.018203036905056216,-0.00782963260495874,0.005573260319271688,0.010757993219509049,0.007753715039977451,-0.03276958094199818,-0.023778941679706334,-0.007441523735329248,0.0004156012404175616,-0.0028001777240590285,0.026198687829486544,0.004029861306970457,-0.02062166823589064,-0.04020781351306122,-0.04623861075873248,-0.03595038344936204,-0.03105651328005309,-0.01400795327274664,-0.030922428522253593,-0.03247907735756486,-0.0463583289103438,-0.08172283442915583,-0.06409715879759187,-0.061498300872026644,-0.099417266794796,-0.07807575911629282,-0.03667691926180167,-0.030292365014958897,-0.004435766258993255,-0.01252670971502354,-0.0027661295718204564,0.012647198736253168,0.011665482607160521,-0.00283998311532437,-0.007317062471113464,-0.005165891164192588,0.014667157392880152,-0.0009418057356552028,0.009997756480298093,0.004114233934685948,-0.02466271200233636,-0.012549576832755583,-0.027456428344705276,-0.025347820956541398,-0.021490465739385976,-0.007580979475444519,-0.02148622262651292,-0.041344237348667705,-0.06285220496456569,-0.07184707070901479,-0.08906969431409371,-0.08293763588669639,-0.096663292669694,-0.0783526267809083,-0.05833853399825927,-0.04739616522471586,-0.022734433310998774,-0.01442009643490577,-0.007248768344967458,-0.004087141561316393,0.003203093192346415,-0.013583148128694437,0.008303019858775983,0.007118082807093959,-0.019227185068357307,0.0027019374514630472,-0.017608522651651803,-0.0058936072193214615,-0.0171244830550134,-0.015373198447150932,0.00460503256538461,-0.005627736046716853,-0.016238821513718103,-0.029702011093293092,-0.040504754562332386,-0.05642241133194929,-0.07123039627504574,-0.03714079287775065,-0.052563193143727496,-0.044601893517533665,-0.03927518508838478,-0.0440479578183698,-0.02411023259834105,-0.03431637680498236,-0.01458101997934141,-0.01607447865090526,-0.013335539880128975,-0.018878605312045032,-0.008591456818098713,0.00377505717488977,-0.006286865246352894,0.006131355728087485,-0.0002955062564394764,0.0008335970398874859,0.0012273283481321858,0.0021430482262143075,-0.005635123392147646,-0.025299581196956092,-0.0201197298648084,-0.019574845892379688,-0.03554856092427052,-0.06240841651002788,-0.05316938929016371,-0.044121775493538226,-0.04347209090517965,-0.052382142321493776,-0.034204395337411715,-0.03178126284669573,-0.03289563001895928,-0.03341768082699675,-0.027076062808787937,-0.009820615026154948,-0.02467582914127876,0.01855339230713583,-0.0005210031133235998,0.00995025104427355,0.003963494296518999,-0.012623115976329568,0.001634777495516073,0.0024636653610662115,0.009014528909627626,0.010850558670356843,-0.009393261589400145,0.011145781664691438,0.0006363223132179563,-0.00399580063750075,-0.018337471802955876,-0.0020992653606669697,-0.017372889631932148,-0.019376570361481767,