{"act_func":["reLU","reLU","softmax"],"layers":[{"inputNeuronCount":784,"outputNeuronCount":128,"weights":[[0.005054280469549279,-0.013702263363096028,0.00962256010136047,0.006998131459402443,-0.00016029560036147827,0.00940701384248722,-0.010892733571717895,-0.006198282889762802,-0.004742906803453282,-0.006199481604073534,0.007676924593707097,0.0014376697635875657,-0.0013755055481156921,0.0038048649584011703,-0.006627099311357901,-0.003290331842001845,0.009948201232747015,0.0042475603072563844,-0.001215934795743537,0.012840610700299722,-0.003046641674803917,-0.0032636742419628164,-0.008462172236776738,-0.018987933879032144,0.014036149139754692,-0.01253422850341866,0.018906322717250967,-0.018610307225910228,-0.002703777360197509,0.009527881503600007,-0.0031651620503219432,-0.008303470550349815,0.01240531338946081,-0.010395214452881772,-0.0141905046660386,0.007547296676534622,-0.0009694550258938662,0.004388587996335244,0.009930017506147025,0.00930701670225307,-0.010968616288270632,0.004243076567127013,0.0044319613118361245,-0.008747955536174192,0.005510465893694665,0.02376130220090742,-0.005979569240682835,-0.005734786567343216,-0.002101774178946454,-0.009722044393967231,-0.005334117745682071,0.00016208759121889575,-0.006424516113587789,-0.007650399056235515,0.006228406809216813,-0.026017814814960447,0.0056374763155561175,-0.011850705957708714,-0.0028534544846284585,0.009271898054934008,0.015661252094790305,0.003390007873665048,-0.006180687572772656,-0.006901881902659972,-0.0005312619533640966,-0.0014558140701400662,0.004957791442561929,-0.019145481120372,-0.008408994997445771,-0.001444918782845693,-0.004592096197628821,-0.007454513498232865,-0.014077436574915012,0.013950551644978732,-0.0027788234745528295,-0.008852205513176541,-0.007312951441718668,0.006983815751821925,-0.017922774841321733,0.0045097537729578375,-0.00619980224127595,-0.002321174133597818,-0.0035245133780963827,0.00523281762223632,0.010983021330115462,0.02192068449352243,-0.0029428778738884455,-0.007156217867264516,0.005630703787019933,0.006987287909369153,0.010856296174629982,0.0028929748374214824,0.0026140601246661967,0.008107613884773213,-0.016930025947412518,-0.006995238595620083,0.008587290308999315,0.006881509000083495,-0.042805752312240986,-0.07775538902286351,-0.0717665748345672,-0.03151021279061178,-0.04426975257554599,-0.047568852601123604,-0.018933285782062766,-0.01315716926099671,-0.012431863993183797,-0.007179983301319765,-0.02544341751768696,-0.01121614892764294,-0.0077840248554957555,0.00725919995831205,-0.004850127983075673,0.0068154255970611375,0.0007961486521261042,0.014501389151195785,0.0026283680291863845,0.0008111532561054972,0.012822106786380806,0.009777263268029327,0.042946709527774504,0.008981225538233625,0.004350946925656054,0.0018444500132244251,0.044800560058811896,0.03044665571208793,-0.05338612865249693,-0.04451338926621972,-0.10682539860653441,-0.13836360814988033,-0.10431986055919384,-0.08596115507882307,-0.052518762559419,-0.022905582963382548,-0.004850629599188473,0.011760831449161211,-0.006399460898183319,-0.025240114982212267,-0.009031358438514318,-0.017563646291417427,0.0005577124657323188,-0.01750310012489415,0.0020450319477830765,-0.00791613400497407,0.008630534706275197,0.030061180496506974,0.029451913163512717,0.031101389468585802,0.03794163716977599,0.011755065812954876,0.04891739904590439,0.06308143929100872,0.05138729747299,0.011918592555957504,-0.055202481903714684,-0.03642884834740807,-0.12736640566305735,-0.14670446914911547,-0.11913056910684862,-0.09712202928427337,-0.04650775254354652,-0.03752208611156955,-0.029744143732666404,-0.01808859630719841,-0.004122634768419282,-0.008215259774621859,0.01188879445874953,0.007483752979817405,-0.0041904227323240045,0.0032153090704910084,0.0032725963457645962,-0.0013564731364369609,0.013715562046742413,-0.009951626345883117,0.010954785406190628,0.02480321128281271,0.036462622899914546,0.05093446669579906,0.051392965817361594,0.04990457655376974,0.014957441514748133,-0.0018347005111141082,-0.005158136412148911,-0.013788940641044066,-0.047437983920933194,-0.05942540433550776,-0.1371888350399928,-0.17402615221783355,-0.12401058771682948,-0.0585571151556802,-0.08169874619320538,-0.03526034486384329,-0.004096469615789232,0.012944637745682074,0.00015891008949988302,-0.009193054053304811,-0.012554430308333442,-0.0032059318347969616,0.007642043299665539,0.0133675638045027,-0.002080558345061798,-0.015216256176875886,0.019428171963617496,-0.01119728907559012,0.04675358393426104,0.07539122658787924,-0.012293999411778006,0.03980255028385082,0.024079719811002945,0.1045980110862615,0.022961451770453573,0.0575264802861977,0.07916121312451294,-0.046129693310084395,-0.10366968142430108,-0.174816792264628,-0.0784705904531929,-0.06605868234694777,-0.07066875591792607,-0.06980484815262841,-0.025450976291027244,0.015368388423577382,0.00495872354286201,0.025558964826178237,-0.003412694572726829,-0.00824261577628461,0.001494597604059566,0.017310841383411917,0.012109147466410083,-0.013487459226195505,0.005740513975768563,-0.016365489224930394,0.09589654874944448,0.027315244118076724,0.11470114592056854,0.050259256924112726,0.05501375767715205,0.04150533050883335,0.097020469523819,0.11218052800211215,0.08983694412150095,0.05630155920785373,-0.015805545209528968,-0.09765269110489623,-0.1386685095032186,-0.06749589240332819,-0.06414675459970068,-0.0825515566341721,-0.008731936799314945,-0.02124947180260852,-0.011020287945101591,-0.008666255841975409,0.00672047688379241,0.003468517549542988,0.007763047149592848,0.008759910255078152,0.009452942467877593,0.012647090536770754,0.012667366676144489,-0.010976187771482428,0.030434781661513935,0.026675997887676006,0.05979736923348498,0.07200931482501492,0.07143499544235023,0.023602490799647758,0.081925200475003,0.11709425444765324,0.10961976183952293,0.08337061325115039,-0.004298537283639965,-0.0521407913061979,-0.07558066620687681,-0.04394631766493194,-0.03888549943284511,-0.054150178682315364,-0.04741437971230058,-0.0033030568407908826,0.011146710327358257,0.01309049132127151,-0.0038263811201183287,0.001580093538076049,0.001505674330714666,0.0039034577133974036,0.0171594306430552,0.03685061845180628,0.03307093042957688,0.01261592295155434,0.02068251373958398,0.002435737503254922,-0.02915803351181325,-0.02724672601214368,0.01674869912138739,0.0024718921566209517,0.09568072241435845,0.0912935361349323,0.13516415490928516,0.029653425902252,-0.03349416146510208,-0.07648586965782156,-0.06377595823427454,-0.04497174795152999,-0.02002801259522962,-0.04603687911787894,-0.03880668181436034,-0.01209395920636758,-0.014869681092971473,-0.009127970962748146,-0.0015000980506985572,-0.004590284313401148,0.000042915745049080344,-0.001685792142369317,-0.011067805493538477,0.040041462162282875,-0.005022761424496835,0.04879209751313461,0.009906933086629523,-0.030523805910412757,-0.033331056502063174,-0.022759520118477435,0.006685603268427534,0.012689841608676812,0.07362425874585413,0.07557550366646093,0.06402273780064024,0.05679921025754165,0.03317591252518235,-0.04811524980203415,-0.024948088865296734,-0.052237178330805496,-0.0363597678003665,-0.04103632419326839,-0.02908623036528423,0.01722259224972414,0.006747473624435702,-0.00030883714181948233,0.006695993294274043,0.0035579018635139665,-0.01112854439507366,-0.005905543730085358,0.0031639535988235976,-0.013295020576265984,-0.034755941336343986,-0.004035550266963158,-0.027257944635882658,-0.049163535817252836,-0.08061047212320716,-0.05854708653673905,-0.021274969147377663,0.0008760587658859338,0.05810867052470722,0.11112051322872754,0.07588454853550726,0.04076532958152489,0.04507819761832415,-0.07307293023609451,-0.061076524058908684,-0.05241351721764173,-0.031578050566117545,0.0003524231480765082,0.018404888774576057,0.014092978718481556,0.0021073849433940178,0.003188725581866547,0.003966527459955165,-0.014543511500406543,-0.000326660474599727,0.002555384227832892,0.0041565042157925055,-0.045264779521277096,-0.039818244389072104,-0.0023389064647110014,-0.041647636430257026,-0.029264996893410406,-0.011082315995241584,0.002001313063774293,-0.006379151284732118,0.019113199519527318,0.018579886365515462,0.08245550676223594,0.02982034535396318,0.006231233586920762,-0.025264782577450042,-0.05511769374720512,-0.09506236007652075,-0.02539811979651857,0.009363529067088509,0.01971296761149199,0.025127066560623485,0.023741038004189405,0.012508737925135361,-0.0026629387865003268,-0.010102714765229932,-0.000656766111346102,0.008534439560165611,0.009117329273117147,-0.017469477629504657,-0.04542114381010316,-0.05684092249747563,-0.04034545325270839,-0.10076897252073293,-0.03811556628424345,-0.007428476092816036,0.0454746076750661,0.014416510927267537,-0.00025340932082024934,-0.024778227262572665,0.007113424270391553,-0.012683064870145979,0.011391768029945744,0.024880689453294663,-0.04475770643682714,-0.021938362342491614,-0.003853824966872675,0.008963374820917941,0.01640513874946698,0.020801271349190634,0.01229113179971142,0.015154340837352993,0.005849628604285281,-0.024215846975513274,0.005082060020728195,-0.01200061613862879,0.0008062359890806856,-0.017095270543471,-0.040545393603428063,-0.03683775902318862,-0.059550129844464755,-0.04613348799453987,-0.045204490639354084,-0.008308990716927258,-0.0012735448684353498,0.007326608634126808,0.053743186551794046,0.03777894152847199,0.04176203692481715,0.03175263812198968,0.06469391283959673,-0.002816212807649307,-0.02477954761495378,0.025668955566394216,0.03319173933225091,0.00832766427098011,0.011382216845690534,0.03223103857538154,0.01269977515603099,0.020386634752392257,0.010656350528841993,-0.015727783759612025,-0.0037548605483774793,-0.015290566732100446,-0.006138298435894746,-0.011597501267288526,-0.04698016214651193,-0.01618232993464806,0.0021467769436154067,0.014544650915214025,0.032650131236736504,0.04818499731667524,0.03892561179973757,-0.028796074608800463,0.00025977041487424985,0.03653585125779631,0.026450472363156383,0.029272393003231527,0.0227567627925245,-0.0121043878909349,-0.008551908416512778,0.02173002777754217,0.019501782799120564,0.010687974751116871,0.013842018750902086,0.006209267432891077,-0.010904642853752389,0.0180923356703307,0.010483055390300854,-0.0005528682060218653,0.01566427656979601,0.003093448992740758,0.01767722237646269,0.002106126420284418,-0.0007097783090434752,0.011718979500067207,-0.017240598487952997,0.012196110043090057,0.01777719309600493,-0.006428300445891291,-0.03958364664253781,-0.05084191106324969,-0.005111693189106707,0.0128311822362325,-0.01406694771668917,-0.036286580147108324,0.05199563335886485,0.028969633035077134,-0.016482129970151253,-0.0014136686398198285,-0.0016009454767814159,-0.04399052898168226,-0.011971439140709878,-0.01221622833871653,-0.006983522545640917,0.010137773127329129,0.004821157777016356,0.003761116901158549,0.005479966428705653,0.005200706864793012,-0.0014363513939501657,0.028139588092406707,0.010862673143866058,0.005637922227498423,0.034828757254815,0.0163587321296541,-0.03853877402401684,-0.037443526938364766,-0.013203957676227639,-0.06411132890490041,-0.035191039919965195,0.014586412066134459,-0.0056233105424490365,-0.010156796443907627,0.03305634130778968,-0.0028984119700276472,-0.011716357802930703,0.015462834307399377,-0.033405514518268606,-0.030641313547821576,-0.04759072670255742,-0.033888651446640744,-0.019145216525084857,0.00504814735655816,0.00005585677306648972,0.018016602965610317,-0.006986520250418683,-0.0011760730672315573,0.0031016452139829677,-0.014463447104112265,-0.013126915314710635,-0.010639662562876656,-0.008227150023431927,-0.031024760315359143,-0.04406481208843641,-0.05958460946357234,-0.0699569419915813,-0.018713130769532745,-0.0025403882356106566,0.03456608732186249,0.027507315967251266,0.007593599630741293,-0.02790595338249634,-0.028790231954374232,-0.02068037599507347,-0.031062808309909717,-0.027131351889211786,-0.0038830186950394954,-0.026780097874017174,-0.019768309694864542,0.0008852349448538348,0.00384623457235455,0.007541984237042625,-0.000823919150861751,-0.01655250448157261,0.009672013996055323,0.006542158197752531,0.012815498763878847,-0.03923154300796322,-0.04963290272863183,0.0060455000441863175,0.019796859791451828,0.0018210472768345543,-0.043722279799909454,-0.04825931043122932,0.00931106707002224,0.004715222366818816,0.07597375881283469,-0.004978541160387143,-0.012570387893243625,-0.06085655812455611,-0.08282717190995109,-0.06289556052989927,-0.00903267481466398,0.007516555584057206,-0.00023093520840346266,-0.006498338347416477,-0.002945875622094036,-0.017114048656827113,-0.0074025376187288015,-0.005544386725282085,-0.023339574842740962,0.024909476757840797,0.016055471349501665,0.007491771759804496,0.026242832807007416,-0.006006723633924491,-0.03569910793579907,-0.012943454257164977,-0.010089103517605972,-0.004392834597501287,-0.008067434517093236,-0.013360953454876486,0.0060723904542652985,0.012535537003043306,0.035789788820381134,0.024234513431851776,-0.0003894126671701515,-0.054991169124703664,-0.039355747433952405,-0.01479762324190488,0.038110676510131516,-0.0018862752995143786,-0.0017838082100539252,0.0028803406135997625,-0.0069650273949693605,-0.007839511256702889,-0.004774837162301884,0.012760001734454001,0.0034504193940204583,-0.0038116705451678484,0.005305239441680103,0.007032763192700291,0.02958253166495148,-0.009015019583170907,-0.016760197562683033,-0.04221541489770108,-0.03108519084245366,-0.04861777149921327,-0.016695894831593717,-0.04272858743721645,0.0073190501962584345,0.049124619954693985,0.11255528508734494,0.009198913734358402,-0.028203214320196783,-0.03499779670210778,0.0073902047021365685,-0.041200499686690366,0.0031652079824690776,-0.00368694843316247,-0.008562444177761228,-0.014413121123576874,-0.005227847602877758,0.0012732672897668228,0.009492715741902113,0.0009943113223997717,0.0023320238777063706,0.02064976189482691,-0.0006159021266214542,-0.009386759744032424,0.0026755046231094885,0.001703548791399385,-0.008216486136487572,-0.051886414994597035,-0.024789136954224602,-0.047228049925173606,-0.007377948190020591,0.06148554984268367,0.05132506406180551,0.12660923183414796,0.07859325212220587,0.006486683831864013,0.007933403737087733,0.011038671311985297,0.0014667592107025884,-0.002375772552140318,-0.004003649128924828,-0.01400938754869158,-0.005220655520520002,0.0006597529531282374,-0.0047844064972384906,-0.010791100847974865,0.0007531442408705378,0.008498085893205873,-0.001347339506421105,0.0012502120282954618,-0.003928822918291318,-0.03178307451613941,0.033138752240384046,0.03404053498362389,-0.01706504247538387,-0.02399498043742259,-0.04608860097184672,-0.061677943889464404,-0.03005383565471179,-0.004440160185738633,-0.01044971707513255,0.02333916701596918,0.009779251892000705,0.003966914945844482,-0.013028779152779712,0.01731617654089477,-0.027265650945380658,0.007627670615255361,-0.0011512472459703068,-0.006254291949546097,-0.01745001020411817,-0.007780856775416074,-0.02179323674622226,0.024714473737388488,-0.018688976674395646,-0.017998142606686446,0.006998763375589133,-0.009428150129535733,0.009723479879855989,0.014302445161123688,0.02505398696558888,0.02089382513058968,-0.005117045282295985,-0.00994197394714465,-0.02401811077656303,-0.02910842823441478,-0.04170928915716035,-0.005909888737486102,-0.009650410566772297,0.003968008049470057,0.005006471089677576,-0.03601173637978685,0.017070619656767066,0.005257436857233919,-0.030467393281860364,-0.014046470798777315,0.005767437098449103,-0.0227952613629089,-0.039726325501510264,-0.014766029353559636,-0.02514304976569433,-0.0089243135741451,0.007463874461407574,0.012158280871198732,-0.010892427368532902,0.014857632109515817,-0.0011448984932985282,-0.005103199709796383,-0.004104521758785656,-0.005033991037694929,0.008377798952439083,0.010887683023852944,-0.0027395232146139705,0.014543611251356276,0.0355698671802009,0.009144586318893382,0.0036463498855125124,-0.004636078896522922,0.036230366345267474,0.017274340583933064,0.05209334665399706,0.02368371169954692,0.03307815314183653,-0.0016876703720428426,0.006214151782029883,0.018515264048305422,0.010304086641564751,-0.007449471950391178,-0.0006064375785578822,-0.0001962735970419896,0.01731686449092815,-0.017231118203387574,-0.0023914485897860685,0.0024764666203159697,-0.002158268862817879,-0.008004930331148286,0.01636346044475084,0.005985831679970048,-0.01035789968852482,-0.00500657821866625,0.01131324983315389,-0.0032486725769320427,0.019177685464229002,0.006104969556930262,-0.006737262229592782,-0.0026519677036532623,-0.00008603599530558276,0.002456614079675154,-0.000891907058704763,-0.005305769638733984,-0.009613456284545109,-0.005699981747275533,-0.0008142713910235145,-0.005461725969943953,0.004363303819788628,-0.001031992130208432,-0.0016536569007617617,-0.01263625524611114,-0.0035427255210405168,0.008369388781961931],[-0.008005440380714884,-0.016439286002385596,-0.00115622125521758,-0.00022182798728952288,-0.002042377789634861,0.005623327917246242,-0.0031156166365462206,0.012111766675404444,0.011076068612730802,-0.006175139791083983,-0.006617632761923719,-0.014029091449016264,-0.002828042116660137,0.000557006547176896,-0.01176275045818476,0.0009354950936200628,-0.008145034462536161,0.010573556448038068,-0.01740196598628021,0.006413083005013435,-0.022218611697425623,-0.0027574518660808734,-0.020207581141073263,-0.006181361066874418,-0.017751680781617565,-0.006432537773874622,-0.006719744069529017,-0.0015009292525215846,-0.003925778975613799,0.002283507625168001,-0.007484552360566563,0.006128782187612603,-0.007293037473772006,-0.016725556058301543,-0.0012580197202499456,0.017041530375743283,-0.006570000368339209,0.009625704098453498,-0.003601263877975849,0.00009519353668998146,0.011914531708101812,0.00487433571207057,0.003859708669007531,-0.009970446164682473,0.017535960232636285,0.005865978282660515,0.01957482691697478,0.012203013797482964,0.012018897936325278,-0.0015505798041599835,0.0030871087667443046,-0.01325055649858646,0.004475222884935764,-0.01722897535349474,0.010074201001928504,0.008767487656647284,-0.022120456791045396,0.0016250287575569592,-0.012375838947516609,0.0016515333762104002,-0.01074205905465046,-0.0036563003009870746,0.009667369445445231,0.002060728194825178,0.006824917899756997,0.009214533769322908,0.005697846931515699,0.0103648853366682,-0.009387608951210387,0.02715693584497442,0.020082358179277473,0.035148455635402795,0.018852075855311554,0.020132682825825636,-0.006607521584344106,-0.003668124484177794,0.01431496342845901,0.0032770177475121044,-0.004203486429381391,0.009872993012344816,0.01334825486734604,0.025226782836294367,0.011634315595579614,-0.013593815526531073,0.0004759001422046249,-0.010052843237133999,0.020232941835236627,0.005731742922643805,-0.009724704279536962,0.004826002433902328,0.004727276444254913,0.01942980909845184,0.016053059829246815,0.010354465047203826,0.030455009448861932,0.03580736291198155,0.0442886302664992,0.03368816801577734,0.028887150100479167,-0.001970903274677857,-0.02964269962156545,-0.012153975599891228,-0.0045018482657060025,0.028700126167130805,0.01537070460926356,-0.0007224303354278141,-0.012920630256180128,-0.0074142559427626265,0.010901471720310002,0.013814087615966832,-0.014642004369804649,-0.00870721950892774,-0.024949651217525043,0.017920197207632577,0.0001523624034586264,0.007388887475359823,-0.011645053605069422,0.015328461818268975,-0.004977106689697336,-0.005658349582972253,-0.01373288212420246,-0.030514438771430966,-0.011920384661362053,0.02257171570201315,0.01332750113230487,-0.03520055243237333,0.006172840960260934,-0.001868982657086159,-0.06435936757202942,-0.06158053537622607,-0.022827099050163217,-0.014222900125776837,-0.027429334225230112,-0.005457434388471999,-0.01792688305652376,-0.015847661946186618,-0.012072870357540464,-0.0015684629419204447,-0.01843066436701464,-0.0022379246489271725,0.006120501356783504,0.007135561787472331,0.0007260548705293801,0.0035273730283445744,-0.009688180485560022,-0.0007748929572122186,0.007655836859861676,-0.02940197112670161,-0.052696140228015755,-0.01483074351130725,-0.009479577853714864,-0.05020313780795355,-0.08710657075899503,-0.054994036678449584,-0.00487625998025312,-0.023058584770505732,-0.01901360663196053,-0.012900215811413939,-0.044531056926290793,-0.04094013260607639,-0.04940006348882079,-0.022455382179125037,-0.02491867525242087,-0.007775766406139186,-0.01736041849558123,-0.027027763616188125,-0.0065647842609592956,0.0003042301729844949,-0.01717294415827502,0.009289277924436361,0.016136785503365912,-0.008233270297670292,0.000388658976395532,0.006854027160176082,-0.013184302603013114,-0.016395758254395952,-0.02969733326129459,-0.012735641941206645,-0.004352735578076866,-0.041958501050263344,-0.1003050003890351,-0.06585781683879811,-0.10185154177639502,0.0024684921383299717,0.07029114584651888,0.029350840941997924,-0.0432364246304504,-0.021106047089195595,-0.044405860354558034,-0.022993253021237864,-0.007357865867324248,-0.02084766634820875,0.01003633371119544,-0.032223110010236804,0.0077810924003043885,0.015621446103572354,-0.011523832488411614,0.0001259481172435398,-0.0024573764600603868,0.010797453409470964,-0.01179054302626817,0.005816638515948496,0.006644730417118426,0.03524548271980008,0.021539760235473396,0.0682201336819425,0.03880650406886051,0.05604040656573306,0.00973128505725245,0.007775124588419841,0.04286030245539817,0.014486495525965435,0.015180315664666086,0.06695083470057081,0.008615769282214494,0.022141326025632225,0.008050034457968173,-0.04436758364659271,-0.07394126110877439,-0.006566746818401425,0.021917094228083325,-0.002014342429068706,0.0010796254963212051,0.0066525322967477315,-0.010153244813714565,0.0029711299889846727,0.019466233965998614,-0.0016221471713381563,-0.010606704841707816,0.010419348750263773,-0.056022670144857144,0.04103610789389656,0.0660903534324149,0.08852468961895832,0.08756637949849651,0.09413387282683061,0.08571516967559728,0.08736768081543551,0.06986125311177266,0.05072557000678485,0.05286923189795551,0.021668189530526228,0.029676663248686598,0.05531064984077027,0.06120456733890217,-0.008933862893712197,0.021499569678353234,-0.0010165450515399032,-0.011930829533608446,-0.000690094134258242,-0.0075700542098589224,0.013992992103604033,-0.0017354111734744868,-0.009551053210527327,-0.0015395862894526163,0.006285725975411885,0.012527023851180851,0.02327206777766723,-0.02113194773447395,0.04037006954344891,0.044286446939567625,0.04991389263286902,0.06791243483582933,0.09727509422807915,0.13827885328250178,0.08602305181864874,-0.021661566664810655,-0.016979432804759657,-0.03024957381676052,-0.021268107943982085,-0.03097034907381498,0.024981471681032826,0.024990962074652283,-0.031937986979744135,0.054486150193044085,0.018929422544277034,-0.026225471860110712,-0.022424524198397272,-0.00528086076432141,0.008707009457006495,-0.0017715063973055784,0.008214892724397594,-0.000023756411735290753,-0.012552591597298556,0.007899087153276738,0.01326608868805943,0.031970529174434645,0.014774977031899077,0.028677751323675997,0.07132578559052169,0.0009960053227287245,0.008065763773798015,0.02049363376710736,-0.011414205723818883,-0.16713026618663263,-0.06843231576622745,-0.059954255572105423,-0.0670173727637506,-0.04070049845036027,-0.0174637579719564,-0.004899051151102323,-0.015403712731060991,0.026217357386469305,-0.019412355166675478,-0.028389273184995463,0.003107674873054799,-0.00025571041579691743,0.00975837696118736,0.009509418872391847,-0.01350645910878281,0.004586418067639537,-0.036070542205362675,-0.014911043196294872,0.022809559166557688,0.011912729200581614,-0.014415884889040989,0.04798407725482135,0.036439651084485825,-0.016176116512695484,0.011258146966167993,-0.09932432499563949,-0.17542638981992392,-0.14751464075584683,-0.06400801804427607,-0.009451134585178156,-0.04099675741833043,-0.011785719759323039,-0.0528566981108802,-0.09182594086768538,-0.04125713646856207,0.006449985379287473,-0.01605960406476776,-0.03592110482713406,-0.023565592893428272,-0.029664430352831433,0.0030953398801602835,-0.008769907136399496,-0.013415275282766778,-0.004729013551445137,-0.031383242603969894,-0.0532430429054263,-0.016925581606849826,0.0022142718649258947,-0.03276184663037593,-0.002343690918892159,-0.09972312183372752,-0.09532573941746303,-0.10517420759447184,-0.14290825680920768,-0.1331266197773482,-0.008527762519851479,0.034383127374126264,0.021790501856387416,0.0005189310485897711,0.05937306584979841,-0.023897996541091232,-0.034807791661068,-0.03400341890451252,0.004944728115438347,0.006150345333817791,-0.00036816587839832543,-0.0027672693452176077,0.01108362474097792,0.024528597716569196,-0.009760027991079353,-0.008475043670865295,0.0010542829123484823,-0.016678318271706894,-0.04249064660811253,-0.07287356877144559,0.003704732182438423,-0.04797971266919552,-0.06252713540212751,-0.13883164465850342,-0.10275156697639883,-0.08809222044612607,-0.12259410703479119,0.0010136757311496455,0.11619384174024872,0.07997811320446642,0.09917553756673202,0.10722862084390562,0.051307651178969835,0.011746076437621322,0.0036106272760999987,-0.003918192638807631,-0.041552406064124886,0.020496879184894443,0.00718385357962475,0.013079421348899913,-0.020852536913323907,-0.01362696498435424,-0.0019505971260591665,0.022452292733082337,-0.0015130987070874485,0.001133673624823495,-0.013711172575990095,-0.04801862510241273,-0.0233433446790546,-0.006471783717204752,-0.02860222956191758,-0.0511456571432176,-0.02914354259914785,-0.07076696425091959,-0.019817961141878202,0.08550293038962987,0.08626059940658147,0.12838901340068193,0.14850230224694017,0.112091955017006,0.08006756748533056,0.07675844436092465,0.03934109229092473,-0.024153133269445914,-0.015610752302769083,0.020641830061021483,0.023842294566838392,-0.019575710111286733,0.00092272147078861,0.016586116896722906,-0.006277540141138483,0.0041326254408261725,0.01421617923668792,-0.02225547262987929,-0.003764883076122906,0.016474346157247324,0.04836968018129435,0.07388229530074944,0.04993166499105835,-0.01059364871009683,0.00264205976301161,0.013929432980462687,0.026924455923173336,0.026563104282885334,0.07524100879438753,0.0611005260431846,0.022909988063821263,0.0727393914137993,0.07483241617831696,0.0931506255847184,0.06245112771556573,0.020087631395667244,-0.0176949847109532,0.007944144092599723,0.003906902594177708,-0.02132824831656453,0.003701516777833051,0.01224508776313248,0.002676723963351609,-0.005181852770221415,0.004695684129552975,-0.01692697810827356,-0.018122437545688777,0.05626408056271463,0.10650871866867288,0.11235855510155127,0.06160176206974636,0.10002818665169332,0.026869465262580414,0.008596517270360555,0.03351551224659151,0.03119487363209914,-0.02223779489977185,-0.044286486819377684,-0.02949585674866668,-0.00804056929319549,0.011760495677571025,0.0982114977590604,0.036401372389443465,-0.0012359483892963683,-0.0066042270878250466,-0.015116313918073875,0.011051120247604677,0.002289947496739396,-0.004902272823049788,-0.011613612661268785,-0.008570758166535988,-0.006411317266638965,-0.01729228719492035,0.0012069591871837167,-0.020418854516028206,0.04850179273368956,0.0944064299467172,0.09151335802302159,0.043537811515267484,0.008595189175551146,0.024281493325584692,0.0025128828680956246,-0.019928173704765243,0.018799936236577927,0.002106127454948679,-0.05071388719980226,-0.06627875590525938,-0.01118470432957059,-0.017857271076243363,0.07805009824482684,0.014236066118816736,-0.021507203898588043,-0.028069715074129534,-0.0008935006886936468,-0.008562231773630455,-0.004301067099372121,-0.01949811360863172,0.0059081863146786635,-0.008370648173261337,0.010445928056910192,0.023846901799928356,0.004377867548466169,-0.018936440559275892,0.02086622379556406,0.007187982375244731,0.042925559968541006,0.05597639782902476,0.019226826475106082,0.011764946164007672,0.05069077603746274,-0.014638695788570234,0.012976144531490737,-0.01972141988092209,-0.052747872139491135,0.022225242279185105,-0.009826096391273369,0.04171467503258536,0.03877796924660981,0.05627606157780828,0.05643046736610253,0.01066742620820199,0.002004456050706511,-0.0246546765731013,-0.010802544998191313,0.0165839560486342,-0.0006764616394173719,-0.0006561662124626654,0.010067148000879652,0.006931462242170094,-0.010869854715073244,0.02002953186007238,0.014889671481466974,-0.03560038455697941,-0.010197502548894547,0.0007798643633869708,0.05254367892796551,0.032853715375282984,0.06818146671557784,-0.013720462322652343,-0.07406577499378278,0.017911856887790536,-0.03633875388140393,0.0070169803848096285,-0.010274196812422552,0.001569746346980366,0.05159847468882222,0.10364784658423877,0.06263227059261484,-0.013472432061660692,-0.029050982391557977,0.005317575528436277,-0.016459415898566983,-0.006586589165286866,0.005521474832970591,0.010915420211409819,-0.0026410904611568254,-0.007014262071096877,-0.0016718134461165726,-0.005405928771481453,0.020852375122916204,-0.008944770570503474,-0.055239161615481126,-0.04992284285117734,0.0017817072386550772,0.010583656183934262,-0.03930182278299494,-0.0728136975972393,-0.01714013447534591,0.03293527309040191,0.017791147725472887,0.012799065163166477,0.016986816442827596,0.02365955513950472,0.03069496249592723,0.025659605004792564,0.02931820364694615,-0.048490965950029497,-0.041412347021669654,-0.006489584141403859,0.0017786622882553745,-0.010641741296915171,0.004373979544180939,0.0007752566634484543,-0.0072148409558321054,-0.008295030053097617,-0.012962342175162539,-0.01470105947311963,-0.01742976142179404,-0.003300047655863434,-0.015607764196576168,-0.09416958263959292,-0.1163266783961286,-0.07108071067272813,-0.11582098276987,-0.011683933974182768,0.012956712842735788,-0.0162679548583121,0.03699360325479274,0.06269620210247323,-0.024133599185153135,0.0124529264693713,0.03879350369651382,0.0033039165308968417,0.0152248338208371,-0.017610457172754262,-0.033181098306026065,-0.0020717001866765875,0.0016633037133822045,-0.0019874020859383086,-0.020160656819493,0.00827944439491821,0.006169258528982516,0.005635464364155816,-0.023672695933554717,-0.018070729610128025,-0.03372892943013867,-0.0437066549989447,-0.04203092549161138,-0.07788364418916267,-0.1105526670065419,-0.10804590193212846,-0.09115138916477333,0.02439468643081486,-0.0016615439242049295,-0.015895936063673812,0.027840192191491954,0.054259734649825454,0.04525355232041552,0.03901665417996541,-0.0014851261999288704,-0.00047043611701994703,0.002616453556430391,-0.008951709531547839,0.0016094854750955028,0.0020751348921986077,-0.009644152128635087,0.0025061687377107567,0.001435895996852508,-0.0014727335482210128,-0.0071391235128643775,0.009167598392079864,-0.007904965235936397,-0.010687504661312689,0.01567716723356763,0.039019738524307186,-0.04359277751005665,-0.05378550528973843,-0.0897257510158693,-0.024910387081409947,0.004522107648125033,-0.04370055766201887,-0.03686386697933559,-0.03827931236327913,-0.02334783687658076,-0.0036370073171821046,-0.006479262776049548,-0.013352549103859107,0.035109956003421795,-0.039366134238089386,0.006212702582321498,0.010877007061763458,0.0072854260556493,0.008515128925397242,0.008183185846304808,0.0023433347142065414,0.005065349068356055,0.0036421150154863848,-0.010194422308210317,0.008330467414922183,-0.002212494328512894,-0.00024859346605066174,0.01595737081466698,-0.014300135112784688,-0.012506622794300459,-0.04035755029133554,-0.0073239210480153215,-0.0039025062634513836,0.03575201711888162,-0.03467920042841054,-0.05637932824006541,-0.04883509727483556,-0.017768752454080168,0.00449297370374007,0.058735887439360056,0.0050722874658114415,0.006233851273722995,0.03421235319228063,0.027468990534540445,0.015028817622079988,0.038638624720587225,0.0035161809831091287,-0.00991027925329377,0.011428353924891776,-0.015070575619567173,-0.006298660701529525,-0.014887506859542203,0.005024101136625291,-0.004663166942443103,-0.004249376987076484,-0.0022043157673481252,-0.01684881089149041,-0.0053951078681453565,0.042485609445058435,0.05148622311867746,-0.002986919509217202,-0.023735316157918938,0.03461283613606861,-0.040338009794066924,-0.04310285757554024,-0.011933568828377638,0.028805398909906067,-0.009188957196292525,0.007074084916909021,0.06976975455457353,0.028338345439110978,0.015470097400440508,0.022804766793648564,0.0024784625839236493,-0.004421937953176871,0.007144270366808216,0.00575525725200915,-0.008184458332511592,-0.0014744456884676891,-0.003694241582867555,-0.0120687659466185,-0.008684125019116244,-0.021391478754282815,-0.051664625475515244,-0.026597080667115403,-0.007760909872156422,-0.007492753096877071,-0.020397548683900014,-0.014273648348332878,-0.00463910772301456,-0.016101076778275304,0.022696319365410327,0.03935798426447201,0.024676562682665444,0.019280716647808845,-0.003938102384455769,0.02236478842810417,0.04470769197018755,0.027823277929997718,-0.008262931065566283,-0.017645752889828847,0.00584493565418877,-0.005477710765726354,0.0003410466042127198,0.01048410334522445,0.016739035911462044,0.011177609762498432,-0.006200948073131449,0.009958211814908718,0.0004460700790509809,0.021807437934125474,0.006098194061979985,0.00608992005092947,0.009173879406183713,-0.007777987566684399,0.006867587292951085,-0.002124211724317183,0.009445311259884376,0.0014369164730274912,-0.005512726478899938,0.00994688500515734,-0.0033501860203145363,-0.009816603404296189,0.014774288765387437,0.00008487630832459927,-0.002181645934078375,0.003602655377487443,-0.0032057715594275365,0.0065384286983272135,-0.004886267473780142,-0.008212221733133332,0.002850358408174719,0.008062668162625778,-0.0042275090494749284],[0.006350365634787525,-0.0041616023040544955,0.010071143108293249,-0.0019897447212255883,-0.016660014779998896,-0.02843742330190605,-0.004981114665725148,-0.009967361275812282,0.014593288884936224,-0.006936639136451944,-0.010640631350418149,0.00022011108710593162,0.002042016567501811,0.007671976216190728,-0.015538682916173795,-0.012249214447973404,0.0019290407141616648,-0.021412088575710177,0.010347297712611218,0.005660771966941201,-0.0022242408837075196,0.013583841981526098,-0.011614299979677006,0.00352615133778181,-0.007177970364243352,0.005492383468810167,0.0009851258250199691,-0.004580451274395026,-0.011759888423216819,0.007028164176214304,-0.0034889133039667205,0.010550028938728251,-0.006819478551602138,0.011050834036647911,-0.001163432135924421,0.012247669392019375,-0.01924876325575505,0.01606831578010252,0.012595094010377048,-0.01862989811569976,0.0013057170735442847,-0.01864335714368543,0.0030022638287024476,-0.008157284551777748,-0.021300934920925742,0.002613404527112522,-0.012609675603611774,-0.008052022409858705,-0.0076952892528652965,-0.01696209465252555,-0.0037610072975481318,0.0028119606053338335,0.002080698909054607,0.011100076237174874,0.02708008106676004,-0.002810262750584682,-0.007746649135508504,-0.01194701290267118,0.0015754159910192425,-0.006332708658409914,0.007950984244826336,0.0006715926270117637,0.0005960238460995348,0.0022258273609064216,0.0030923114099929705,-0.0018087376080598008,0.008959352951911359,0.011576800404542174,-0.00039166760688647646,0.014228008703900999,0.007103655322017004,0.0072313119813509005,0.011067059808433666,0.01420210092807391,0.014698438973753716,0.027811979805840204,-0.01434766895499533,0.00836031023583232,-0.010848499581531843,0.007755233012140188,-0.006256854258747105,-0.013177219152106786,-0.001882975883270099,-0.016025754929315537,-0.00906105705552004,0.006365624984632527,-0.009273376747904412,0.0028410917845267543,-0.004059834219686698,0.0026273094618408798,-0.009489736450512817,-0.009335356837827323,-0.0027030972067162,-0.023156601082719098,-0.024226105545665618,-0.02431062845322207,-0.0032470881198936974,-0.0018931593709137567,-0.013524585882328079,0.005986401917236437,-0.006789389884503961,0.015630857738567257,0.030341661792067067,0.019333753500233333,0.020025155665343852,0.02273887714176391,0.007149235387360316,0.007267195360479376,0.011664361380573751,-0.00741275722468187,-0.009014024289951572,0.002726727804172746,0.0028265046922594556,0.004976372291004196,0.007745508244452528,0.008895268667751366,-0.005911969156976964,0.008705438467516211,-0.012336193555155547,0.0015619598744901074,-0.041602260926625764,-0.04028143921546705,-0.038701647050152284,-0.017306619483140273,-0.018163080039864544,0.008074697188370774,0.011678104568558353,0.018891837217332574,-0.011785705496538892,0.027301706207137462,0.03742004696694648,0.01160816974275071,0.002288949341696733,0.02887789105290382,0.02528363546234601,0.027805955219263177,0.005491582401176008,0.005840475688075102,-0.015171372290076849,0.0020197582149507507,0.011813593005423896,-0.0015257856725596438,-0.005769719277915517,-0.0011803356251291965,-0.006315419840684422,-0.011800404886785373,-0.021454706426650597,-0.048115678788309475,-0.02512834920732721,-0.01964610092561563,-0.013049783593152422,0.016186675176229286,0.01582763338170064,0.02955267598077979,0.02707628237835914,0.009823729310494687,0.011603997428288593,0.06578665675442832,0.06715394747807903,0.021566479221002143,-0.02914308261000436,-0.015217466322800133,-0.011270667761776916,0.01132678937852046,0.030223288762039037,0.009033283098538198,0.012684536134268605,0.003685869002494446,0.0039030612222144996,-0.0006475925130460554,0.002982811128244775,-0.01790994984250553,-0.02355333408691691,-0.027081681531996422,-0.03684693436485383,-0.06222223190846223,-0.025494873487478066,-0.01381647897089284,-0.022249914180662425,0.026176160120818182,0.02992736165155788,-0.008827538213339634,0.004621945061616783,0.0030532389854944805,0.02913083211193034,0.015312459086231696,-0.003901243339816402,-0.01830396975256004,0.014242913768088068,-0.03388765973606847,-0.03548341911082798,-0.02195918152876522,0.0034928011381988684,-0.008719003972251841,0.01574832293932898,-0.0012105585534519308,-0.010021807032294345,-0.012072948056060389,0.018035075666976097,-0.009165893231674858,-0.023849655018717792,-0.037487873431287504,-0.06238881973418205,-0.0860260382291419,-0.03433310181226555,0.023083430942816948,0.027927758730239654,0.033010450499822895,0.0494318792233956,-0.02789257386630795,-0.008090765206728833,0.030771614255070967,-0.01025704006282026,-0.0035854036822341334,-0.03655684293470876,-0.04867652836932054,0.0021941048540221925,-0.010435803275140976,-0.030852612750763734,-0.01893125450231854,-0.0016941854874366789,0.013965331566855234,-0.008166811640100847,-0.03302216331261884,0.0037158842568350745,0.011525976162952511,0.005140472457536526,-0.005383116454336176,-0.021274912855617393,-0.04676288809080447,-0.025181297029844164,-0.04460807496784259,0.005053082699127861,0.02857180014014172,0.007119906490178031,0.036645814740023396,-0.017296682618404963,-0.049911105743403274,-0.016939920182632465,0.0033028563549051247,-0.019115727983040322,-0.059958061195796844,-0.04181608551099256,-0.03539135240450331,-0.018565114622869663,0.029448716985739327,-0.00813860021809699,0.017511399355034565,0.01892680340116558,0.03575037751994284,0.009033811838218851,0.000654611864851507,0.006742507031437093,-0.006573076024906894,0.007683590226924625,-0.009913005887164717,-0.027606096096474003,-0.0559127059113267,-0.059540123038555354,-0.06162961531760232,0.004707914080734337,0.014011646742524933,-0.009693995860032275,0.001736652877437632,-0.02208941375416656,-0.07409528688887004,-0.03228078948200958,-0.00031629699462074984,-0.04193760953585321,-0.06968840763991144,-0.041385254009472176,-0.04362811524810467,-0.025722059598907623,0.026606310162582667,-0.010588231106795439,0.004648642576422711,0.01919286883346142,0.013873563631651145,0.004503540912733114,0.014391983281371142,0.020075066216488132,0.00040145408195436217,-0.009184326420225935,-0.014555930814619499,-0.03381646927671622,-0.04874730064092384,-0.0714159052184226,-0.04378289757038787,0.026269627421663506,0.050244849986008595,-0.013802522796824564,-0.002799834815138818,-0.003381359822644582,-0.023196213475532877,0.023987513500561282,0.018395679593864844,-0.024546348196406925,-0.026744569123298943,-0.03238904613065947,-0.016700835560728475,-0.003569846533132178,0.0013350565740489582,-0.008710973466108196,-0.01943668956296178,0.01133251724120624,0.014171349959550727,-0.010206981635969347,-0.012706049737563528,0.00021931511266206708,-0.01749123858774844,-0.0006435006527073168,0.011455201460977744,-0.016653984731481428,-0.03673801261092152,-0.07803921031486118,-0.012194441516182085,0.024014977345047872,0.03701777288510584,0.04875666373024519,0.03311229871744597,0.05685721671641748,0.03291005957232747,0.047442427665458954,0.056420218178055405,0.031767433621311264,0.0022813656838834994,0.040091818497972574,0.014619370504954139,0.018120323554409103,-0.005541049592853318,-0.02542791838936958,-0.011097110295083106,0.009361888086473247,0.010821540780289593,0.00222398380174656,0.015626952553049172,-0.0016337872701020378,0.014563502316787807,-0.030454746576742044,0.001194645719394708,-0.013151803777457607,-0.046549651312283925,-0.06238423182691656,-0.016136622842500142,0.02794554882279293,0.05198738459636235,0.008428293706500938,0.06865975789751289,0.022036073822742412,0.02264584402279878,0.045962406286868894,0.08725963751096798,-0.0010607635315613517,-0.009335455835653544,-0.00507281117513465,0.02027598286902327,0.006778013275442087,-0.017293377866186795,-0.03173353342171918,-0.010794715876064962,-0.02334765344127605,0.0013633193038979545,-0.004388391908053909,-0.0011638053299762895,-0.0064991091712890475,-0.003193161977107729,-0.009135411574783737,-0.00698688834790444,-0.004031794102010467,-0.005286053927406367,-0.05059938344974442,-0.03141070356845971,-0.01747992566302638,0.051460480832534204,0.041038896397710904,0.03781081694173631,0.038848909680126595,0.008270027316080982,0.04266239566216799,0.04736663450324159,0.007225806298064896,-0.02187489111520177,-0.031494162799620126,-0.0066082800481505844,0.015355806437236844,0.00534136884235507,-0.02571365471518614,-0.022558530382525116,-0.01754786995176267,-0.029173026963085075,-0.008333326341062241,0.008042978086914884,0.007381555964205001,0.001715770925269992,-0.005474108339534159,0.0033297426427780553,0.00149194847153546,-0.01456930797314696,-0.03787546177467114,-0.03786381607101921,-0.02902287599757357,-0.0008512302740790383,0.03047239588465951,0.032883831637828376,0.0007540078197942844,-0.002583689411692883,0.0164018591066845,-0.01084069227185287,0.020206549807093407,0.00012926175167657318,0.005138817013681071,-0.0040269609518598605,0.03266530654444641,-0.003331590578857549,-0.03040780082635277,-0.059297477628833195,-0.034498625912470375,-0.013448711719938293,0.0023013240885940856,0.016184952619361204,-0.011934827989080295,0.0017786354701253614,0.010656739148122818,-0.00018236827153035774,-0.016268853594501097,-0.01975604769010247,0.0006080792539440353,-0.008222281527433255,-0.005569465770076779,-0.01312132160555586,-0.0071072467757674835,-0.00239900452133133,-0.03474953822492111,-0.026105751265725403,-0.008480733659063445,-0.028807030067571463,0.006410207421848965,0.03891616115418219,0.008519586758084143,0.006168140641798487,0.0160182604207688,0.017783319819997433,-0.02651918765582391,-0.019618272600110405,-0.022279632820105325,0.004413438200756337,-0.017144518007181735,-0.013066572908153922,0.0006483120714480525,0.0015926393152015247,-0.017444003239068962,0.0029337357194146835,-0.012316720921115257,-0.0145991010024119,0.011734165670674541,0.010617823655160808,0.022908198213507577,-0.004641707526423369,-0.013552918782055494,0.012512267272521907,-0.00045279234056847553,-0.030312067905929257,-0.02612611326181999,0.0018295634638958837,0.014201505168712342,-0.01435492743560759,0.03421514886164635,-0.010783100394281882,0.01993392394237048,-0.03307342145056635,-0.027596438150151077,-0.038654515909673795,-0.01192984299472906,0.006641663402161948,-0.011086393658646197,-0.00879258588336672,0.0028627289602569674,0.0003735856303138546,-0.0002283824129094622,-0.0024259485797971307,0.007088162302733704,-0.008060870622524991,0.06337530838348089,0.0354851588522708,0.0133325681888911,0.01456031508709322,-0.00014294316919758008,-0.02826598524903293,-0.04467930314148575,-0.02395655052671646,0.013972236651433234,0.061459039875704634,0.013332518893559141,0.025975835800431456,0.03501980338194675,-0.01713406306227326,0.010840369905561444,-0.05064656678243196,-0.009443013004229315,0.009597608736893441,0.015025108276318769,-0.02024334878522419,-0.007929439969030654,-0.0042389058190756765,0.008961680879319017,0.0036481009806163542,-0.003415398959708604,-0.01680003120377006,-0.007985933764782804,-0.0009255967155387455,0.009865095251688225,0.028860069916017868,0.02380854776726477,0.03050901551093371,-0.005460637830134377,-0.04779454868194435,-0.02276954183539317,0.009219775633985683,0.07969273075133232,0.006761547781638852,-0.0050771336421700335,0.0754035950851081,0.0327695897216758,-0.000389927221539594,-0.03146972388012953,-0.05070803393766028,-0.02687024946573836,0.0001547504584151479,0.0038421492821242623,-0.007794200531514344,0.0013440486909221227,0.0034266757263279038,-0.019736026447935012,-0.018869751196542443,-0.015216358886229865,-0.02634357146410875,0.009408459163176284,-0.04571834068835296,0.010369399061674348,-0.0030943904848116034,0.0652952456225042,0.05068796905385609,0.026259439122728954,-0.017314839359366063,0.006357392943402708,0.029109362886204887,0.026822274025676923,0.019635238273023534,0.05159847037267875,0.04808767501932782,0.04843524958546764,0.012676302937974402,-0.027597071532849116,-0.03703737981728107,-0.027002931444875672,-0.016549294089529643,0.009486082381451865,-0.006406017512370051,-0.001714250509824414,0.0027828844493769937,-0.022606525026048287,-0.0005735536702461893,0.005274165578737139,-0.00040603361136429337,0.0228658345202465,0.014472588356551838,0.043986781152638696,-0.013553808868221193,0.0017751926556240718,-0.0018845505879575423,-0.014314755400809911,-0.08279517485929735,-0.02395467140777975,0.005905154159186322,0.04669404056293041,0.061076650766776194,0.0447663066911143,0.03312278120187,0.00899949078006235,0.00013698208230096846,-0.029799958569932762,-0.007063748495969083,-0.008474505291081251,-0.026103619765389087,-0.005279092885973966,-0.005483396099033285,-0.00872250383587187,0.00518709763310987,-0.014782899650780744,-0.008378838566540392,0.0018239110367258367,-0.0148558710446167,0.011074430725087257,0.011976781885872423,-0.008727198574546973,-0.002709916560822028,-0.023100480297452264,-0.04073766468538092,-0.07478443780805132,-0.05805022758963624,-0.0018872847281642432,0.016428876971052605,0.06591291270759633,0.040615297084030506,0.046934057376929066,0.035811062405519956,-0.012263756608663254,-0.03012032017617981,-0.007229616820297957,-0.0017486648020371184,-0.023944921701126165,0.0057965866222120885,-0.008321719561075523,-0.009108884342979219,-0.007268579460051812,-0.016205863239765823,-0.0013145671736152509,0.0018944491594360066,-0.00021331389257721076,-0.021512125367871997,-0.006909719701294359,-0.0037707838141532966,-0.024689780192249263,-0.03617678061195343,-0.05590622056815874,-0.03782468395702731,-0.04005043354428877,-0.0517721429956448,-0.0048832985761352995,-0.006154358876976502,0.06690243718233997,-0.01262128241742159,0.051497314219869146,0.035723047668039215,0.005572701825714277,-0.024207716563344747,-0.012360744337716952,-0.024819121299063458,-0.020466335693370585,-0.023734791723850415,0.0033737797550194644,-0.00333480925497875,-0.003621513514271098,0.010598002150195185,0.013811552886615753,0.0034515166050627035,0.008206722885512156,0.004010863633070156,0.006715982373957131,-0.0001224759515176154,-0.015310541759456007,-0.032307050076313,-0.06680127506658672,-0.05085697739278648,-0.0773689303597463,-0.07225587061384017,0.032918580710644116,0.007861596950928671,0.03447216486239241,0.024902189608710483,0.018639073874759632,0.01292533891228735,-0.008318393406802592,0.005920089525810445,-0.017464950815227222,-0.017232041155724617,-0.015311123985317879,-0.0018175135266935705,0.010880475715937447,0.0005112591455029887,0.006349372113533801,0.01265516655979874,-0.009814644344254728,0.007224172367599458,0.0019048367730624004,-0.006324851391738114,-0.0020380106760184,-0.014842848212462964,-0.018883029618162312,-0.02737016249760422,-0.015154506315256736,-0.014910263388312396,-0.025238815920070386,0.0003530198389178641,0.039869852137331484,0.026687353800152233,-0.01198615429977669,0.015163767143951103,0.03936796205074977,-0.011019498370665896,-0.006062251091620503,-0.022530349731428107,-0.01258923779337863,-0.025341080430575848,0.015317434143934943,-0.012475068105272269,-0.008897344707449847,-0.004819593230382043,-0.011575122299684373,-0.005950763940546689,0.011191893339883175,-0.007460916759581935,0.005842403217082351,-0.004942538808034092,0.005538485568811329,-0.017138717780994326,-0.010216135665731351,-0.006749526088320653,-0.024547898680287904,-0.009903642174518711,-0.017974293763702517,0.03041250577965614,0.001206046904534757,0.018856920704306942,0.019014806382065434,0.014246195710660813,0.008180595445215303,0.010219882263994683,0.005292852312527804,-0.016089735438058063,0.0175750349647994,-0.008683193576582615,0.01293733715981884,-0.011107245448390285,0.0011603084706472663,-0.0008076657956589473,0.005586974668380463,0.0023061853739273948,-0.002170647265257315,-0.006695154146193138,-0.019581897015675684,0.004539160883466668,-0.0003230450355782011,0.024034866030401062,0.00913789431361309,-0.0009659273131943066,-0.0070000052326523905,0.02383432477234747,0.01495168274442966,0.008991124320104498,0.006180007440436129,-0.0018995261611838203,0.02321714137116235,-0.00615265877218232,-0.0053976706412758035,0.01867448658008377,0.004337262227194333,-0.0008639698990767481,-0.0133202240121775,0.01168424077869636,-0.00414216140458154,-0.011800107088490485,0.006677524570599317,-0.0038923882601019557,-0.008028757428554432,-0.01718528832001175,-0.0027019458456823253,-0.001457449940837579,-0.006943377522608523,0.005350362989016886,0.005591785662390724,-0.0020754026045618572,0.001159192900512843,-0.0011038090147835282,0.013498315219220519,0.013660969566331829,-0.015055767898632406,-0.002955938491803275,0.005483096004993138,-0.02191075947992648,-0.003658267229865572,-0.025270899959618284,0.000503291471021132,0.015880964383206176,-0.0069296184272637385,-0.0021278342831581296,0.0011134089405008339,-0.012394211917362674,0.01349457561069677,0.0016536386241611254,0.0005832787716470341,-0.00007423215999220509,-0.004092259891953148,0.004538585853299799],[0.009253962054084158,-0.014565935840324376,-0.004173104894982631,0.00046904357353231175,0.00568274745240787,0.016669923200168645,-0.0032363222739542957,0.015972697608420138,0.0030771623921590796,0.005632748752800607,-0.0020950550453327837,-0.0014118612081304414,-0.017095960302548972,0.002461674445055428,-0.00094063001959823,0.021746155762222413,0.004525469530076085,0.004906061465486692,-0.003095027412804886,-0.000824952005732907,-0.0009886264974124457,-0.007363496640077567,0.0020138461179058636,0.002368404502149276,0.0033972380053864416,0.012336194116021144,-0.0035477554680630585,-0.008071629958192689,-0.0015290264268448953,0.005343329434207551,-0.008575568649427328,-0.004842707151650478,0.024578065672715258,0.010927904791986793,0.0039035975321650928,0.01475566368800088,0.005672273423782932,0.004760322049767003,-0.009136650227508526,0.010422262697473025,-0.00409039986997362,0.003908671201236967,0.011587855093653763,-0.008208448059532879,-0.006489006816675382,-0.017134635796152434,0.011654688982360757,0.019544754595238245,-0.006289187999346586,-0.010189379371599796,-0.013432687080402368,0.002249032924864387,0.010240139901139518,0.008449701568139255,0.006775152756723698,-0.005770275070121213,0.002376817022358874,0.0009698095656923668,-0.008649107005965922,0.002731627102361453,-0.013601579075434973,-0.008915961430443304,0.006367901043503779,0.0023864311924462448,-0.007600702633289322,0.000668335190292184,0.005053503056751032,0.010516785299734847,-0.003779176670313441,-0.002991123501830857,0.01456122977423008,0.033788724774423254,0.01749178720338214,0.0033238812017354455,0.007682008623213479,-0.008244594450607535,0.004709779533895045,-0.005356518888480643,0.010481027520690711,0.0020066106472813945,0.003842929908715632,-0.0060377716785149395,0.0063947925266524056,0.003625273340548195,0.013570220206312957,-0.0044065392922588535,0.0014693184831232145,0.024771660134515816,0.004407695269233612,0.007301522984963348,0.004198034346215869,0.012477931296400091,-0.017252244027030083,0.0037463325286230392,0.01792567200325123,-0.00016469349228163838,0.0038799917116448058,0.027687729842858052,0.005603399747370268,0.004768009443993393,0.014214699916120267,-0.014556125286150742,-0.020851389319050114,0.0020985701388966465,-0.01411694344660161,0.0008912478857992253,0.003738590824241261,0.002983744424507269,-0.0024429075795333144,0.015945284177830626,-0.026760917123890254,-0.007312284762417057,-0.006326919244624998,-0.004125132583649302,-0.006232087033833951,0.012869234030744551,-0.0068544887663277545,0.007900722151657746,0.028178517697022672,0.013365912359607537,0.02450104828616723,0.024033521609365754,0.04507474138418007,0.04470859183578366,0.04107143018973835,0.04564013143326063,0.0009557963655129352,-0.030561555943864352,-0.006161800821330764,0.006399773584515443,0.0073078106203575514,0.01788243109932694,0.012491101920451275,-0.023626274414252135,-0.015229208715131537,-0.005032820908824691,0.0020536615816838595,-0.005007844517362862,-0.010767267359614547,-0.0018250562790175318,-0.014610441434438752,0.004201126132830062,-0.0036433975569023034,-0.003271230489958836,-0.0005360380937614226,0.017033498586529038,0.024343589474215107,0.029440931795022475,0.026660276423054276,0.007893410694862595,0.0002571177388039503,-0.028640834743602694,0.020931519992121464,0.034449499942929285,0.018916652395005614,0.02829922768634086,0.0063416853185768,-0.04285368370359813,-0.029394361942495655,-0.040234939479700235,-0.047754037856496276,-0.024323137810710833,-0.009017816618183645,0.013010549321090838,-0.0017781266219224856,-0.0175192406168556,-0.009386607316525776,0.006633739253023225,-0.0017495799673395882,-0.016723394573648298,0.011582241648371077,0.0035012766066744865,0.022593357973343504,0.035196392840743065,0.03004051359011806,0.05104929920094523,-0.0185568884590017,-0.018342711274591854,-0.0555698861814672,-0.02822088534897877,-0.008242863136101305,0.02231585341380199,0.013818638755103271,-0.0016238644947455412,-0.02113452521282038,-0.032620162158941084,-0.03258757185252647,-0.03439535180646519,-0.036825094097288014,-0.025465624016410976,-0.0006588452379762349,-0.010934879450864554,-0.006074748063208535,-0.015682817750114722,-0.01435145947982294,0.004336743916746183,0.00010396570154234053,0.008782228165056832,-0.005952378063407528,0.01254765735732998,0.001357011816545164,0.0038402214531148447,0.007070117696621375,0.0022351734781647014,-0.03989788174298428,-0.08061647343759545,-0.07522832218038314,-0.01236187931180882,-0.011486465044602467,-0.004913733315121282,0.0351635266604122,-0.008853877397855519,0.00996093362060176,-0.023212885786720663,-0.01947708913931405,-0.012119586219763487,0.0033491722528645866,-0.006284521415451241,0.019194525124781963,-0.007523012556867324,-0.017756423024521597,-0.011769537104227897,0.013106216831049556,-0.019127768080751156,0.0007936766621902683,0.0005236275508927791,0.02369208626422722,-0.02670435447197635,0.017618133387598857,-0.021949582517898362,-0.042524390124065,-0.04584891305654737,-0.0768910950011852,-0.08842836667113832,-0.04324834192313129,-0.03313591872780898,-0.038873513546724324,0.008932385345225983,0.02687200656491031,0.02267835971088422,-0.01063999866859174,0.014849860258489363,-0.0017964079710085044,-0.010873190469332605,0.018855188627430252,0.003798328494222258,-0.007964262502646247,-0.007724707348240808,-0.027043347492330404,-0.009568136580649683,0.01375082222472863,0.015386018109563526,0.005589453828619195,0.014070718351510641,0.008102045309103523,-0.0006346928918313615,0.010372218843661738,-0.03792313000281621,-0.041019995101510075,-0.04342123033263748,-0.08769127990836333,-0.05194504088603297,-0.040001684823447396,-0.05807685429712361,-0.03787678986244131,0.007676671066898164,0.009025617278607312,0.04603481170971244,-0.014975009810873926,-0.013310128620146256,0.0284564339903883,-0.019725011144598157,-0.02312552289670191,0.0033480242708781613,-0.0015050576349490742,-0.05039810928127532,-0.022347096776398224,-0.03217583973838185,-0.013902800476009995,-0.006044126462124805,-0.011670400861779411,0.008716527314483332,0.006042830241506398,-0.012300465041093724,-0.0350391238701039,-0.052253256434299275,-0.05985378312953151,-0.03958097678358604,-0.04408723507689908,-0.05095530191966127,-0.013503220333659596,-0.006991614658374801,0.013126873225060374,-0.01324679936401138,-0.024429954284675138,-0.004390109365138059,-0.02911107803843828,-0.036068019604144276,0.015322695381277167,-0.005555467186395879,-0.020399300468986026,-0.004758065899777935,-0.055348883870809856,-0.046151077468009526,-0.018901972350308695,-0.023087471927033722,-0.019074155236396342,-0.0009660544762631692,-0.022934617552968693,0.0033233529946275543,-0.015622097669024325,-0.04036327135526329,-0.06007949672232611,-0.05651324258797433,-0.04318470700572253,-0.03442942318056348,-0.010183382026157857,-0.0025403036027444865,0.0015987416370042183,-0.04638048557666769,-0.03621014598817287,-0.003986650855689339,0.0009020640281296504,-0.00321125449429695,0.01039332104538174,-0.03598208222079344,0.003984939928794587,0.04239374361100025,-0.013805793657479505,-0.060175377887964905,-0.06355393130125073,-0.053166101692054095,-0.06608430608615241,-0.03178127931464913,-0.006491532796652663,0.003164328058249312,0.012828898528945453,-0.000095891307461098,-0.004658065670267049,-0.004361930454887539,-0.03886455920062596,-0.02814395399181346,-0.026515016561113887,0.006075408505691025,0.01960250074656469,0.021326978012062434,0.0573653412959024,-0.013732059796944179,0.017373192725874884,0.034337358790610666,0.03723168549751367,-0.00001675567079669325,0.01926202503743975,-0.06163400422128295,-0.02128734100790866,-0.023089178813720666,-0.025814816690841992,-0.049656751212013774,-0.07003758079524794,-0.06638964560197673,-0.03967980602469884,0.0044852424775758655,-0.0072035821791185724,-0.006140448647992428,0.01047294670589759,0.0006574024902716529,-0.0067185417277156574,-0.010045127269121398,-0.008277904693879158,-0.0031287744718083844,0.01641872281064926,0.018098825636883437,0.0314526335727437,0.06929659187770992,0.07294129341288055,0.011001056132542363,0.06400310803264343,0.015896664526557046,0.02612004635826381,0.021538920481589213,0.00044297597297274384,-0.029263677174232797,-0.06843582064037944,-0.05511724994395074,-0.012945580887288073,-0.034877736122360586,-0.03508201604256916,-0.07072757137045922,-0.008506359087496196,0.021575756304753994,0.004926997834523297,-0.0021089162112892757,0.0101885850728697,0.0056732584065756625,-0.008388183370912844,-0.0007278633652813471,0.01862943950526458,0.0323994903104278,0.05427017331922551,0.07937821731546357,0.06401591067654977,0.13547202429979502,0.06669473259346528,0.03777739428582194,0.018253913545877177,0.025112793693177936,0.11224887538940415,0.05921617918736976,0.06540846159400379,0.0029184674055401454,-0.0337020059942843,0.005043798851117969,-0.012399589870090181,-0.023251297936336898,-0.004548121724863645,0.008440145898303657,0.02177371556023855,0.025140320402830072,0.020441084520786173,-0.011766203418420019,-0.004044220748107207,0.008405312631215411,-0.005090090159417425,0.036854883386606904,0.04630186407483793,0.050903777657961516,0.06202225258152023,0.08341247974276805,0.0796385083500628,0.12263651163503723,0.05997375984741316,0.054952050336420796,0.039300998626428454,0.08168259404035381,0.10419420662993058,0.06764561360270427,0.05550554617444057,-0.012260428282551897,0.0009679689415772008,0.0023269145772178194,-0.04265688170188557,-0.006787699417689549,0.03564239717605192,0.01679155448064779,0.004580288465346541,0.013041893748947405,0.036249892777663946,0.016607594557368686,-0.0112328237265255,-0.006660161022995541,0.010139819285195953,0.03583777122654048,0.039623899653815596,0.05627652024981819,0.07698416630205084,0.08299102152844967,0.06524725577997596,0.06101624174529869,0.015929478125149697,0.02993782356241843,0.02726272939426068,0.05835116412722534,0.06867440104966846,0.03149834580378991,0.03286225098358598,-0.007598288207551018,0.0031357853322327976,0.02556943337993703,0.00517561778614512,0.04096173755906599,0.013567027553538788,0.03391000490033955,0.021573498842381713,0.04395801155742097,0.004752827648625772,0.010697018736015858,-0.0003274919880274876,-0.00866890595286687,0.015433064866013995,0.01242384312968361,0.03474863164998479,0.026993253510417984,0.04145997726052514,0.014509311970842756,0.011816939853005469,0.005628817260192811,-0.008546958101301195,0.00812674089122367,0.011649867300141146,0.0008942071217113184,0.039074828091141045,0.04391703535819251,0.009599688288948879,-0.023409251187626105,0.0311379606081476,0.02295957405929688,0.006812983922357952,0.0303823197828244,0.00761531253109493,0.0011868203903961762,-0.002113231509515068,0.008811036247814272,-0.004579678821515653,0.006142393921480291,0.004209178643523777,0.005106794859945827,0.004297267576453277,0.024021607467620196,0.01193168639897885,0.0083947224315181,0.027912816849604928,-0.010177039900034919,0.005199705169556629,0.024147897401022283,-0.02038562794511872,-0.0330001047290527,-0.02831384206760345,-0.007509424306994214,-0.01196468746888434,0.0034970247418013535,-0.0025391174824191233,-0.01103945841980219,0.059809219139738475,0.04882923958930453,0.05375209173515904,0.0618298502363731,0.029628061623791627,0.007285073515423054,0.034920650558866236,0.015758194418623174,-0.003626775742380509,0.009328249165669706,-0.016670248757160434,-0.015554237679471075,-0.015359362766041796,0.013311053654026963,-0.023374998293205745,-0.017585227145384193,0.02811654320562335,0.010815893428755963,-0.035614248909666905,0.023949312586598968,-0.0099226044790043,-0.02121171888501076,-0.09227161641523177,-0.051247022904521614,-0.0319327759027817,-0.0051653746730514665,0.03512959911369517,0.029591662310886217,0.07477312413799875,0.03659193168941806,0.0494241590959734,0.04060070242641719,0.026348980573064614,0.027013115339328122,0.00976755338589182,0.005219276322420571,-0.004116172543362516,0.004994392904107215,0.015536409435656462,-0.009471248520625976,0.01866601832500692,0.00943342476584839,-0.022120474592802523,-0.033692472601336246,0.00970302429539705,-0.008969304672329712,-0.05036311029677876,0.002402241783831855,-0.04657828677042914,-0.05364223813543374,-0.06574972993796677,-0.09793890374578394,-0.06666624213422491,-0.019687133718199315,0.029042399649080567,0.05651826068995927,0.08812212524416531,0.026657604767999554,0.027592052429728335,0.019024063580367692,0.015080190975826609,-0.006650031125901565,0.0028061488009184206,0.02403009625093976,0.022681886091703206,-0.006273223852550605,0.002010125186339409,-0.0032020718942997886,0.011344514586364308,0.013022999659670097,0.011358031230149645,-0.016504894176553847,-0.01911262802728176,-0.052504577139790946,-0.04646747709126158,-0.022023615376340316,-0.013874136065790542,-0.041445892163766554,0.02078799272133463,-0.04331635746082991,-0.04580985757860583,-0.05329473741017629,-0.017235437557006652,-0.013125959768925421,0.009349692200044305,0.009917789892795474,0.025315596353560885,0.022869194890048922,0.00878361555215217,0.018299892173545766,0.0025428171401821855,0.008656640627429013,0.002863245791948106,0.0011876580139044642,0.0023664875945185277,-0.005452678354719929,-0.002280967121947937,0.026387316056483288,0.010285993562025407,-0.019109621570486644,-0.03676701380236424,-0.03393559691758816,-0.05293799671339639,-0.0470837347583378,0.038794293329936176,0.011317551095908252,0.01098787122736641,0.01931515167578287,-0.040081599468641475,-0.04250000146824331,-0.029138173655112527,-0.025089389290132387,0.00479365068566067,0.006845608822803077,0.04263218001738983,0.03634422092043448,-0.023844921273951703,-0.006659465312131206,0.0021887520117294945,-0.025993275400877237,0.011183750746814873,-0.0023990685151170396,0.0033633370172045708,0.015157969071643785,0.004126785397784309,-0.008013650946639495,-0.00392936204243392,0.010749847280231884,-0.009646373224750792,-0.03341444607173974,-0.014119366022915369,-0.0254978957383582,-0.012473320604263233,-0.005721263101490496,0.02675516923576534,-0.035404884227970404,-0.03921884439222133,-0.05357562411631158,-0.0687256999785541,-0.06381059886049585,-0.015471982191331779,0.004537326496603434,0.017638040827689834,0.011791568463683443,-0.013157931328343085,0.0008536050216494228,-0.017687690742715614,0.0019186912479841754,-0.023741914405622015,0.03068984306923256,0.001132013572181016,-0.019937869884692098,0.0002542620225058453,-0.004349025597760887,-0.012501906275297793,-0.029010852244846317,-0.01621646657625455,-0.017428810030319698,-0.03026468292919325,-0.01447610316482818,-0.011429167250979646,-0.01215540161265793,-0.0351824770238001,-0.04860627729423455,-0.06354603687158983,-0.03645599716446435,-0.029699780155425258,-0.045135038518668937,-0.027831542023948157,-0.007443504147646247,-0.012056710377672954,0.003320085047440319,0.021374587336141275,-0.0035248576199550276,-0.009381633419603148,0.00961463796761892,-0.001841741310170873,-0.0010834607025107749,-0.028881511939604986,-0.008994345203377992,0.008114940211575309,0.001793429953745922,0.010131297920863501,-0.000017250686311425994,-0.01549764982262898,-0.010113263097126098,-0.0009574648867851345,-0.026742276479734924,-0.01750281437289649,-0.009700823696500271,-0.004982396650097383,0.02201436714767826,0.008035434494901647,0.0020919742937883516,-0.023112760334651178,-0.053149195753964824,-0.03494274462912458,-0.018593926348013982,-0.02127703280939273,-0.011304022880616374,-0.0033542898440105696,-0.015319309924806339,0.00025567670036639664,0.0039274056998497685,0.006677341206819378,-0.012717452505586946,0.0028478486480705578,0.011883708829370345,-0.008521255962491776,0.010127427803658832,0.01717127975574613,-0.0014822931122665465,0.0006052276131227732,-0.00011360569461658106,-0.010308037806379362,-0.00973799295524407,-0.017236895159090094,0.011675869359691287,0.01660710163768219,-0.004278264332312998,-0.003881997321237162,-0.0015794147676360907,0.0011324043000585523,-0.01012393453083972,-0.015858502868507686,-0.019409662224273382,0.01093501317721524,-0.002100640240959592,0.0023817361489706906,-0.006295966104573241,0.00956148255550254,0.0005596067018905426,0.009789557433108336,0.0056049999648119095,-0.00319375342368423,0.005999554485380417,0.0061237737148070945,-0.012423570221910958,-0.0005574793193069424,0.011032494116634503,-0.0074124610502443785,-0.016834294021854705,-0.0038266100502928153,-0.007677495944242021,-0.0042811509748534905,0.0010695204980726448,-0.010283767449017486,-0.0012806600704350119,0.008435786666499093,-0.006167554520349949,-0.028856238688563816,-0.00801365573082791,-0.005402488344748713,0.009825693769927781,-0.004265102136244895,0.01435463891915688,-0.02264374610511781,0.010718678514863238,0.013867046625476756,0.0014961994169751165,0.004055788336617472,0.02731418170858806],[-0.00047439848566224805,-0.018988262524513928,-0.007997821840710377,0.00871306553216138,-0.004266691728208795,-0.015938605471930302,0.015296605659933089,-0.004194005136494685,0.006039102130257915,-0.000059028001774929777,-0.002629389254330862,0.00630879301967124,-0.003116430618574781,-0.006542874184928949,-0.013692949034525758,-0.008352459388560551,0.006265706767864694,0.007079170884347987,-0.004703552619899233,-0.0002201304831836619,0.007225009396344201,-0.00339262045126862,-0.026490343398861704,-0.003057899759035847,0.0019671248159030385,0.002641234679159474,-0.010595171179192243,-0.011658127102706736,-0.004629432079842731,-0.008177244646925288,0.02010734323604,0.01794800513711097,-0.004263856366283558,-0.004628184351967338,0.0027478562198592653,-0.01429021277476545,-0.014301594149182847,0.004919251157327244,-0.017005806550053966,-0.001025622020963988,-0.00834270012777199,0.008712931264275792,-0.0042358453091818436,0.003032325049278519,-0.0107981935748988,-0.008610404687602762,-0.005205039282983822,0.012190314997864877,0.005769655027634087,-0.0007487213765366671,0.01342949237136955,-0.022427447962765027,-0.0004918198673701154,0.008667556285276016,0.0013824929695315426,-0.007853244211932557,0.009023937574954908,-0.01661437920227083,-0.008981832420065996,0.011240183807631383,-0.009291157225209064,0.004640975625653607,0.006313661175919918,0.001337490591884984,-0.008019112452262476,-0.013435415417735264,0.00822472683185318,0.004925836489803665,0.020637360679445785,0.030241419796301593,0.029304019287012754,0.015743742054260206,0.011502715604432154,-0.0029788600103672408,-0.00045007040719111037,0.011615178031696507,-0.008481131109148126,0.010473208363258482,0.025093277425837272,-0.002283977723708027,-0.004776091764666305,-0.012538893194554153,-0.018556304845443624,-0.010347738488695525,0.011042365465893197,0.012367946187685226,-0.005125544247517851,-0.005790035954709782,-0.0014100757229034914,-0.012828249577614817,-0.01123672859293465,0.01647950124195094,-0.002378327817114308,0.0034141068800036265,0.006306613161468693,0.011396213788357772,-0.004450257336040189,0.021411318897898175,0.00468022855414052,0.03214211449805111,0.04389824190641984,0.006382460019311225,-0.004764050253691145,-0.008677380308120207,-0.02777210029767427,-0.02363458463672977,-0.016168196959755514,0.006464503173379381,-0.0013118590352368443,-0.016715446176004185,0.007120019292363015,-0.00034438265328408,-0.005547023598495024,-0.0058005155882592556,0.016909943662954403,-0.0020469318388788653,0.0027306503083582255,0.021437233569539662,0.005096026712259121,0.011771258350326712,0.04161670494835107,0.028949333760236836,0.021139638712619264,-0.0230895059039612,-0.017323134408680347,0.00018504663538684147,-0.02553154809640455,-0.03036793242571925,0.014650858831123444,-0.02860333934661091,-0.018381364661054226,-0.02547673640150148,-0.07375541927610602,-0.034006222863463546,-0.029857507845641004,-0.05480944978938898,-0.04381693620813085,-0.015397253948694643,-0.01051597821188044,0.004239696488519288,0.00800081333716628,0.005252079011917393,-0.0006514329720395136,-0.004982741775731,0.01464052039760856,-0.00953250839137713,0.009142609088287299,0.048088710035330676,0.05321821117409714,0.006602377968797182,0.017666724170563815,-0.004600838677784357,0.012505200072856899,0.006704974573653501,-0.0022742849012021347,0.016634432194274244,0.016108082875319982,-0.02801317126494447,-0.04869055996244581,-0.05091218138474818,-0.08070523849888675,-0.04495243181336467,-0.019643346493784786,-0.004156750411853894,-0.0015431777625651948,-0.017740129896109746,-0.024516142060517814,-0.002826551270017082,-0.0039229575190560485,0.013239709114107974,-0.0056157347851069584,0.020116591070093236,0.011917906228256971,-0.01781506395896092,-0.0030299380341720465,0.040177357882852795,-0.022238207123486606,-0.03185508638825522,0.009994143699114178,-0.009748010043275027,-0.019438210549068007,-0.0034172447693077766,0.0023413254444671888,0.0607851008380176,0.0406406949823486,0.0024575275023175076,-0.07381536115584682,-0.054847968245618106,-0.06475762752498485,-0.06177265091638091,-0.027187639008883706,0.01760521625000233,-0.013512626887556872,-0.034392913109129064,-0.023125620906471717,0.006118414179184996,-0.013257028706313935,-0.01727274912956806,-0.007893280619516491,-0.00026373527519490974,0.006879083539875947,-0.03678972132821463,-0.020321012087530538,0.04284357791832733,-0.011581908312428823,-0.021622219004439964,-0.02486786960685411,-0.027633963764924524,-0.03932646763173815,-0.02774733108324501,0.09654742224250969,0.11684936136046371,0.01079440408421501,-0.017675068715222637,-0.059441338245064874,-0.06414089855261552,-0.08353023934113299,-0.05379276466199587,-0.03259347495080441,-0.01121599134286222,-0.020936058950715538,-0.007912719465354769,-0.010016196752679542,0.01749440645898514,0.007631469154465533,-0.0067851829992681845,-0.006962216995206809,-0.002270740415402927,-0.006437548835985463,-0.015718522252959936,-0.03752627384347639,0.010703366856060914,-0.03638701689205324,-0.026579014236920693,-0.01613963035568588,-0.048897998124829645,-0.03810208010279628,0.07164933304869574,0.1346382739274372,0.13809443973100688,0.040781096277719336,-0.056625285271297544,-0.08505977774312276,-0.08193361265831302,-0.03727103353055108,-0.03690026549948348,-0.030280695228360983,-0.01833773287500693,-0.006145971358633415,-0.004099674576232482,-0.021368808620477006,0.0014228682414636745,-0.012127187860369574,0.007728000261028009,-0.008566055691245899,-0.0051385861863813284,-0.021217443315986188,0.00603562548725628,-0.0075582128549192855,0.011717655294631016,-0.05054172276972305,-0.04494074111998623,-0.06052987070537628,-0.018151797197867303,0.0075450318757969885,0.09198687684371827,0.1253660553750013,0.07986009703888863,0.009475590883235222,-0.05042313620727629,-0.09710043839071761,-0.10011266871485044,-0.04828876432225552,0.008966146180161358,-0.01818039119060268,0.003130091698539393,-0.017763281813636216,-0.018823244102557216,-0.01334449932304958,0.014048161948048837,0.009740510407607492,-0.01875174619095778,-0.0025957804238548455,0.00605660024153861,-0.015458214501523068,-0.021559308262310912,-0.0016838630822703325,0.02019348753003714,-0.024227759891401152,-0.02511018408473206,0.012373213766072288,0.09654475558622166,0.07555533623133535,0.03481426951680084,0.029113604677678546,-0.03332566182986261,-0.048437456522268545,-0.059527008916974884,-0.12619860794491544,-0.10956322473603784,-0.02499090502242592,0.001191773410184282,0.009700884955311366,-0.000534871054064032,0.005425983032497229,-0.0177156383570184,-0.022335272521872354,0.006466462147559761,0.0008355463535629931,-0.015578361520915707,0.0018128301278578778,-0.009159642181311368,-0.022340870789547516,-0.03125727609336606,0.015754502669406076,0.03231789027006399,-0.0004658878981748084,0.03134234890176201,0.0436009185489985,0.08666265458392443,0.07070432907549837,-0.013774473933927223,-0.030032977870750405,-0.0418070349360401,-0.05317205588397402,-0.04185207368378334,-0.06479725852927508,-0.0505123960015344,0.003630432481445426,0.015530595887582335,-0.022616751150323543,-0.016061548133098527,-0.005948302127585984,-0.004619220529661424,-0.008761260690351805,-0.004039148546413906,-0.0028153700305670183,-0.0021539649883021684,0.002479777125039473,-0.000531730151960813,-0.03601540030123314,0.022992178415312807,0.04065584487602563,0.005387584218273938,-0.013142609763148983,0.03294259825455649,0.08794964916995696,0.07639625535117141,-0.022849937167853256,-0.04353660295230887,-0.008786377764013874,0.00990554953088376,0.011688485632067504,0.027771785513938687,0.03344119432894776,0.0739192678663355,0.07685326752143856,0.04081809979844156,0.004385820195930715,-0.0002561752253986731,0.017658315476144135,0.001591646696230575,-0.0035912204999634027,-0.0027088789923776302,-0.008680616123209717,0.008966567107088156,0.008345099945152087,-0.015777076553336003,-0.005791014823331359,0.004558295707859891,0.043554096243871944,-0.011980132127919688,0.012036729026401322,0.024872258125625366,0.027682810607134144,-0.02001575488585236,-0.11265618246198741,-0.07554596792677212,-0.014137170732613513,0.026129401576488655,0.04923667508627553,0.058721813253123485,0.08773538248373118,0.1382521231209265,0.05507383604632754,0.045957742455648584,0.025426325213204762,0.016517743406283602,0.0062462562042879975,-0.012493016288414927,-0.008559695766072468,0.0005909281336063778,0.006942848316005912,0.005360477324362841,-0.006020062542851557,-0.0018891448060665448,-0.009958756683521208,0.04012094539533619,0.04962407604985616,0.001417625969750757,0.04240664642597457,0.022047265733346925,-0.01870820478338121,-0.07051317358245067,-0.0897644350677984,0.0017098446225314303,0.028426618324118733,0.05551936634832627,0.04157181566499392,-0.010911409753706582,-0.0063809288108114355,0.049138395227181164,0.02388307289446357,0.029805533301552514,0.03591100549911146,0.035669257622095385,0.01465319619062287,0.001500615018578969,0.015314940952722232,-0.008696051694388862,0.002559287035953378,-0.005833417359257177,0.00335129322158354,-0.004031294795103837,0.003416244282111948,-0.0053823721608251595,0.045484070290214944,0.024168323525618127,0.006043526210499537,-0.029476501508089777,-0.03463773054127603,-0.06986089719971644,-0.02034655692841109,0.047125285296062996,0.10818004638472083,0.02472625919317374,0.020470861040101436,-0.04331135024149095,-0.021876471570264063,0.005057237198696299,-0.001170334558126717,-0.009887053817740368,0.021550517115405905,0.022222781696161004,0.018802168190261707,-0.006419639528491882,0.0011484189779847826,0.01249949765513917,0.0006585696447585098,-0.0025724347534877676,-0.00853257237818865,-0.012257469241404566,-0.000327602021923285,0.02732909389816583,0.0821489447752701,0.01999813118248721,-0.04511161181276229,-0.06931842439063209,-0.03625257202751356,-0.020288460835420456,-0.020213917003639222,0.05470326270843462,0.13640404928706526,0.06372153749657523,0.020987724872490218,-0.05655541781628166,0.014551322419799765,-0.014133709224695762,-0.018689260166887833,-0.03118479927773811,-0.0548083142096158,-0.0005946574715652678,0.010318765911575715,0.0029631886129444372,0.010616592972324057,-0.012492831799070752,-0.011778786484872865,0.012254539097565598,-0.002501043832549165,-0.009907814549537645,-0.006308653567364086,-0.013904932638385601,0.0014432802541068422,-0.03630297981563808,-0.05045477476866881,-0.09381016641496376,-0.05349831626058539,-0.02219207325651187,0.03808412676982027,0.12151517142198846,0.11474749684408232,0.03841445411329818,0.00005689569886381143,-0.006967690709981357,-0.023701142647540998,0.020282954759811123,-0.031980338592897485,0.014863371877325695,-0.004546272793652059,0.018075563821614935,0.010776111846211925,-0.0013436947103946143,0.0019917105956496492,0.0006542579270175433,-0.0011391872267281816,0.0027771915928430134,-0.0015059606524005966,0.007411770284211422,-0.011899470859241146,-0.0062195728240947035,-0.04742960581422323,-0.04494706234444928,-0.056188964302888084,-0.07718408869002857,-0.0582309313355888,-0.010603741758202277,0.0945342174117595,0.10226710854942786,0.03796601275308519,0.023406501099477495,-0.018737533612703444,0.008203054893972158,0.04419122218138442,0.04168443281143841,0.005908575743577934,0.028741095292899838,0.015871968695420735,-0.028249880204235592,-0.021187168521000894,-0.01739187317532449,-0.00496091362843301,-0.011400252488351161,-0.017742156986123334,-0.010543881992396635,-0.004249567584583765,-0.00033867346043154684,-0.004487212792526658,-0.030618168797703613,-0.05371336224982366,-0.01581592120101106,-0.03618961666668713,-0.017367592217910163,0.0003203304387317824,0.07579725493772126,0.04029019787280601,0.028754885242433425,0.013347585735255886,-0.015418269030622236,0.039551724882818516,0.04884555494040463,0.04933747179236487,0.0094485713188433,-0.005305379167444899,0.002594974495055681,-0.00928809504546643,-0.015070016630957694,-0.03474677925639985,0.004947449427031882,0.017248764845983998,0.0003041585441831982,0.008434206328433195,0.008453645031798986,-0.010674235432232101,-0.007324450390259749,-0.008924875424676761,-0.03015795641141097,-0.03957223648580642,-0.022710103618922003,-0.08472238160158968,-0.03316003619310382,-0.013999331373380119,0.05134375737624386,0.05134958315135866,-0.021202674016962183,0.04717411160513442,0.028174341900660736,0.07503284568193426,0.03928603053701768,0.06433887932755934,-0.025482654950015546,-0.01902186501485969,-0.02371887042296095,-0.02820438082433543,-0.05847235791945133,-0.019781017921208576,-0.022407848039106427,0.006653604966023309,-0.0025227217220866976,-0.005442071155501526,0.007796715020969482,-0.004813395868534545,0.007725412815523628,-0.01492802449860233,-0.03695220979803275,-0.03251889260621463,-0.04647108425528348,-0.026340056483205147,-0.03129339427199044,-0.038865164772944716,-0.01633823737744958,-0.010654269914699128,-0.019424793903317503,0.05718728506630834,0.021819745823966813,0.014723919881764217,-0.020190103647460243,0.00599802924108505,-0.015115449870280125,-0.0485322115860963,-0.05204744367653334,-0.033792634790226816,-0.03183909324243177,-0.01590344186684992,-0.017984670213892533,0.028989118233678963,0.007017450726037146,0.00863888887779155,-0.0030383154409783426,0.018359212396209915,0.0011377241841431774,-0.005328820541086433,-0.007350094074221476,-0.019962159265932405,-0.039107972079899155,-0.022983623702149753,-0.07488574257863038,-0.07542524608579745,-0.02188367147309176,-0.021563717201683312,0.027853851038533498,-0.019030335750089722,0.04028390935538202,-0.026688216586845354,-0.052864210017932185,0.021309641707245718,0.03146633991110872,-0.04479460274222802,-0.003457300166988968,0.007935135492330173,-0.027370590597245746,-0.0026026142722080747,-0.0044411021589259555,0.0034037310951534772,0.014803326077876239,-0.0036259112141602645,-0.0076256588692509755,-0.005056376315043178,-0.011713825388301777,-0.015761395941820952,-0.028892895736442017,-0.015531571831666438,-0.025602858591741898,-0.01843306124859622,-0.04774366742121238,-0.07415133522633631,-0.028338072852466586,-0.02655423556989243,-0.016950248697098092,-0.03097003823739819,0.033633878095512465,0.0032376049889198725,0.033405348585142595,0.03391818803397849,0.042189822524084535,0.015180373386331518,-0.007883957074341983,-0.0005547814207905967,0.003359811341044431,-0.03456867294050984,-0.013790864924244306,-0.017194374949045514,0.00931384453492237,-0.0009294863260974605,0.010180331452361744,-0.016324041065841424,-0.018095384122279217,-0.01939000343543112,-0.01945290450019185,0.025659939421145205,0.011606030808650072,-0.004914722781700213,0.014747424204418939,-0.023102099923077622,0.018506186289714618,-0.026389420901700204,-0.016551260292595037,0.041613592665830215,0.04835019715380554,0.021552813042716855,-0.030338504854468866,-0.022353819247955552,-0.018620952003445466,-0.01778098737279083,0.007379477087111315,0.010660035802035114,0.002145392606119606,-0.011336154383143079,-0.006821031404472014,0.005207589103190795,0.02273224580556096,0.0021603191579171515,-0.0013619707533996273,0.01784962754902738,-0.010263761792668922,-0.01503991004887092,0.013387500636685338,0.020341800617095403,0.014374544731313593,0.026645530521490494,0.025905983528103808,0.012300294100900179,-0.012153035627321227,-0.028392788441591748,-0.00921560330072414,0.03333760269026911,0.005600774347299258,-0.022642978689827686,0.00459100287731257,-0.0029008210742403804,-0.03825615648031362,-0.019548334363984992,-0.015523003938938174,0.0007543208670041767,-0.011474667554097396,0.0010511163995420997,-0.019151823720407905,-0.0019157972484785204,0.03226231830809774,0.010423931437878748,0.01230206483501819,0.015771012213767043,0.00536191555019704,0.0026601435917828747,0.03495922796208374,0.026660647301661063,0.009301598755927907,-0.03278494812196034,-0.022726997898169513,-0.01744770475670313,-0.021472395570454997,-0.018550238846775088,-0.047438296596334015,-0.02217608059025523,-0.005139727868394633,-0.028781423486670406,-0.007985429176841374,-0.016523749896692475,-0.012644165327547047,-0.0034007067513354694,-0.004031837934161229,-0.016733705239801205,-0.0119863884704863,-0.014017381733648302,0.015834935401900656,-0.011719880723582416,0.0020912781415511833,-0.008472770902103171,0.002831427118439906,0.008809365921898132,-0.0030598474100875096,-0.004729486283010999,0.0025695748283438443,-0.0045173627182778075,0.010888403994487414,0.002485771965769463,-0.012322718459704271,-0.0033782154734315513,0.005246108659298516,-0.007071943666118525,-0.0023510834148456447,-0.02133445811401764,0.020003329995323366,-0.0026388951357551324,0.0022198656057014774,0.004560496741355124,-0.0033358028847804483,0.004236536951232706,0.0041766915859387885,-0.00396323925789899,-0.003776292553025159,-0.011383144780808305,-0.002410920871748065,0.00921419867038377,0.0019123680460573311],[-0.02226431760621171,0.005917084243970178,0.019004881964352145,-0.009217192822539242,0.004528064339345069,0.0016323168144494853,-0.005003867193947519,0.008601935459186512,0.025168771724026758,0.00561467548530885,-0.0008955529882954323,-0.012025996936352383,0.005150506085864609,0.0024291511802832086,-0.01620165163132575,0.00043027742263318584,0.008069256639952383,0.024102955745472898,0.004559102531659623,0.005922195470523548,-0.012793412991310746,-0.00222368438149184,-0.0031350756233794524,0.009928563079334604,0.01909053604853372,-0.020831574618524758,0.0017486960174507042,0.0048801112778996646,-0.0017224481880391534,0.00707424786668027,-0.013607944936084145,-0.00953604673555232,-0.015429136677795685,0.008995434261307137,0.028965897296373777,0.012363039057882797,0.006047454613126031,-0.011739012253587516,-0.0010185676266433645,0.014889011756551227,-0.00589630246690219,0.002328123309651509,-0.01910332224093562,0.010941265076958178,0.01897421192905403,0.012717784454126493,-0.004185867948369564,0.005745411437319759,-0.011906598472240624,0.004643916869962009,0.0013772882247427584,-0.012773376352458175,0.0014696093490188468,0.011193147084208386,-0.00008357478096343172,-0.004305264480751733,-0.0015013491806357745,-0.005358425746743913,0.007374358374691275,-0.011272401163297837,0.0023100126354108396,-0.004206126355710734,0.009947427891902961,0.01864631505711127,0.025155526530485767,0.030173092500086124,0.030222523633934097,0.02595594280021055,0.03836554370256203,0.002608723127522288,0.05165571216843068,0.04898231712859808,0.02518838389825156,0.030132156507868067,0.008950156941296453,-0.009219100509369377,0.02437335933550138,0.03150664978050884,-0.009484794307097321,-0.0036257665503146097,-0.016741712742949076,-0.007757137457020315,-0.008981088537561384,0.02055574070806581,0.02170681277570401,-0.011218933548026094,-0.003954539177151743,-0.0033408317052110877,0.019034932307598396,0.00439924086041204,0.008741142379521531,0.031416895652309325,0.040008000947298394,0.07204268717219932,0.023662323572800993,0.040406904017859305,-0.0015003887669127983,0.043180406160287094,0.03326824216484328,0.026444492712912063,0.0766222405955469,0.012758384339386147,0.01893126460029184,0.017348037188974735,-0.011502404661851165,-0.004747586472799301,-0.023345514487212043,-0.0069183542332250806,0.012558786661691322,-0.0066519589187980345,-0.007026430920855433,-0.0012211542893587495,0.007257942969057344,-0.008821822607579247,-0.007702799715246291,-0.0035841780829881644,0.011335182907420837,0.01954495480617537,0.011825136724468065,0.001545049573230452,0.028873677477884722,0.0648201636756583,0.053250588459756325,0.014725263618600609,-0.028024134454576185,-0.08886156513108882,-0.024087849357094827,-0.05637122871459561,-0.057671988136224074,-0.05632236546510831,-0.055256108536165346,-0.004253079464894764,-0.02162534889042869,-0.036550384824119486,-0.05864272600438107,-0.03530680033302235,-0.03132899985627693,-0.003936426390309481,0.01236817070208749,0.0006468649910522318,0.0042060420589790344,-0.00507770134185936,-0.01979960542194963,-0.008317784367412628,0.016033592251524162,0.01491671519571225,0.01687740211179143,-0.01005697143528259,0.00043674528741848126,0.04435209125965866,-0.007273701836125209,-0.07912586247277983,-0.05346135998575736,-0.04751989739589071,0.005275871673020069,-0.016576163117465823,0.018475686303057466,-0.022743967010122632,-0.05247156413755752,0.007750858159437699,0.06760315166654281,-0.0029225128403852214,-0.016566364161155527,0.01266555598050228,-0.01848915454107789,-0.027708399568658833,0.0009669159053525487,-0.0006039475316608733,0.000889961097244807,-0.004283290994301525,0.005332294653975415,0.007399998266855415,0.017143775521724806,0.028945679799207088,0.03567155031274261,-0.06417862045731618,-0.060099797050951496,-0.05160527681321062,-0.14070200138201805,-0.07012480130387964,-0.0921044183613811,-0.078265461896727,-0.1132988347925044,-0.0547861767717527,0.045596468502823215,-0.07399223639768891,-0.0871038328970204,-0.060123575083413074,-0.10656145850920189,-0.06661306881040295,0.014242390462885592,-0.033780499375631524,-0.03880916300981341,-0.012510256317610342,0.015602702373982652,-0.00022012859462240813,-0.00036997528838474613,-0.0073147747214938035,0.027316711469798735,0.011637339922889511,0.013967670607325604,0.004219048818884861,-0.03942041078898815,-0.05634882965334701,-0.01699359743726918,-0.06604541946936478,-0.06304517397243256,-0.018976755132717953,-0.09677371146587731,-0.13872012253184504,-0.05733331649479739,-0.07108029830637118,-0.1329915541560477,-0.08388350041446467,-0.1275725468421016,-0.19452022882278466,-0.15701384314587588,-0.08628519988471252,-0.07192074224980842,-0.08042440094011871,-0.0206113753993254,0.004996986460795664,-0.011121714294741349,-0.005481962456023141,0.015574860474895627,-0.0008908040711733459,-0.0012669227692288232,-0.011912931354013537,-0.012987373702300749,0.013593433361251413,-0.009432980829270812,-0.06914328715816667,-0.004022262342376233,-0.02188625702742254,0.004975255154183904,0.0035181304597737993,-0.10047720608119655,-0.1251034572067678,-0.06633883896927906,-0.05556684441630154,-0.07941178824867962,-0.019400675819786006,-0.10510975682870517,-0.05853670412296292,-0.03161491320917991,-0.029333611891214532,-0.03448562699745014,-0.011444632424115931,-0.0470843151771874,-0.044570213986446026,-0.015152939190297345,-0.0077780832853161135,0.0033619454456751165,0.013311107227387035,-0.010523220991122772,0.0041183325807559925,-0.01258241514215074,-0.019440766403608367,-0.04790776696326558,0.000417151501104404,-0.0030728433443502775,-0.055541271634406364,-0.058265303450156125,-0.04618232776956039,-0.06322652887086527,-0.0430204208114763,-0.03661362944674809,0.042226245721052214,0.05555836365018169,-0.017309073663025788,-0.022508086716235835,-0.03636767526379194,-0.024341195791029828,0.005948274377217997,0.027662228658825904,-0.019238458033733762,-0.03353820415794577,-0.028065349236979283,0.0020039930733502056,-0.004630792965493195,0.001015194586909818,0.004724133221399155,-0.0001402745278275639,-0.022378940604808103,-0.013692115243648386,0.009040113505544007,-0.019063124585659896,0.003846850321965555,-0.022053716519596957,-0.06395266929727368,-0.1333833453132098,-0.03896591950352709,-0.008746980397884713,0.009391644476959777,0.04138566016164363,0.1133117025354602,0.06767216161014476,0.08671237073638086,0.060249444688190164,-0.024317799526213123,0.0030701679589482853,0.1123875471602948,0.04341159112877904,-0.0066854476270226905,-0.005846942475566656,-0.023377960847567433,-0.0028154304524899425,0.006595826974709672,0.005480921992512783,-0.0006744863319704906,0.003769472192119427,-0.020664722762668095,-0.04474364030814648,-0.029752567306162457,-0.03467924149281517,0.011507654348561026,0.02611789729140876,-0.005988270546487631,-0.06440872609576942,-0.0613416821969769,-0.05482713043123646,0.08739924457511895,0.11969542543765582,0.06431681613091426,0.039012169529523855,0.012618714166829643,0.024378062364403347,0.06247267250796078,0.05229439136285577,0.0852455258179985,0.08381810988493398,0.011705739379086599,-0.015309559820569384,-0.02486124625189148,-0.04730900209640615,-0.0004890882571228933,0.006423321921153886,0.002007733779076151,-0.017915395473103776,-0.015988705379377684,-0.07149560011795054,-0.06085000794523013,-0.07099096937571528,-0.04150611444419705,0.01338486820919519,-0.020434755695076755,0.015494956531354263,0.029070860744046172,0.09401839671932379,0.18132908287265287,0.17652784867753785,0.009636402890010894,0.10024412528429405,-0.019050131631732085,0.009540961772233496,0.07731143011970092,0.008619497265878817,0.0942643325126114,0.11187455672553809,0.038247764955509786,0.06883765437385408,-0.01328669652705987,-0.021431305733192733,-0.010770269054301276,0.00027705738173356873,0.007138337390926343,0.0005326262047340826,-0.04001115609645045,-0.047478152616889945,-0.0349101660301244,0.006904194317102047,-0.036399432389535406,0.03398837332699262,0.009235062315357208,0.07546627769439294,0.09865102216948168,0.14776602066558908,0.16929998216564413,0.07127305578499928,0.06065671132280379,0.052329243528571955,-0.04290591630331625,0.012076651398538593,-0.003967425685519502,-0.010055275427377311,-0.001229316248817526,0.05741115274556998,0.09257885315768355,0.08996824027611404,0.0008503336658641438,0.009387801527862494,0.012800996788660847,0.009971700261451591,-0.008672976448801798,-0.005637452404183428,0.003345805120961446,-0.00047924973004705813,0.010716677276880691,0.052892310026456474,0.019537844632474606,-0.0005054855767426222,0.10900367292120465,0.07734664366510387,0.19283091273367634,0.19221013625413325,0.10634588450160133,-0.024329311244414082,0.07982788863286833,0.12465613089762732,0.03454334737499249,0.07664090443239008,-0.02670560373756202,-0.014637025659020874,0.02320520649362153,0.04674105012431412,0.08034146123511895,0.07597165194300433,0.03727840335273833,-0.012491899002554827,0.013393881477651295,-0.013420184735795659,-0.008179336147533316,0.021869656966474246,0.020921063117098,-0.0008171156408648913,0.058978447340597824,0.06799628310494311,0.05914771645013894,-0.014197809631041444,0.060340180309005405,0.040913206790336734,0.09705038718830511,0.07038638024133122,0.07144468602352931,-0.019862523612386763,0.039104922323909205,0.018555873657642562,0.08609770443055169,0.057043622853957296,0.08568584762899979,-0.004854467158470172,0.038441767907927395,0.023079422175973877,0.041224037977731255,0.07600475833545281,0.05688920002941541,-0.007450677961070295,0.0007473619799450911,0.00888650463975048,0.01568308305886546,0.008404986962551465,0.02929729251572712,0.01529887639571556,0.05308009263980853,0.03464704609427625,0.0666976336920777,0.046844448655105515,0.061168604352963916,0.02922352513019243,0.1088780646137345,0.0017061935841545758,0.004661357533136162,0.04370188612308971,0.0503405714752683,0.0180629468645346,0.09718494521395354,0.0800975489208577,0.08232569695216077,0.029123330873401878,0.06353812072887521,0.03764751374975033,0.05731497196519153,0.034873069282667604,0.07144376060170915,0.02091849671102434,0.01243979326041854,0.007505187281989036,0.004049220400422286,0.021097800706712983,0.033043860353021016,0.02509096513770153,0.05212218542496026,0.030415780770584742,-0.01791615936360564,0.08051993144376253,0.03069446408566466,0.037571842628825326,0.08306656851903618,-0.01491136618895015,0.053538605184036234,0.09068974364585133,0.08698717342804109,0.08972659135585918,0.07111702953158514,0.1682778049250635,0.03621093619406222,0.02365921644862722,0.07107898315162324,0.018464676726592397,-0.010837063253665822,-0.020855906238658548,0.05481979659975514,-0.006414642347851492,0.00482320590199839,-0.005260771836705357,0.011847300071029616,0.006221085680020468,0.022336911212759058,0.024727973384190707,0.05483545576230636,0.06081832957991955,0.032420896231244084,0.06622698826687813,0.050189689115536125,0.001141131321288501,-0.011393396457407475,0.02503276679989944,0.10523781475823997,0.1373812024228495,0.1513976052316662,0.15559192656625648,0.20651202486535747,0.1182625734251043,0.03279470736999948,-0.06896998549249861,-0.034134679649543274,-0.04743211293263527,0.006297313708226609,-0.009220613907166239,0.03825281260204177,-0.005739659415972127,-0.0073586679658654,0.017154818842934367,0.008400786724169511,0.010692734923169312,-0.015031576015398205,0.03157231236390887,0.08289659781814726,0.030553872737855547,0.01844352282076655,0.02559651037133993,0.016040663612060024,0.01906028805850303,0.019616349160680592,-0.05455265505901385,0.014614040295483636,0.1748723217411736,0.20279915614972746,0.2372863731067221,0.1558486726209678,0.06426088595285974,-0.04729241270333232,-0.08873310013628725,-0.06978991077700121,-0.017798686415431236,0.02048028256616023,-0.0165007259274982,0.037665424412933135,0.01578773077906321,0.005828757736658172,0.006344424293296173,-0.02403369401408302,0.0068472364142486185,0.018171065969713424,-0.006392865203920196,0.015478903557949904,-0.021710098728568904,0.0737543590651178,0.058934736162606756,0.03978163877267966,0.003908575502516976,0.014603333858662252,-0.05297106068878828,-0.043707166649325044,-0.05508941052818143,0.047726416737777715,0.018744827410835965,0.03478905417910865,0.026550999764854588,-0.08828669247017783,-0.08277199531814781,-0.03438555613607399,-0.0160261911000563,-0.007080997631992111,0.0025674685029934787,0.0010700360241188416,0.010338677801140266,0.006443870993167948,0.00838270824159615,0.001728605586960965,0.003477141603398638,0.030994598460524863,-0.017980453319474607,-0.013634582982616496,-0.03004820513206453,0.07896731906452772,0.02278361265523457,0.015964088550593086,0.010818532450732216,-0.04462197578572886,-0.014119630734569934,-0.057931581763299274,-0.15950972182372508,-0.15473414913816808,-0.030666884708619967,-0.044274517975961235,-0.038627489606225696,-0.05667392384185862,-0.0361238580434804,0.0019264617956463806,-0.008091701924319778,-0.004922778359395674,-0.012954841627028837,0.008939910969641317,-0.021612442410746956,-0.023778941679706334,-0.007441353885910449,0.00041541042092854886,-0.0015563924357978526,0.022021095866746793,-0.021017779758119488,-0.045862068025357174,-0.06088827880283106,-0.03760245592145055,-0.09091072985437863,-0.033690573971382705,0.0123112428588409,-0.040306382922817886,-0.03611121538556761,-0.04017247225408973,-0.15957801969913046,-0.10359251975751219,-0.08938836805799594,-0.15698247248427152,-0.11728327421263786,-0.03862766168503103,-0.025746225466942822,-0.016392468499412453,-0.030001992465498162,-0.0404164565793457,-0.012830680194434152,-0.0011866954992496245,-0.003761709705139802,-0.007317062471113464,-0.005165891164192588,0.014667157392880152,-0.0007856798902435357,0.00807715321035463,-0.012211026491233137,-0.04795208772671737,-0.005884446647168879,-0.018872636195265455,-0.03913596082193342,-0.04993168307266276,0.022650468563175156,-0.011501316116901647,0.016933642611687057,-0.09887956351400538,-0.0832377660857311,-0.17766253082266714,-0.16537102605644513,-0.220972492270452,-0.19535960278792824,-0.11613063345321235,-0.08662863132400972,-0.037257703540813175,-0.025828736766170778,-0.037315138957477186,-0.026222311374082676,-0.005877330116090479,-0.01252897337716295,0.008303019858775983,0.007118082807093959,-0.019227185068357307,0.002317349769685843,-0.020281583233408545,-0.01564512198823199,-0.04264568455365187,-0.03626403860983478,-0.020014531246137154,-0.015606480601366116,-0.03533556619112592,-0.019857283635088867,-0.06585284345721543,-0.10160310548004425,-0.12325068410123147,-0.09676394359663182,-0.1194601512063183,-0.08565897990403237,-0.11229897203621664,-0.11083003905550741,-0.05853238468852236,-0.06758805544275734,-0.008673123297122599,-0.01560561287853595,-0.020331971971267987,-0.014343194777792063,-0.006828549821233724,0.004608288946455133,-0.006286865246352894,0.006131355728087485,-0.0002955062564394764,0.0008335970398874859,0.0013595708507231979,0.0021223364581907933,-0.01598764054760271,-0.04815934190612152,-0.06989786572052466,-0.07218405840547117,-0.08209825628804529,-0.09031916127318153,-0.0660425471663361,-0.05307472691868191,-0.10511603662810425,-0.13731643908713406,-0.0787428208739651,-0.051648299891697697,-0.06954021087532034,-0.06531805177423364,-0.07600896836964254,-0.05009442057156604,-0.03332965145971131,0.02956911515798839,0.01755330065769937,0.017398131383645512,0.004695936077932929,-0.011738870014668357,0.001634777495516073,0.0024636653610662115,0.009014528909627626,0.010850558670356843,-0.009428473231531507,0.009767292400767501,-0.012481433017263073,-0.019673676165896693,-0.027876098026997285,-0.009206471289676433,-0.021737742294117582,-0.01652015022683553,-0.013434918236988117,-0.030512243831443984,-0.02360288317251722,-0.06538822839259839,-0.04488852462129973,-0.014562841440461487,-0.023561538459775943,-0.011912029030952622,-0.009415036247813629,-0.020106396551134838,-0.010622413688279882,0.00535408083209717,-0.0036585933270073985,0.002237031107636112,0.006092123626112841,0.002688013936070632,-0.0007317411446147151,-0.0026221565034325206,0.0156888485937339,-0.008719758275222046,0.00021284614067299538,0.010543875678177982,0.015582635198710691,0.0013247781429333117,-0.012108221447221339,0.010136427470358634,-0.00551346877555137,0.00406885179947217,0.004002008851112884,0.00025570854571929104,0.015787211108114093,-0.011746702073588473,